{
  "version": 1,
  "task": "pdf_layout_classifier",
  "model_type": "linear_v1",
  "labels": [
    "caption",
    "footer_header_noise",
    "form_row",
    "heading",
    "keep_as_text",
    "link_text",
    "list_item",
    "paragraph",
    "separator",
    "table_like"
  ],
  "features": [
    "text_len",
    "normalized_text_len",
    "word_count",
    "digit_ratio",
    "punctuation_ratio",
    "uppercase_ratio",
    "cjk_ratio",
    "x0",
    "y0",
    "x1",
    "y1",
    "width",
    "height",
    "page_width",
    "page_height",
    "x_center_ratio",
    "y_center_ratio",
    "top_ratio",
    "bottom_ratio",
    "font_size_hint",
    "bold_hint",
    "line_gap_before",
    "line_gap_after",
    "indent_left",
    "alignment_hint",
    "near_image_distance",
    "page_edge_distance",
    "repeated_text_score",
    "source_ref_count",
    "has_rich_inline_payload",
    "has_link_inline",
    "link_inline_count",
    "is_heading_candidate",
    "is_page_number_candidate",
    "is_header_footer_candidate",
    "is_artifact_candidate",
    "is_caption_candidate",
    "is_table_cell_candidate",
    "is_noise_kind",
    "is_heading_kind",
    "line_count",
    "prev_gap_before",
    "next_gap_before",
    "prev_font_size_delta",
    "next_font_size_delta",
    "same_paragraph_candidate",
    "wrapped_candidate",
    "latin_ratio",
    "symbol_ratio",
    "text_density",
    "page_line_count",
    "page_block_count",
    "page_median_font_size",
    "relative_font_size",
    "near_annotation_distance",
    "near_link_annotation_distance",
    "near_uri_annotation_distance",
    "near_dest_annotation_distance",
    "top_zone_candidate",
    "bottom_zone_candidate",
    "repeated_edge_candidate",
    "contains_currency",
    "contains_time",
    "contains_date",
    "looks_like_address",
    "looks_like_separator",
    "looks_like_page_number",
    "looks_like_bullet",
    "looks_like_list_marker_token",
    "contains_url",
    "contains_email",
    "contains_url_or_email",
    "contains_path_like",
    "caption_marker_signal",
    "has_raw_hyphen",
    "ends_with_colon",
    "has_terminal_period",
    "has_markdown_escape_chars",
    "form_key_value_signal",
    "code_like_signal",
    "monospace_hint",
    "boundary_prev_no_sentence_end",
    "boundary_next_starts_lowercase",
    "boundary_next_continues_sentence",
    "boundary_similar_indent",
    "boundary_same_column_band",
    "boundary_table_guard",
    "boundary_caption_guard",
    "boundary_noise_guard",
    "boundary_heading_guard",
    "boundary_list_guard",
    "boundary_layout_compatible"
  ],
  "normalization": {
    "mean": [
      25.308755760368662,
      25.308755760368662,
      4.216589861751152,
      0.15642531096469522,
      0.04971677554802636,
      0.13232089632591842,
      0.08409639515630299,
      179.55047428571427,
      385.6929940092166,
      280.3632743778802,
      399.4425410138249,
      100.81280009216592,
      13.749547004608301,
      600.2971428571428,
      780.9235944700462,
      0.38441002555498877,
      0.4963222896858233,
      0.49359761979043376,
      0.4862421991620804,
      9.488405529953917,
      0.0,
      14.165980322337372,
      12.544673372847376,
      179.55047428571427,
      -1.0,
      0.0,
      93.96741073732721,
      1.248189598420013,
      1.096774193548387,
      0.0,
      0.0,
      0.0,
      0.18433179723502305,
      0.06451612903225806,
      0.06451612903225806,
      0.0,
      0.0,
      0.0,
      0.004608294930875576,
      0.1889400921658986,
      1.023041474654378,
      13.161902353164665,
      13.019711170670691,
      -0.019368663594470065,
      0.07363133640552995,
      0.0,
      0.03225806451612903,
      0.5921493426142898,
      0.059277143736089284,
      0.019718639031747524,
      110.3410138248848,
      109.963133640553,
      9.559225806451613,
      0.990686692767181,
      18.33592258064516,
      18.445148387096772,
      12.351692165898617,
      6.093456221198156,
      0.18433179723502305,
      0.1336405529953917,
      0.15207373271889402,
      0.05069124423963134,
      0.018433179723502304,
      0.059907834101382486,
      0.009216589861751152,
      0.013824884792626729,
      0.027649769585253458,
      0.07373271889400922,
      0.018433179723502304,
      0.0,
      0.009216589861751152,
      0.009216589861751152,
      0.009216589861751152,
      0.004608294930875576,
      0.10138248847926268,
      0.08755760368663594,
      0.10599078341013825,
      0.027649769585253458,
      0.10138248847926268,
      0.02304147465437788,
      0.0,
      0.0,
      0.0,
      0.0,
      0.0,
      0.0,
      0.0,
      0.0,
      0.0,
      0.0,
      0.0,
      0.0
    ],
    "scale": [
      66.3226408424274,
      66.3226408424274,
      11.751423146778597,
      0.2836675930012885,
      0.1084237794204128,
      0.19483069400450234,
      0.2585026673849336,
      143.72386649325836,
      251.19118840682577,
      164.36532807859868,
      252.63564464137605,
      132.35071183420808,
      18.261947999746365,
      55.57645180760796,
      75.04133312035913,
      0.22906339412673501,
      0.30099283975279123,
      0.30215584794916617,
      0.3012119927800408,
      2.6544485487984635,
      1.0,
      72.08767079603642,
      63.84063367143214,
      143.72386649325836,
      1.0,
      1.0,
      57.253301090379814,
      2.1785275068640346,
      0.3392030639553538,
      1.0,
      1.0,
      1.0,
      0.38775454318825125,
      0.24567010018915833,
      0.24567010018915833,
      1.0,
      1.0,
      1.0,
      0.06772782698939663,
      0.3914610245455355,
      0.15003521286727842,
      77.70627748476072,
      64.00784042608159,
      0.9328609394169738,
      1.2366098567534842,
      1.0,
      0.17668469596940845,
      0.4212793627545387,
      0.15525660486546686,
      0.009427125621664301,
      83.38083096398145,
      83.73861309395559,
      2.3678520608752502,
      0.12331561634172959,
      81.75635323002108,
      81.75627769905097,
      76.69371537172792,
      30.865708425791293,
      0.38775454318825125,
      0.3402657132161241,
      0.3590923454152655,
      0.21936645595229318,
      0.1345117006389532,
      0.23731600349463103,
      0.09555963757293881,
      0.11676368165271822,
      0.163967252300988,
      0.26133542633654977,
      0.1345117006389532,
      1.0,
      0.09555963757293881,
      0.09555963757293881,
      0.09555963757293881,
      0.06772782698939663,
      0.3018345233882546,
      0.2826504373307955,
      0.3078258228970458,
      0.163967252300988,
      0.3018345233882546,
      0.15003521286727842,
      1.0,
      1.0,
      1.0,
      1.0,
      1.0,
      1.0,
      1.0,
      1.0,
      1.0,
      1.0,
      1.0,
      1.0
    ]
  },
  "weights": {
    "caption": {
      "bias": -113.04798622589286,
      "values": [
        -0.06526736041750887,
        -0.06526736041750887,
        -0.01851627584802278,
        -0.38534537868703733,
        -0.019437061165171667,
        0.29987334347759304,
        -0.3268273057827169,
        -0.751777667721014,
        -0.060163883915879256,
        -0.48758820384715723,
        -0.06637947436159125,
        0.21084735902676732,
        -0.09074518207582756,
        0.21154709692041906,
        0.1482874133824015,
        -0.7092115947450346,
        -0.06906067310340445,
        0.07691154006993534,
        -0.06086830889149503,
        0.5720934366122801,
        0.0,
        -0.19742021634790988,
        -0.19740954686087184,
        -0.751777667721014,
        0.0,
        0.0,
        -0.3854644412227825,
        -0.5756035900475395,
        -0.28661952839853677,
        0.0,
        0.0,
        0.0,
        -0.4775835343218132,
        -0.2638286660237018,
        -0.2638286660237018,
        0.0,
        0.0,
        0.0,
        -0.06835638814094003,
        -0.48488815721866374,
        -0.1542847689270456,
        -0.17016433567898487,
        -0.20434977221862155,
        0.020858771668041492,
        -0.05981856105888086,
        0.0,
        -0.1834194366954028,
        0.4048176556627971,
        -0.3835687055548613,
        -0.663062274811018,
        -1.3174157771307609,
        -1.3072534706273298,
        0.6112900667913403,
        0.07587379987629164,
        -0.22531351244696854,
        -0.22665589865532362,
        -0.1617978196229138,
        -0.19833229104022185,
        -0.4775835343218132,
        -0.3945718126879942,
        -0.4254554008972283,
        -0.23215001448079678,
        -0.13767217595608738,
        -0.2536077816030928,
        -0.09689508556572168,
        -0.11894870641538699,
        -0.16941052184485744,
        -0.28344444192836266,
        -0.13767217595608738,
        0.0,
        -0.09689508556572168,
        -0.09689508556572168,
        -0.09689508556572168,
        14.764979838443047,
        -0.3374426845163705,
        -0.3112075954795601,
        -0.34591471397477547,
        -0.16941052184485744,
        -0.3374426845163705,
        -0.1542847689270456,
        0.0,
        0.0,
        0.0,
        0.0,
        0.0,
        0.0,
        0.0,
        0.0,
        0.0,
        0.0,
        0.0,
        0.0
      ]
    },
    "footer_header_noise": {
      "bias": -14.12403644694364,
      "values": [
        -0.2325008146742323,
        -0.2325008146742323,
        -0.1549964245758504,
        0.6117974795711709,
        0.3689186165440845,
        -0.44912187316372276,
        -0.0882464342013777,
        0.5717360187241013,
        1.053053524027496,
        0.44919778762214085,
        1.045997465055538,
        -0.06301114194416021,
        -0.014320612396616382,
        -0.02064203177858716,
        0.724230802387151,
        0.557127887312149,
        0.9440892896262517,
        -0.9334012577355489,
        0.9504787023230024,
        0.7893615903158505,
        0.0,
        0.8293789228296937,
        0.976936730346831,
        0.5717360187241013,
        0.0,
        0.0,
        -0.9789342411063013,
        -0.15033201486387557,
        -0.3158664190514487,
        0.0,
        0.0,
        0.0,
        0.15350899317486852,
        1.4260593201397758,
        1.4260593201397758,
        0.0,
        0.0,
        0.0,
        0.7030942780210974,
        0.004344443419579865,
        -0.17002811269511145,
        0.7771755792191811,
        0.9661679695149746,
        0.1360181877709135,
        -0.3217238942442137,
        0.0,
        -0.20213570574595413,
        -0.7947265786229131,
        0.463980384960524,
        -1.0019166203693497,
        -1.3588989356309624,
        -1.3556518787323864,
        0.9880535462952639,
        -0.161426056904605,
        0.7430159295168942,
        0.7415374809608144,
        0.7058306215410048,
        0.21034901707119918,
        1.513160075580847,
        0.18492950545404938,
        2.1738481893709958,
        -0.2558387914686332,
        0.6321681549004012,
        1.0534477081974623,
        -0.10678233919487697,
        -0.13108632951899793,
        -0.18669730978821023,
        0.4945816282627552,
        -0.1517203571760963,
        0.0,
        -0.10678233919487697,
        -0.10678233919487697,
        -0.10678233919487697,
        -0.07533152978797472,
        0.6761374754687943,
        0.030084515137658877,
        -0.3812121337681199,
        -0.18669730978821023,
        0.32679977980991726,
        -0.17002811269511145,
        0.0,
        0.0,
        0.0,
        0.0,
        0.0,
        0.0,
        0.0,
        0.0,
        0.0,
        0.0,
        0.0,
        0.0
      ]
    },
    "form_row": {
      "bias": -4.93571447265734,
      "values": [
        -0.19462588646712856,
        -0.19462588646712856,
        -0.24069912868624369,
        -0.1761952242853403,
        0.19488250746141636,
        0.37097226743642964,
        -0.3836668372231894,
        0.05839298802114004,
        0.3660737788714161,
        -0.19302882419712486,
        0.3411865865960918,
        -0.3031318190606798,
        -0.31533406576747447,
        0.24833789638483977,
        0.17407652875325394,
        -0.1278320415050864,
        0.3710890056208645,
        -0.3521651813048658,
        0.38836932470948726,
        -0.6343585755413153,
        0.0,
        -0.18019566191107816,
        -0.08395516075432137,
        0.05839298802114004,
        0.0,
        0.0,
        0.4166292142098148,
        -0.41323539868875486,
        0.9278315958830103,
        0.0,
        0.0,
        0.0,
        0.5453513164647108,
        -0.30971191228869344,
        -0.30971191228869344,
        0.0,
        0.0,
        0.0,
        -0.08024445564371221,
        0.5263044212980753,
        -0.1811169026534883,
        -0.09397907342954046,
        -0.09248844231124294,
        -0.05213342360491502,
        -0.1569212748848407,
        0.0,
        -0.21531846916416852,
        0.4396257878666321,
        -0.29335217231315147,
        0.568964379013503,
        1.0418409628817071,
        1.042711530143636,
        -0.7765981648945051,
        0.16152116380329318,
        -0.26449847113339786,
        -0.26607431581277124,
        -0.18993657086168142,
        -0.23282486339504305,
        -0.5606415402908242,
        -0.2531347311329411,
        -0.3999250193126659,
        -0.10961017571964318,
        -0.1616151630788852,
        -0.1471218143200672,
        0.6342223782483603,
        -0.1396354379658891,
        -0.198873221296137,
        -0.3327391274811214,
        -0.1616151630788852,
        0.0,
        0.6342223782483603,
        0.6342223782483603,
        -0.11374640479454284,
        -0.08024445564371221,
        0.07747965339775809,
        1.5312423649433238,
        -0.40607379466604077,
        -0.198873221296137,
        1.3799017143868324,
        -0.1811169026534883,
        0.0,
        0.0,
        0.0,
        0.0,
        0.0,
        0.0,
        0.0,
        0.0,
        0.0,
        0.0,
        0.0,
        0.0
      ]
    },
    "heading": {
      "bias": -8.161486353658495,
      "values": [
        -0.17644218422602884,
        -0.17644218422602884,
        -0.17975423042372454,
        -0.37466704351076857,
        -0.3421224097567291,
        0.4888214603717045,
        0.39252828548748653,
        -0.4260699357819709,
        0.6918107840632604,
        -0.440584076878755,
        0.686484603550854,
        -0.08447501052558937,
        -0.01896252508569333,
        0.41515407328953513,
        0.12393838330908263,
        -0.5298710139103079,
        0.7310831953452289,
        -0.7235556846854118,
        0.7352795970583467,
        0.7931657966553557,
        0.0,
        0.5346152687855948,
        -0.03628143771984549,
        -0.4260699357819709,
        0.0,
        0.0,
        -0.6392626301686671,
        -0.6094626247562183,
        -0.30347950065727425,
        0.0,
        0.0,
        0.0,
        0.7604599354201178,
        -0.27934799931921367,
        -0.27934799931921367,
        0.0,
        0.0,
        0.0,
        -0.07237735214923062,
        1.1587869061265803,
        -0.16336034356981297,
        -0.023840784738482213,
        -0.03187026800367691,
        1.2535914209454542,
        1.3632628547741257,
        0.0,
        -0.19420881532454418,
        0.21299496123505662,
        -0.3731921355074702,
        -0.8868048652290093,
        -0.3762787444837686,
        -0.382573796142022,
        0.07775469461055137,
        1.8239595127291839,
        0.45838938152760583,
        0.4569686753117151,
        0.3251329863347281,
        0.4025308940019246,
        0.5494371656168372,
        -0.17730797636783013,
        -0.4504821891853006,
        -0.24580589768554953,
        -0.14577053924762196,
        -0.2685258864032747,
        -0.10259479648135238,
        -0.12594568914570387,
        -0.17937584665926082,
        -0.3001176443947369,
        -0.14577053924762196,
        0.0,
        -0.10259479648135238,
        -0.10259479648135238,
        -0.10259479648135238,
        -0.07237735214923062,
        -0.35729225419380406,
        -0.32951392462541657,
        -0.36626263832623285,
        -0.17937584665926082,
        -0.35729225419380406,
        0.38201188034787037,
        0.0,
        0.0,
        0.0,
        0.0,
        0.0,
        0.0,
        0.0,
        0.0,
        0.0,
        0.0,
        0.0,
        0.0
      ]
    },
    "keep_as_text": {
      "bias": -64.87678286010105,
      "values": [
        3.7529686678239815,
        3.7529686678239815,
        3.72964137614729,
        -0.5471259521302574,
        0.011144311002667976,
        -0.5891384529721944,
        -0.3345720286685633,
        -0.7017807044347301,
        -0.4651365798681316,
        1.3805769493809383,
        -0.21679545448716112,
        2.476613952066033,
        3.39875849332943,
        0.0561843648626395,
        -2.3653369908762105,
        0.5921076486995203,
        -0.11493412351699477,
        -0.16352521132056946,
        -0.39373862320945624,
        0.7767865643271786,
        0.0,
        -0.15113097537268239,
        0.686797849206438,
        -0.7017807044347301,
        0.0,
        0.0,
        -0.8600105388604085,
        -0.5892434855462964,
        1.222547751462953,
        0.0,
        0.0,
        0.0,
        -0.4889006796848893,
        -0.27008053014748623,
        -0.27008053014748623,
        0.0,
        0.0,
        0.0,
        -0.06997620776513291,
        -0.49637839791104915,
        3.26937468638202,
        -0.011818759812103629,
        0.6773711412110243,
        -0.728315478656445,
        -0.5602306386887591,
        0.0,
        1.7524814425494413,
        0.42002994594125515,
        -0.13573216100833255,
        -1.1296317052335338,
        -1.1245628226341136,
        -1.131492408991563,
        1.0658996044316067,
        -0.3151481338611036,
        0.32378659674227206,
        0.32241291265586897,
        0.29650404508666095,
        0.1172590219049199,
        -0.4889006796848893,
        0.603561393489071,
        -0.4355372824350773,
        -0.23765119965806686,
        -0.14093454979390937,
        -0.2596174446742561,
        -0.09919117764073877,
        -0.12176739614087011,
        -0.17342498918715266,
        2.333379126206473,
        -0.14093454979390937,
        0.0,
        -0.09919117764073877,
        -0.09919117764073877,
        1.694515951362621,
        -0.06997620776513291,
        2.4939645886229296,
        -0.31858218305016583,
        0.20271614394070914,
        4.008044194547527,
        -0.3454389566613082,
        3.26937468638202,
        0.0,
        0.0,
        0.0,
        0.0,
        0.0,
        0.0,
        0.0,
        0.0,
        0.0,
        0.0,
        0.0,
        0.0
      ]
    },
    "link_text": {
      "bias": -10.446619941288516,
      "values": [
        -0.21674348031696797,
        -0.21674348031696797,
        -0.2749863945089343,
        -0.5539917357371436,
        0.3816784541729603,
        -0.6823026204746573,
        -0.3268273057827169,
        -0.759746266157179,
        1.3721914624187528,
        -0.9487273499375788,
        1.3576988275166866,
        -0.3531844336603104,
        -0.09195545010704785,
        -0.08996949287972804,
        0.8166005819487632,
        -0.9639552462852942,
        1.2565699029826023,
        -1.2420672535278352,
        1.2653520172816515,
        0.5645240329402116,
        0.0,
        -0.03687496352543045,
        -0.01612479657318396,
        -0.759746266157179,
        0.0,
        0.0,
        -0.4054681398037578,
        -0.5756035900475395,
        -0.28661952839853677,
        0.0,
        0.0,
        0.0,
        -0.4775835343218132,
        -0.2638286660237018,
        -0.2638286660237018,
        0.0,
        0.0,
        0.0,
        -0.06835638814094003,
        -0.48488815721866374,
        -0.1542847689270456,
        -0.17016433567898487,
        -0.024166406065735124,
        0.020858771668041492,
        -0.05981856105888086,
        0.0,
        -0.1834194366954028,
        0.7558141145621788,
        -0.3835687055548613,
        -0.31343709751380117,
        -1.293318400838994,
        -1.2832590529385048,
        0.6028044891133306,
        0.07587379987629164,
        -0.22531351244696854,
        -0.22665589865532362,
        -0.1617978196229138,
        -0.19833229104022185,
        -0.4775835343218132,
        -0.3945718126879942,
        -0.4254554008972283,
        -0.23215001448079678,
        -0.13767217595608738,
        -0.2536077816030928,
        -0.09689508556572168,
        -0.11894870641538699,
        -0.16941052184485744,
        -0.28344444192836266,
        -0.13767217595608738,
        0.0,
        -0.09689508556572168,
        -0.09689508556572168,
        -0.09689508556572168,
        -0.06835638814094003,
        -0.3374426845163705,
        -0.3112075954795601,
        -0.34591471397477547,
        -0.16941052184485744,
        -0.3374426845163705,
        -0.1542847689270456,
        0.0,
        0.0,
        0.0,
        0.0,
        0.0,
        0.0,
        0.0,
        0.0,
        0.0,
        0.0,
        0.0,
        0.0
      ]
    },
    "list_item": {
      "bias": -19.721031772015248,
      "values": [
        0.8270966648186223,
        0.8270966648186223,
        0.7699103863452426,
        0.04205954548926694,
        1.1817421494771838,
        -0.6169430291343292,
        -0.3393975867743599,
        -0.6208782416891057,
        0.5588640877041049,
        0.773227075698844,
        0.5767349559030985,
        1.6344962599413613,
        0.29142964505091046,
        0.21968352372505057,
        0.1539907754355708,
        0.09556444026550119,
        0.5977725641050241,
        -0.6017582227518585,
        0.591031437671172,
        0.7373334382765142,
        0.0,
        0.14164239537900275,
        -0.02288676458890014,
        -0.6208782416891057,
        0.0,
        0.0,
        -0.46274688874206765,
        -0.4381130781843096,
        0.04409531206131335,
        0.0,
        0.0,
        0.0,
        -0.4959521317957291,
        -0.2739759224092288,
        -0.2739759224092288,
        0.0,
        0.0,
        0.0,
        -0.07098547999251464,
        -0.5035377017270739,
        -0.16021879850116272,
        -0.09997536050127667,
        0.03640509194743865,
        0.15586357228378628,
        -0.3433368379121337,
        0.0,
        -0.19047403041445676,
        -0.33143174101452666,
        0.3853111360199921,
        -0.8614363396136303,
        -0.9440644741941246,
        -0.9865418383088598,
        0.6485086948400997,
        0.33423148614486914,
        0.8754028059969838,
        0.8740098144584872,
        -0.16802081268533356,
        2.7325447491334303,
        -0.4959521317957291,
        -0.4097476516375324,
        -0.44181907016250627,
        -0.24107886119159666,
        -0.14296725964670615,
        -0.26336192704936556,
        -0.10062181962594176,
        -0.12352365666213266,
        -0.17592631114658272,
        2.3670336328344517,
        3.304132222946097,
        0.0,
        -0.10062181962594176,
        -0.10062181962594176,
        -0.10062181962594176,
        -0.07098547999251464,
        0.033626281499008946,
        -0.32317711838262014,
        1.147071702026722,
        -0.17592631114658272,
        -0.35042124930546165,
        -0.16021879850116272,
        0.0,
        0.0,
        0.0,
        0.0,
        0.0,
        0.0,
        0.0,
        0.0,
        0.0,
        0.0,
        0.0,
        0.0
      ]
    },
    "paragraph": {
      "bias": -5.745321767664612,
      "values": [
        0.23366631312413194,
        0.23366631312413194,
        0.18711466763635415,
        -0.6774263740943348,
        -0.35094141940178736,
        -0.5417267779831777,
        1.295272232958363,
        -0.9236696820401591,
        0.4867520260360858,
        -0.18138030901385502,
        0.5093303554381612,
        0.7777876117228688,
        0.3508488142773933,
        -0.954945165493503,
        -0.32338809374162325,
        -0.46995812305616813,
        0.5404105937840612,
        -0.548813546107181,
        0.5295015468974973,
        0.9001556994215402,
        0.0,
        -0.038208393496136986,
        -0.09160328745813724,
        -0.9236696820401591,
        0.0,
        0.0,
        -0.5229582830349526,
        -0.6788148922302407,
        -0.08579520251397442,
        0.0,
        0.0,
        0.0,
        -0.4310164923665988,
        -0.323789726483634,
        -0.323789726483634,
        0.0,
        0.0,
        0.0,
        -0.08389193090024458,
        -0.36462981050919474,
        0.2115172342075217,
        0.08759600931676635,
        -0.11038062191351966,
        -0.22971274799335453,
        0.20237843311834403,
        0.0,
        0.6259035766612526,
        -0.18049994355911023,
        -0.2641824175161324,
        -1.0165912740445346,
        -1.048429586807231,
        -1.0412591555958,
        0.9006655329517901,
        0.2737690105365011,
        -0.2731408136261487,
        -0.266070079162027,
        -0.18567290246540813,
        -0.24340781173118137,
        0.7322991648915098,
        -0.30749087857040913,
        -0.5221498101920529,
        -0.28491138140825056,
        -0.16896130685519817,
        -0.31124591378561384,
        -0.11891669592156753,
        -0.14598250332797494,
        -0.20791291317323413,
        -0.3478636332757178,
        -0.16896130685519817,
        0.0,
        -0.11891669592156753,
        -0.11891669592156753,
        0.19577748718794652,
        -0.08389193090024458,
        -0.4141342037246365,
        -0.16915035312709198,
        1.333920901990553,
        -0.20791291317323413,
        -0.4141342037246365,
        0.011083872534891966,
        0.0,
        0.0,
        0.0,
        0.0,
        0.0,
        0.0,
        0.0,
        0.0,
        0.0,
        0.0,
        0.0,
        0.0
      ]
    },
    "separator": {
      "bias": -33.420161791469795,
      "values": [
        -0.22700634634149253,
        -0.22700634634149253,
        -0.245333593379696,
        -0.5644444099963349,
        2.048135888831545,
        -0.6951762548232358,
        -0.3329938587220135,
        0.13505748119528144,
        -0.4085302609384624,
        0.21321376826467753,
        -0.4126968702555554,
        0.11812530026325715,
        -0.08995415567005187,
        -0.11045298334104967,
        -2.1904054280671046,
        0.41669817668013387,
        -0.09297047417001407,
        0.09363789196728813,
        -0.0918743545508574,
        0.598543464294251,
        0.0,
        0.019195287916980483,
        -0.15544857420703137,
        0.13505748119528144,
        0.0,
        0.0,
        0.7197729261331305,
        -0.5059180252529137,
        0.9150193246232532,
        0.0,
        0.0,
        0.0,
        -0.48659454440335687,
        -0.2688065653826396,
        -0.2688065653826396,
        0.0,
        0.0,
        0.0,
        -0.06964613131341059,
        -0.4940369903737329,
        -0.15719580230302757,
        -0.1450759658372682,
        0.08551530861558163,
        1.047623232101048,
        0.7133158379815974,
        0.0,
        -0.18688018078399532,
        -1.438748684563168,
        3.564909552781366,
        -0.4126265239623908,
        -0.9371639563980544,
        -0.9383196353813502,
        0.23601598792014636,
        0.8152178740549677,
        1.496109152003761,
        1.4947430320266757,
        1.674736914281289,
        -0.20207440973909396,
        -0.48659454440335687,
        -0.40201656387078655,
        -0.4334828612915156,
        -0.23653020343326464,
        -0.14026976418167394,
        -0.25839283408617,
        -0.09872329472733908,
        5.138584117144718,
        -0.17260694678532645,
        1.2779065924298538,
        -0.14026976418167394,
        0.0,
        -0.09872329472733908,
        -0.09872329472733908,
        -0.09872329472733908,
        -0.06964613131341059,
        1.0126753359002432,
        -0.31707943690370277,
        -0.35244140669128066,
        -0.17260694678532645,
        -0.34380952762045297,
        -0.15719580230302757,
        0.0,
        0.0,
        0.0,
        0.0,
        0.0,
        0.0,
        0.0,
        0.0,
        0.0,
        0.0,
        0.0,
        0.0
      ]
    },
    "table_like": {
      "bias": -2.118364797706405,
      "values": [
        -0.4489400467191649,
        -0.4489400467191649,
        -0.4079194402567926,
        0.5171316152390504,
        -0.33047673585542126,
        0.43581309682006986,
        -0.5430361388389757,
        0.6473365958328804,
        -1.0797470956540631,
        -0.11588078956400638,
        -1.1069448826984232,
        -0.8468749500250912,
        -0.46165819149977366,
        0.35149363796008093,
        0.24638524069691325,
        0.20076857397493575,
        -1.1590659918389616,
        1.1799528347800792,
        -1.1327951327793269,
        -0.9937976734992129,
        0.0,
        -0.30992267977553145,
        -0.2979497168718027,
        0.6473365958328804,
        0.0,
        0.0,
        0.7366427822300712,
        1.0604437533099915,
        -0.47622937026218415,
        0.0,
        0.0,
        0.0,
        -0.05130539294438577,
        0.03023182592101835,
        0.03023182592101835,
        0.0,
        0.0,
        0.0,
        -0.11357676798802344,
        -0.1194825653887848,
        -0.25635007760186035,
        -0.24471024321166862,
        -0.30955967744101826,
        -0.21215161788569648,
        -0.1924835504124305,
        0.0,
        -0.30475844866313084,
        0.2389364474004259,
        -0.12334491441125225,
        1.242059839307481,
        1.1121862446136905,
        1.114966907663151,
        -0.807479294643768,
        -0.729672581505154,
        -0.3743670668349631,
        -0.3765974931503839,
        -0.26883330029653374,
        -0.3295367297283686,
        -0.6450798072874104,
        0.3593696407227633,
        0.04111948991550737,
        0.4889089381407009,
        0.05652958312467461,
        0.06370983487241946,
        -0.16099491140150682,
        -0.19763785065941225,
        0.42060543354585295,
        -0.4709538419732795,
        -0.22874761543472982,
        0.0,
        -0.16099491140150682,
        -0.16099491140150682,
        -0.16099491140150682,
        -0.11357676798802344,
        -0.3064080474595719,
        -0.5170833894121922,
        -0.5747506016811654,
        -0.04745292070773725,
        -0.36997453531686364,
        -0.25635007760186035,
        0.0,
        0.0,
        0.0,
        0.0,
        0.0,
        0.0,
        0.0,
        0.0,
        0.0,
        0.0,
        0.0,
        0.0
      ]
    }
  },
  "thresholds": {
    "caption": {
      "min_score": 8.488838817093686,
      "min_confidence": 0.5
    },
    "footer_header_noise": {
      "min_score": 2.469383690186813,
      "min_confidence": 0.5
    },
    "form_row": {
      "min_score": -4.015218123433156,
      "min_confidence": 0.5
    },
    "heading": {
      "min_score": 5.870642416210098,
      "min_confidence": 0.5
    },
    "keep_as_text": {
      "min_score": 16.45193656599871,
      "min_confidence": 0.5
    },
    "link_text": {
      "min_score": 11.1364369289982,
      "min_confidence": 0.5
    },
    "list_item": {
      "min_score": 16.336546135985973,
      "min_confidence": 0.5
    },
    "paragraph": {
      "min_score": 5.6091230477746485,
      "min_confidence": 0.5
    },
    "separator": {
      "min_score": 13.074252959186595,
      "min_confidence": 0.5
    },
    "table_like": {
      "min_score": 0.764949342343602,
      "min_confidence": 0.5
    }
  },
  "metadata": {
    "trained_from": "samples/pdf_layout_classifier/manifest.tsv,.external/layout_model/pdf_eval_manifest.local.tsv,.external/layout_model/pdf_eval_manifest_round2.local.tsv,.external/layout_model/pdf_eval_manifest_round3_baseline.local.tsv,.external/layout_model/pdf_eval_manifest_round4.local.tsv,.external/layout_model/pdf_eval_manifest_round5_candidates.local.tsv",
    "sample_count": "217",
    "label_counts": {
      "caption": "1",
      "footer_header_noise": "21",
      "form_row": "33",
      "heading": "13",
      "keep_as_text": "6",
      "link_text": "1",
      "list_item": "9",
      "paragraph": "41",
      "separator": "5",
      "table_like": "87"
    },
    "notes": "training spike / local corpus only"
  }
}
