{
  "version": 1,
  "task": "pdf_layout_classifier",
  "model_type": "linear_v1",
  "labels": [
    "caption",
    "footer_header_noise",
    "form_row",
    "heading",
    "keep_as_text",
    "link_text",
    "list_item",
    "paragraph",
    "separator",
    "table_like"
  ],
  "features": [
    "text_len",
    "normalized_text_len",
    "word_count",
    "digit_ratio",
    "punctuation_ratio",
    "uppercase_ratio",
    "cjk_ratio",
    "x0",
    "y0",
    "x1",
    "y1",
    "width",
    "height",
    "page_width",
    "page_height",
    "x_center_ratio",
    "y_center_ratio",
    "top_ratio",
    "bottom_ratio",
    "font_size_hint",
    "bold_hint",
    "line_gap_before",
    "line_gap_after",
    "indent_left",
    "alignment_hint",
    "near_image_distance",
    "page_edge_distance",
    "repeated_text_score",
    "source_ref_count",
    "has_rich_inline_payload",
    "has_link_inline",
    "link_inline_count",
    "is_heading_candidate",
    "is_page_number_candidate",
    "is_header_footer_candidate",
    "is_artifact_candidate",
    "is_caption_candidate",
    "is_table_cell_candidate",
    "is_noise_kind",
    "is_heading_kind",
    "line_count",
    "prev_gap_before",
    "next_gap_before",
    "prev_font_size_delta",
    "next_font_size_delta",
    "same_paragraph_candidate",
    "wrapped_candidate",
    "latin_ratio",
    "symbol_ratio",
    "text_density",
    "page_line_count",
    "page_block_count",
    "page_median_font_size",
    "relative_font_size",
    "near_annotation_distance",
    "near_link_annotation_distance",
    "near_uri_annotation_distance",
    "near_dest_annotation_distance",
    "top_zone_candidate",
    "bottom_zone_candidate",
    "repeated_edge_candidate",
    "contains_currency",
    "contains_time",
    "contains_date",
    "looks_like_address",
    "looks_like_separator",
    "looks_like_page_number",
    "looks_like_bullet",
    "looks_like_list_marker_token",
    "contains_url",
    "contains_email",
    "contains_url_or_email",
    "contains_path_like",
    "caption_marker_signal",
    "has_raw_hyphen",
    "ends_with_colon",
    "has_terminal_period",
    "has_markdown_escape_chars",
    "form_key_value_signal",
    "code_like_signal",
    "monospace_hint",
    "boundary_prev_no_sentence_end",
    "boundary_next_starts_lowercase",
    "boundary_next_continues_sentence",
    "boundary_similar_indent",
    "boundary_same_column_band",
    "boundary_table_guard",
    "boundary_caption_guard",
    "boundary_noise_guard",
    "boundary_heading_guard",
    "boundary_list_guard",
    "boundary_layout_compatible"
  ],
  "normalization": {
    "mean": [
      24.461165048543688,
      24.461165048543688,
      4.101941747572815,
      0.16477811883174207,
      0.052111744037792895,
      0.1390656431247952,
      0.05004623208506704,
      184.08582485436895,
      391.9326478155339,
      279.24988053398056,
      405.5604691747573,
      95.16405567961165,
      13.627821359223308,
      606.203786407767,
      787.588932038835,
      0.3839934000671377,
      0.5006061028204295,
      0.4894048080520287,
      0.49061701369288774,
      9.415383495145631,
      0.0,
      14.646576358967037,
      12.923568552950874,
      184.08582485436895,
      -1.0,
      0.0,
      94.92589674757284,
      1.3148404993065186,
      1.0970873786407767,
      0.0,
      0.0,
      0.0,
      0.1941747572815534,
      0.06796116504854369,
      0.06796116504854369,
      0.0,
      0.0,
      0.0,
      0.0048543689320388345,
      0.19902912621359223,
      1.0194174757281553,
      13.66274665357637,
      13.423972446774467,
      0.016864077669902885,
      0.10026699029126211,
      0.0,
      0.03398058252427184,
      0.6160999518635571,
      0.057217408245773066,
      0.0203374490314038,
      114.16990291262135,
      113.7864077669903,
      9.50278640776699,
      0.9889286295888541,
      19.282209708737863,
      19.39726796116505,
      13.01124854368932,
      6.386019417475728,
      0.1941747572815534,
      0.1407766990291262,
      0.16019417475728157,
      0.05339805825242718,
      0.019417475728155338,
      0.06310679611650485,
      0.009708737864077669,
      0.024271844660194174,
      0.02912621359223301,
      0.06796116504854369,
      0.019417475728155338,
      0.0,
      0.009708737864077669,
      0.009708737864077669,
      0.014563106796116505,
      0.0048543689320388345,
      0.0970873786407767,
      0.09223300970873786,
      0.11165048543689321,
      0.024271844660194174,
      0.09223300970873786,
      0.019417475728155338,
      0.0,
      0.0,
      0.0,
      0.0,
      0.0,
      0.0,
      0.0,
      0.0,
      0.0,
      0.0,
      0.0,
      0.0
    ],
    "scale": [
      66.38009078791316,
      66.38009078791316,
      11.742557904159085,
      0.2887693562376402,
      0.1107387147652417,
      0.19768124983898824,
      0.20256687785035116,
      146.09564997218428,
      255.45519357366808,
      164.7536244358521,
      256.89981003817036,
      129.1307741500004,
      18.6246022714093,
      48.865955342020676,
      69.54368087983099,
      0.2338779464165563,
      0.30726890846028293,
      0.3084573780507849,
      0.30750206941690444,
      2.697251481937672,
      1.0,
      73.9543397775745,
      65.4944071926744,
      146.09564997218428,
      1.0,
      1.0,
      58.197129397503296,
      2.2162520215230668,
      0.3417420564426804,
      1.0,
      1.0,
      1.0,
      0.39556405412550216,
      0.2516792504236062,
      0.2516792504236062,
      1.0,
      1.0,
      1.0,
      0.06950398574405997,
      0.39927000029083853,
      0.13798709129662035,
      79.71301935585889,
      65.66311068301714,
      0.8865365690828758,
      1.2248804029503118,
      1.0,
      0.18117920006331575,
      0.41312706833854346,
      0.15781805603129945,
      0.009271618353420575,
      83.8550834266798,
      84.23212846495474,
      2.416845200125289,
      0.1245073894892442,
      83.8042522008171,
      83.80287136985619,
      78.66020437008578,
      31.64922858428315,
      0.39556405412550216,
      0.3477910580213198,
      0.3667860427157979,
      0.22482594518270702,
      0.13798709129662035,
      0.24315494730812026,
      0.09805344600351532,
      0.153891917321819,
      0.16816027257950264,
      0.2516792504236062,
      0.13798709129662035,
      1.0,
      0.09805344600351532,
      0.09805344600351532,
      0.11979575416750549,
      0.06950398574405997,
      0.29607671227139626,
      0.2893545949674996,
      0.3149359530739533,
      0.153891917321819,
      0.2893545949674996,
      0.13798709129662035,
      1.0,
      1.0,
      1.0,
      1.0,
      1.0,
      1.0,
      1.0,
      1.0,
      1.0,
      1.0,
      1.0,
      1.0
    ]
  },
  "weights": {
    "caption": {
      "bias": -107.74004314050562,
      "values": [
        -0.05239596299439088,
        -0.05239596299439088,
        -0.008723740195818949,
        -0.40769761864988624,
        -0.040768145274238575,
        0.26133652307077787,
        -0.24826546462156682,
        -0.7709509831199923,
        -0.08371904798869824,
        -0.47976842718303225,
        -0.08922443248475674,
        0.26011613365145236,
        -0.08243258696043416,
        0.11919316350435649,
        0.06373814715837392,
        -0.6929936342190017,
        -0.08167639888220658,
        0.08901807677637241,
        -0.07393430992042463,
        0.5903588716612708,
        0.0,
        -0.19901500192117497,
        -0.1982857912213107,
        -0.7709509831199923,
        0.0,
        0.0,
        -0.39585681680086887,
        -0.5961661140381932,
        -0.28548132654582936,
        0.0,
        0.0,
        0.0,
        -0.49327523364295656,
        -0.27134808615284944,
        -0.27134808615284944,
        0.0,
        0.0,
        0.0,
        -0.07018372728221127,
        -0.5009141679923732,
        -0.14140594557506353,
        -0.17223527987236947,
        -0.20543430091694725,
        -0.01911521989549244,
        -0.08225790641950767,
        0.0,
        -0.18846722720644363,
        0.35465130282131646,
        -0.36432154216172813,
        -0.7414180931654943,
        -1.3561724176083736,
        -1.345526789258424,
        0.6225128001961969,
        0.08935515507727727,
        -0.23120866494771683,
        -0.23259213511267607,
        -0.1662176974174346,
        -0.2027591514471873,
        -0.49327523364295656,
        -0.4067482799557042,
        -0.4388815031351359,
        -0.23866701212691319,
        -0.14140594557506353,
        -0.2607992757226688,
        -0.09949775309911948,
        -0.15848944068605053,
        -0.17404998358984816,
        -0.27134808615284944,
        -0.14140594557506353,
        0.0,
        -0.09949775309911948,
        -0.09949775309911948,
        -0.1221591403064343,
        14.38766409285331,
        -0.3295124931012056,
        -0.32030915852460706,
        -0.3562474238210391,
        -0.15848944068605053,
        -0.32030915852460706,
        -0.14140594557506353,
        0.0,
        0.0,
        0.0,
        0.0,
        0.0,
        0.0,
        0.0,
        0.0,
        0.0,
        0.0,
        0.0,
        0.0
      ]
    },
    "footer_header_noise": {
      "bias": -13.620134339460009,
      "values": [
        -0.21941810250801339,
        -0.21941810250801339,
        -0.14513423039144469,
        0.5722378952613106,
        0.33920281692184695,
        -0.48318490534720554,
        0.07391195999563074,
        0.5311230486763746,
        1.014236180855697,
        0.45824280926964983,
        1.008036619051874,
        -0.016244023367386548,
        -0.006844922758948401,
        -0.1582070678211332,
        0.6792568723483128,
        0.5507823830229518,
        0.9146032845237844,
        -0.9044580273417328,
        0.9205517045318725,
        0.8114510384901856,
        0.0,
        0.8058603905894733,
        0.9513061262171228,
        0.5311230486763746,
        0.0,
        0.0,
        -0.9869388434629857,
        -0.1821108789451827,
        -0.31634417265889203,
        0.0,
        0.0,
        0.0,
        0.1236362313410113,
        1.3847782363200298,
        1.3847782363200298,
        0.0,
        0.0,
        0.0,
        0.6851268615644432,
        -0.02385305561868444,
        -0.15669307482642175,
        0.7549735986673839,
        0.9403761663903761,
        0.0984398508916663,
        -0.3508876178932563,
        0.0,
        -0.2088420625801132,
        -0.8796270178594867,
        0.47360910344939855,
        -1.0989015866040177,
        -1.4098324966188938,
        -1.4060061189141373,
        0.9995976755762452,
        -0.1450778997050423,
        0.7164566276870435,
        0.7149396198405678,
        0.6828082370223428,
        0.19602871243561634,
        1.464113265880397,
        0.15912155894951993,
        2.1158432592352026,
        -0.26446885127576863,
        0.6118491493222182,
        1.0194176619501172,
        -0.11025426694767296,
        -0.17562343427373167,
        -0.19286619803199392,
        0.5420476109672199,
        -0.15669307482642175,
        0.0,
        -0.11025426694767296,
        -0.11025426694767296,
        -0.13536553385307584,
        -0.07777115725866654,
        0.7094060469236766,
        0.011564369131857722,
        -0.394760658828719,
        -0.17562343427373167,
        0.011564369131857722,
        -0.15669307482642175,
        0.0,
        0.0,
        0.0,
        0.0,
        0.0,
        0.0,
        0.0,
        0.0,
        0.0,
        0.0,
        0.0,
        0.0
      ]
    },
    "form_row": {
      "bias": -4.652573596093203,
      "values": [
        -0.18113332974752702,
        -0.18113332974752702,
        -0.23158416235616464,
        -0.20919906625511311,
        0.16690097840008283,
        0.3285306145381233,
        -0.29418740027411094,
        0.021035130875688788,
        0.33435913780519494,
        -0.18638894967129313,
        0.31041060882395816,
        -0.2616060838559666,
        -0.3044012295041715,
        0.1412404538635438,
        0.07552786223969164,
        -0.12428996010093409,
        0.35042336539839514,
        -0.33212071283947314,
        0.36716281586383104,
        -0.5980915012010476,
        0.0,
        -0.18508394213647023,
        -0.08951522153887766,
        0.021035130875688788,
        0.0,
        0.0,
        0.39422439208135635,
        -0.4459394423686228,
        0.928751914159343,
        0.0,
        0.0,
        0.0,
        0.5101238359481547,
        -0.32153963966089094,
        -0.32153963966089094,
        0.0,
        0.0,
        0.0,
        -0.08316568839799601,
        0.4909116780377173,
        -0.16756195862941053,
        -0.099980638639938,
        -0.0983596872265998,
        -0.1040540033205859,
        -0.18584932407035026,
        0.0,
        -0.22332821720994764,
        0.38360323104353067,
        -0.27584056702627485,
        0.5046275088327433,
        0.9915950902373736,
        0.9925777484178157,
        -0.740405337757022,
        0.17833555653369693,
        -0.27397558563168756,
        -0.2756149577924774,
        -0.1969631674599659,
        -0.24026373437383466,
        -0.5845168953572607,
        -0.2744846405738734,
        -0.42168471520250655,
        -0.12231879146649947,
        -0.16756195862941053,
        -0.1606429644106041,
        0.6180921025854391,
        -0.18780540659329686,
        -0.20624420020762357,
        -0.32153963966089094,
        -0.16756195862941053,
        0.0,
        0.6180921025854391,
        0.6180921025854391,
        -0.14475505065213312,
        -0.08316568839799601,
        0.09702408493661353,
        1.4909874415876316,
        -0.42214290105961283,
        -0.18780540659329686,
        1.4909874415876316,
        -0.16756195862941053,
        0.0,
        0.0,
        0.0,
        0.0,
        0.0,
        0.0,
        0.0,
        0.0,
        0.0,
        0.0,
        0.0,
        0.0
      ]
    },
    "heading": {
      "bias": -8.194268544280275,
      "values": [
        -0.1632625879820019,
        -0.1632625879820019,
        -0.1700830483565066,
        -0.4001782650588195,
        -0.3591982097544165,
        0.4470001599819299,
        0.6820452048212626,
        -0.45371882683529924,
        0.6565150583985202,
        -0.43383336578394194,
        0.6519764691272776,
        -0.040186179763480025,
        -0.01168080026070219,
        0.3447608959677329,
        0.03189303928541955,
        -0.5188338206447456,
        0.7037151836842069,
        -0.6966856821325573,
        0.7075131373638042,
        0.8121405232849991,
        0.0,
        0.5159641929910121,
        -0.04166088873754703,
        -0.45371882683529924,
        0.0,
        0.0,
        -0.6486215296675436,
        -0.633233437190827,
        -0.30323146083883434,
        0.0,
        0.0,
        0.0,
        0.721432231906269,
        -0.2882194697478453,
        -0.2882194697478453,
        0.0,
        0.0,
        0.0,
        -0.0745474823463902,
        1.1130316805729297,
        -0.15019802509268407,
        -0.03002626286133197,
        -0.03774423084804953,
        1.2799766569849846,
        1.3578065692181622,
        0.0,
        -0.20018539677368363,
        0.15606069516076876,
        -0.35445819993605815,
        -0.9759954283152583,
        -0.4241645523728649,
        -0.43007799605849895,
        0.10136407057619007,
        1.8277401729839409,
        0.43666254156620204,
        0.4352042940025925,
        0.30913745596084446,
        0.38403950267577164,
        0.5138693271958061,
        -0.1959643346552028,
        -0.46616947224198374,
        -0.2535064118446487,
        -0.15019802509268407,
        -0.2770147747313322,
        -0.10568414189284711,
        -0.16834370642818838,
        -0.18487174422755892,
        -0.2882194697478453,
        -0.15019802509268407,
        0.0,
        -0.10568414189284711,
        -0.10568414189284711,
        -0.1297545272684924,
        -0.0745474823463902,
        -0.3500003165064619,
        -0.3402247538732873,
        -0.3783975227114664,
        -0.16834370642818838,
        -0.3402247538732873,
        0.44481722815910274,
        0.0,
        0.0,
        0.0,
        0.0,
        0.0,
        0.0,
        0.0,
        0.0,
        0.0,
        0.0,
        0.0,
        0.0
      ]
    },
    "keep_as_text": {
      "bias": -85.72558459484272,
      "values": [
        4.482772291377325,
        4.482772291377325,
        4.420326560678479,
        -0.5527081958724861,
        0.09987721724639531,
        -0.6424027257533402,
        -0.25195257548228317,
        -0.8403029356981544,
        -0.7614432426268132,
        0.9835504114333,
        -0.436524274584553,
        2.2055788059671078,
        4.422732175560133,
        -0.15033852489213562,
        -3.975300504738572,
        0.37770756298271013,
        -0.260317104141176,
        -0.127761334437325,
        -0.6483976888379532,
        1.0641764419706576,
        0.0,
        -0.13792061054022609,
        1.0521342953583048,
        -0.8403029356981544,
        0.0,
        0.0,
        -0.5809898118252602,
        -0.6050200662268793,
        1.2023427651428928,
        0.0,
        0.0,
        0.0,
        -0.5006011034495351,
        -0.27537800822442643,
        -0.27537800822442643,
        0.0,
        0.0,
        0.0,
        -0.07122605986561044,
        -0.5083534873189927,
        3.551774338423161,
        -0.026858385221961198,
        1.0416594396501022,
        -0.3299858851373533,
        -0.8327949855093911,
        0.0,
        2.623079937357009,
        0.3338780537038132,
        -0.019221932677817515,
        -1.2341739859175707,
        -1.1817299006396584,
        -1.1869309798323988,
        1.2646918206748168,
        -0.10963368427789494,
        0.549316699792423,
        0.5479256004392464,
        0.5015135006494841,
        0.20438362790390702,
        -0.5006011034495351,
        1.05332390012428,
        -0.44539954526090525,
        -0.24221157171295643,
        -0.14350603387568328,
        -0.26467253229280746,
        -0.10097544250158165,
        -0.16084324426059585,
        -0.17663488433623206,
        1.7506173379981393,
        -0.14350603387568328,
        0.0,
        -0.10097544250158165,
        -0.10097544250158165,
        2.004236390258619,
        -0.07122605986561044,
        2.248881984166582,
        -0.32506622523536854,
        0.44799302059285856,
        4.8092130033918155,
        -0.32506622523536854,
        1.704134152273739,
        0.0,
        0.0,
        0.0,
        0.0,
        0.0,
        0.0,
        0.0,
        0.0,
        0.0,
        0.0,
        0.0,
        0.0
      ]
    },
    "link_text": {
      "bias": -69.37809678378922,
      "values": [
        -0.20377840867243466,
        -0.20377840867243466,
        -0.265450951672776,
        -0.5734054218588767,
        0.35205937060528986,
        -0.7069158669801492,
        -0.24826546462156682,
        -0.7787921541324617,
        1.325075992431235,
        -0.9399345056404522,
        1.311562521719514,
        -0.3181230102256437,
        -0.08361958235239246,
        -0.2238138592038458,
        0.785061947688902,
        -0.9425548921831154,
        1.2171988350067808,
        -1.2033345534202817,
        1.2254788862785941,
        0.5829077455389221,
        0.0,
        -0.042483347974052336,
        -0.02153489571513648,
        -0.7787921541324617,
        0.0,
        0.0,
        -0.4155409659585574,
        -0.5961661140381932,
        -0.28548132654582936,
        0.0,
        0.0,
        0.0,
        -0.49327523364295656,
        -0.27134808615284944,
        -0.27134808615284944,
        0.0,
        0.0,
        0.0,
        -0.07018372728221127,
        -0.5009141679923732,
        -0.14140594557506353,
        -0.17223527987236947,
        -0.02974966033253973,
        -0.01911521989549244,
        -0.08225790641950767,
        0.0,
        -0.18846722720644363,
        0.7126625292140903,
        -0.36432154216172813,
        -0.3858409600554652,
        -1.3322054019495286,
        -1.3216670562303414,
        0.6141971823922237,
        0.08935515507727727,
        -0.23120866494771683,
        -0.23259213511267607,
        -0.1662176974174346,
        -0.2027591514471873,
        -0.49327523364295656,
        -0.4067482799557042,
        -0.4388815031351359,
        -0.23866701212691319,
        -0.14140594557506353,
        -0.2607992757226688,
        -0.09949775309911948,
        -0.15848944068605053,
        -0.17404998358984816,
        -0.27134808615284944,
        -0.14140594557506353,
        0.0,
        -0.09949775309911948,
        -0.09949775309911948,
        8.266101827402053,
        -0.07018372728221127,
        -0.3295124931012056,
        -0.32030915852460706,
        -0.3562474238210391,
        -0.15848944068605053,
        -0.32030915852460706,
        7.141000251540708,
        0.0,
        0.0,
        0.0,
        0.0,
        0.0,
        0.0,
        0.0,
        0.0,
        0.0,
        0.0,
        0.0,
        0.0
      ]
    },
    "list_item": {
      "bias": -19.695794821306166,
      "values": [
        0.8416466994428068,
        0.8416466994428068,
        0.7824854984467453,
        0.011165145830288626,
        1.1371027172817822,
        -0.6451329307999226,
        -0.25834731090061525,
        -0.6446750825103807,
        0.5252667619949202,
        0.7802578336343825,
        0.5435730262721992,
        1.7248756754700796,
        0.29325108522502136,
        0.12403349501722377,
        0.06632649831201347,
        0.09567669408109623,
        0.5723404327421161,
        -0.5766160738177918,
        0.5654054885894699,
        0.7556226612794192,
        0.0,
        0.13159152679156993,
        -0.02840997327867308,
        -0.6446750825103807,
        0.0,
        0.0,
        -0.47351849506071364,
        -0.4631005792248215,
        0.042910757769014964,
        0.0,
        0.0,
        0.0,
        -0.5133067152122137,
        -0.28236729777326974,
        -0.28236729777326974,
        0.0,
        0.0,
        0.0,
        -0.07303382788250411,
        -0.5212558600935864,
        -0.1471483189994316,
        -0.10425435906064574,
        0.029131694125857616,
        0.12165061148871631,
        -0.3701663234820371,
        0.0,
        -0.19612071866660377,
        -0.39937712946284665,
        0.3935828007639321,
        -0.9477046425809836,
        -0.9886459579542087,
        -1.0304963676821004,
        0.6612532089449447,
        0.3465641067591564,
        0.8441811122703582,
        0.8427593346218348,
        -0.17296765467296496,
        2.661402092526133,
        -0.5133067152122137,
        -0.42326597660365156,
        -0.45670410224722263,
        -0.24835907353308223,
        -0.1471483189994316,
        -0.27139010925455387,
        -0.1035382709914695,
        -0.16492556010477338,
        -0.1811180032280146,
        2.487521432764519,
        3.2209132047653357,
        0.0,
        -0.1035382709914695,
        -0.1035382709914695,
        -0.12711991757776156,
        -0.07303382788250411,
        0.04952909160263468,
        -0.33331663704337283,
        1.1049794110204794,
        -0.16492556010477338,
        -0.33331663704337283,
        -0.1471483189994316,
        0.0,
        0.0,
        0.0,
        0.0,
        0.0,
        0.0,
        0.0,
        0.0,
        0.0,
        0.0,
        0.0,
        0.0
      ]
    },
    "paragraph": {
      "bias": -7.282154079239918,
      "values": [
        0.3657586866694535,
        0.3657586866694535,
        0.3331469308787649,
        -0.6725756377936938,
        -0.2988453542548849,
        -0.4743792174214828,
        0.9207649876363856,
        -0.9497525148015136,
        0.754247141495215,
        -0.11056671863135172,
        0.7833291134046948,
        0.9334602392000687,
        0.4596474476735617,
        -0.5403384035785994,
        0.19946969824907534,
        -0.5071213639788668,
        0.7524380322361235,
        -0.7629291857443696,
        0.7384356464847337,
        0.9301739535648605,
        0.0,
        -0.01673104660477174,
        -0.0816481598394388,
        -0.9497525148015136,
        0.0,
        0.0,
        -0.6276741873037398,
        -0.6689925058310541,
        -0.01156178863794621,
        0.0,
        0.0,
        0.0,
        -0.39409749943618755,
        -0.3196917106973226,
        -0.3196917106973226,
        0.0,
        0.0,
        0.0,
        -0.08268772467157075,
        -0.3121717246647872,
        0.3696414399865391,
        0.14598315057924693,
        -0.1022928948765503,
        -0.15785834804382395,
        0.38690558977933803,
        0.0,
        0.798964489719845,
        0.1821795931254913,
        -0.42786247027379243,
        -0.9207121551336072,
        -1.065257147941414,
        -1.0586124636703453,
        0.9806142387477252,
        0.1933178285964067,
        -0.26834389706800005,
        -0.2595098684680558,
        -0.1803607360282576,
        -0.23888290831421494,
        1.0088532762064617,
        -0.2664600243615883,
        -0.5170730353028901,
        -0.28118814647136325,
        -0.16659895886717255,
        -0.30726351450084544,
        -0.11722436428344536,
        -0.18672606517609402,
        -0.20505888871217745,
        -0.3196917106973226,
        -0.16659895886717255,
        0.0,
        -0.11722436428344536,
        -0.11722436428344536,
        0.1649119141469165,
        -0.08268772467157075,
        -0.38821874187211003,
        -0.12165401910842703,
        1.694834656399974,
        -0.18672606517609402,
        -0.3773757327445083,
        0.10152124055968327,
        0.0,
        0.0,
        0.0,
        0.0,
        0.0,
        0.0,
        0.0,
        0.0,
        0.0,
        0.0,
        0.0,
        0.0
      ]
    },
    "separator": {
      "bias": -41.46750636514091,
      "values": [
        -0.2140095016537764,
        -0.2140095016537764,
        -0.23582206291483712,
        -0.5848164750301975,
        1.9856841414956015,
        -0.7209838444324905,
        -0.25320607088269254,
        0.1012164972267424,
        -0.42725093848035256,
        0.21990552349855674,
        -0.43076531313115957,
        0.16605601740367076,
        -0.08161548355486142,
        -0.24966053384454207,
        -2.46477251513362,
        0.41046045602366493,
        -0.10547474297933006,
        0.10577158014609632,
        -0.1046893572705571,
        0.6175341036138108,
        0.0,
        0.012074170423766616,
        -0.1576435332922676,
        0.1012164972267424,
        0.0,
        0.0,
        0.6921133666080257,
        -0.5287553036750989,
        0.9084271465607586,
        0.0,
        0.0,
        0.0,
        -0.5030916562030154,
        -0.276748048066339,
        -0.276748048066339,
        0.0,
        0.0,
        0.0,
        -0.07158041837240453,
        -0.5108826091464502,
        -0.144219994243224,
        -0.14804145981331857,
        0.07715496252313575,
        1.0618682945033282,
        0.6987681904494372,
        0.0,
        -0.1922178187926415,
        -1.528405833711839,
        3.5248479183215298,
        -0.48847895109905226,
        -0.9798353987247457,
        -0.9805171290487082,
        0.25545657824635143,
        0.8229042139874936,
        1.4498171227618253,
        1.448433895149879,
        1.6263343840678621,
        -0.2067941594361861,
        -0.5030916562030154,
        -0.41484277308915096,
        -0.4476154633965316,
        -0.2434166044080458,
        -0.144219994243224,
        -0.2659893110604334,
        -0.10147780788716165,
        6.498067068128072,
        -0.17751366485531778,
        1.3521118919812563,
        -0.144219994243224,
        0.0,
        -0.10147780788716165,
        -0.10147780788716165,
        -0.12459016797422404,
        -0.07158041837240453,
        1.048538261629508,
        -0.326683470137037,
        -0.36333692479260205,
        -0.16164345940617095,
        -0.326683470137037,
        -0.144219994243224,
        0.0,
        0.0,
        0.0,
        0.0,
        0.0,
        0.0,
        0.0,
        0.0,
        0.0,
        0.0,
        0.0,
        0.0
      ]
    },
    "table_like": {
      "bias": -1.660770765498991,
      "values": [
        -0.44307093021806626,
        -0.44307093021806626,
        -0.40645483816827954,
        0.4767488422530306,
        -0.37299841218333335,
        0.38638334569274,
        -0.42768420375984195,
        0.6066887268836532,
        -1.1433546851283667,
        -0.10819349151038368,
        -1.1701386482741996,
        -0.8244344111799726,
        -0.45813080584460986,
        0.20533276065876538,
        0.10980100981064415,
        0.20700664878942326,
        -1.2016034446639394,
        1.2222135192975851,
        -1.1753741390833863,
        -0.9674072273512428,
        0.0,
        -0.3245453866255569,
        -0.3112041353236058,
        0.6066887268836532,
        0.0,
        0.0,
        0.7230428201512991,
        1.02896384960781,
        -0.491795562536933,
        0.0,
        0.0,
        0.0,
        -0.09523170803089534,
        0.006908104192739264,
        0.006908104192739264,
        0.0,
        0.0,
        0.0,
        -0.12090474027607823,
        -0.16522958405234758,
        -0.24359847767132792,
        -0.2582670306191075,
        -0.3235968496456678,
        -0.30226011793889873,
        -0.23917201481418326,
        0.0,
        -0.32467043342286506,
        0.15232286005346954,
        -0.10324688702805643,
        1.194157673055125,
        1.0678375941985843,
        1.070939055415383,
        -0.7800036481130799,
        -0.7250277512377905,
        -0.39830064129648696,
        -0.4006839302361227,
        -0.2863414115174294,
        -0.34929097518212937,
        -0.6988542266267241,
        0.3291044271966461,
        0.003423452742010476,
        0.4738739886293562,
        0.04479972003150859,
        0.041709979344006165,
        -0.1714036923136092,
        -0.27302802807260806,
        0.4101177774243549,
        -0.46744838370869024,
        -0.24359847767132792,
        0.0,
        -0.1714036923136092,
        -0.1714036923136092,
        -0.21044221649427758,
        -0.12090474027607823,
        -0.2988305609704645,
        -0.5517930882146592,
        -0.6137035452379245,
        -0.01443596470268962,
        -0.41426208256164077,
        -0.24359847767132792,
        0.0,
        0.0,
        0.0,
        0.0,
        0.0,
        0.0,
        0.0,
        0.0,
        0.0,
        0.0,
        0.0,
        0.0
      ]
    }
  },
  "thresholds": {
    "caption": {
      "min_score": 8.831072609491372,
      "min_confidence": 0.5
    },
    "footer_header_noise": {
      "min_score": 3.1741587173725434,
      "min_confidence": 0.5
    },
    "form_row": {
      "min_score": -4.636566525140247,
      "min_confidence": 0.5
    },
    "heading": {
      "min_score": 6.923962804283504,
      "min_confidence": 0.5
    },
    "keep_as_text": {
      "min_score": 6.522771657445681,
      "min_confidence": 0.5
    },
    "link_text": {
      "min_score": 64.77644056266192,
      "min_confidence": 0.5
    },
    "list_item": {
      "min_score": 16.652764569133907,
      "min_confidence": 0.5
    },
    "paragraph": {
      "min_score": 2.2271361515478487,
      "min_confidence": 0.5
    },
    "separator": {
      "min_score": 18.450981757504003,
      "min_confidence": 0.5
    },
    "table_like": {
      "min_score": 0.7357452972185676,
      "min_confidence": 0.5
    }
  },
  "metadata": {
    "trained_from": "samples/pdf_layout_classifier/manifest.tsv,.external/layout_model/pdf_eval_manifest.local.tsv,.external/layout_model/pdf_eval_manifest_round2.local.tsv,.external/layout_model/pdf_eval_manifest_round3_baseline.local.tsv,.external/layout_model/pdf_eval_manifest_round4.local.tsv",
    "sample_count": "206",
    "label_counts": {
      "caption": "1",
      "footer_header_noise": "21",
      "form_row": "33",
      "heading": "13",
      "keep_as_text": "4",
      "link_text": "1",
      "list_item": "9",
      "paragraph": "32",
      "separator": "5",
      "table_like": "87"
    },
    "notes": "training spike / local corpus only"
  }
}
