{
  "version": 1,
  "task": "pdf_layout_classifier",
  "model_type": "linear_v1",
  "labels": [
    "footer_header_noise",
    "form_row",
    "heading",
    "keep_as_text",
    "link_text",
    "list_item",
    "paragraph",
    "separator",
    "table_like"
  ],
  "features": [
    "text_len",
    "normalized_text_len",
    "word_count",
    "digit_ratio",
    "punctuation_ratio",
    "uppercase_ratio",
    "cjk_ratio",
    "x0",
    "y0",
    "x1",
    "y1",
    "width",
    "height",
    "page_width",
    "page_height",
    "x_center_ratio",
    "y_center_ratio",
    "top_ratio",
    "bottom_ratio",
    "font_size_hint",
    "bold_hint",
    "line_gap_before",
    "line_gap_after",
    "indent_left",
    "alignment_hint",
    "near_image_distance",
    "page_edge_distance",
    "repeated_text_score",
    "source_ref_count",
    "has_rich_inline_payload",
    "has_link_inline",
    "link_inline_count",
    "is_heading_candidate",
    "is_page_number_candidate",
    "is_header_footer_candidate",
    "is_artifact_candidate",
    "is_caption_candidate",
    "is_table_cell_candidate",
    "is_noise_kind",
    "is_heading_kind",
    "line_count",
    "prev_gap_before",
    "next_gap_before",
    "prev_font_size_delta",
    "next_font_size_delta",
    "same_paragraph_candidate",
    "wrapped_candidate",
    "latin_ratio",
    "symbol_ratio",
    "text_density",
    "page_line_count",
    "page_block_count",
    "page_median_font_size",
    "relative_font_size",
    "near_annotation_distance",
    "near_link_annotation_distance",
    "near_uri_annotation_distance",
    "near_dest_annotation_distance",
    "top_zone_candidate",
    "bottom_zone_candidate",
    "repeated_edge_candidate",
    "contains_currency",
    "contains_time",
    "contains_date",
    "looks_like_address",
    "looks_like_separator",
    "looks_like_page_number",
    "looks_like_bullet",
    "looks_like_list_marker_token",
    "contains_url",
    "contains_email",
    "contains_url_or_email",
    "contains_path_like",
    "caption_marker_signal",
    "has_raw_hyphen",
    "ends_with_colon",
    "has_terminal_period",
    "has_markdown_escape_chars",
    "form_key_value_signal",
    "code_like_signal",
    "monospace_hint",
    "boundary_prev_no_sentence_end",
    "boundary_next_starts_lowercase",
    "boundary_next_continues_sentence",
    "boundary_similar_indent",
    "boundary_same_column_band",
    "boundary_table_guard",
    "boundary_caption_guard",
    "boundary_noise_guard",
    "boundary_heading_guard",
    "boundary_list_guard",
    "boundary_layout_compatible"
  ],
  "normalization": {
    "mean": [
      26.497435897435896,
      26.497435897435896,
      4.394871794871795,
      0.17211969281223838,
      0.05264841134612576,
      0.13524352206281787,
      0.06806526806526807,
      187.7012763076923,
      350.3665871794872,
      290.3899153846154,
      364.08736512820514,
      102.68863907692308,
      13.72077794871795,
      600.0057435897436,
      776.6037948717948,
      0.3999029469506703,
      0.455224225602437,
      0.5345219213055566,
      0.44497037251043065,
      9.27171282051282,
      0.0,
      14.842351435626714,
      12.881405753373745,
      187.7012763076923,
      -1.0,
      0.0,
      96.74725184615387,
      1.389010989010989,
      1.1076923076923078,
      0.0,
      0.0,
      0.0,
      0.20512820512820512,
      0.07179487179487179,
      0.07179487179487179,
      0.0,
      0.0,
      0.0,
      0.005128205128205128,
      0.2,
      1.0256410256410255,
      14.328886208393499,
      13.62542217454123,
      0.009215384615384596,
      0.09219487179487179,
      0.0,
      0.02564102564102564,
      0.5819436543312633,
      0.06596482149093012,
      0.02068874103565456,
      122.06153846153846,
      121.64102564102564,
      9.319753846153846,
      0.9922000632332219,
      20.404590769230765,
      20.526139487179485,
      13.74521641025641,
      6.780923076923076,
      0.13846153846153847,
      0.14871794871794872,
      0.16923076923076924,
      0.05641025641025641,
      0.020512820512820513,
      0.06666666666666667,
      0.010256410256410256,
      0.015384615384615385,
      0.03076923076923077,
      0.08205128205128205,
      0.020512820512820513,
      0.0,
      0.010256410256410256,
      0.010256410256410256,
      0.010256410256410256,
      0.0,
      0.11282051282051282,
      0.09743589743589744,
      0.08205128205128205,
      0.03076923076923077,
      0.11282051282051282,
      0.02564102564102564,
      0.0,
      0.0,
      0.0,
      0.0,
      0.0,
      0.0,
      0.0,
      0.0,
      0.0,
      0.0,
      0.0,
      0.0
    ],
    "scale": [
      69.56984126716259,
      69.56984126716259,
      12.334773624520997,
      0.2942252830785501,
      0.11328159748129372,
      0.20286868075684036,
      0.2332337612889275,
      146.50185291435915,
      239.08236188312577,
      167.41143876178631,
      240.71807750760104,
      136.887652108857,
      19.20530724435642,
      58.553890390235296,
      77.54245270989057,
      0.23229750505434937,
      0.28855459038395576,
      0.29014625817189504,
      0.28856189182752734,
      2.711201654218224,
      1.0,
      75.94834484079082,
      67.22653960414563,
      146.50185291435915,
      1.0,
      1.0,
      59.21229544160979,
      2.255177104640853,
      0.35617959700893,
      1.0,
      1.0,
      1.0,
      0.4037952755903493,
      0.2581479579210917,
      0.2581479579210917,
      1.0,
      1.0,
      1.0,
      0.07142763219068779,
      0.4,
      0.15806189751202504,
      81.86220306580242,
      67.39074300390536,
      0.96848984997619,
      1.2996178069248918,
      1.0,
      0.15806189751202504,
      0.42234221399503524,
      0.16242831257217108,
      0.009441119107524052,
      79.8813627228132,
      80.35800892846997,
      2.3767947088729042,
      0.1294000882274841,
      85.9999691937173,
      85.99695675965921,
      80.78597397051072,
      32.48866712972199,
      0.3453837587791331,
      0.35581023094772624,
      0.37495561867550586,
      0.2307122436759383,
      0.14174640985728465,
      0.24944382578492943,
      0.10075324463788975,
      0.12307692307692308,
      0.1726918793895665,
      0.27444283405660824,
      0.14174640985728465,
      1.0,
      0.10075324463788975,
      0.10075324463788975,
      0.10075324463788975,
      1.0,
      0.3163732680038396,
      0.29655040604719923,
      0.27444283405660824,
      0.1726918793895665,
      0.3163732680038396,
      0.15806189751202504,
      1.0,
      1.0,
      1.0,
      1.0,
      1.0,
      1.0,
      1.0,
      1.0,
      1.0,
      1.0,
      1.0,
      1.0
    ]
  },
  "weights": {
    "footer_header_noise": {
      "bias": -15.090759312184266,
      "values": [
        -0.2435090606927056,
        -0.2435090606927056,
        -0.16567097374569106,
        0.5372824397724533,
        0.3284163079024606,
        -0.452749777458616,
        -0.021974276056151994,
        0.5054068136809603,
        1.285516395087544,
        0.3793001891850601,
        1.275815336024488,
        -0.07702553242223435,
        -0.01210504114955192,
        -0.01425489916029353,
        0.7718788934668653,
        0.4813497837600573,
        1.1564510943133488,
        -1.1419998727059724,
        1.164573574184114,
        0.8718654150964024,
        0.0,
        0.7868709682438236,
        0.9334708352865349,
        0.5054068136809603,
        0.0,
        0.0,
        -1.0107417573003488,
        -0.21697930693862802,
        -0.3388449427926887,
        0.0,
        0.0,
        0.0,
        0.09149639691516188,
        1.3421358244390877,
        1.3421358244390877,
        0.0,
        0.0,
        0.0,
        0.6666754330021855,
        -0.026683087027914613,
        -0.18179986850861318,
        0.7307711086623847,
        0.9188235625720286,
        0.09954132395619014,
        -0.32587956332912216,
        0.0,
        -0.18179986850861318,
        -0.7753453515317519,
        0.40277847236763964,
        -1.127826761896272,
        -1.6002178962626845,
        -1.5928308532592643,
        1.1092943158213315,
        -0.16882479091208344,
        0.688037665793956,
        0.6864777766099488,
        0.6589438822182765,
        0.17857231050800113,
        1.868415004010093,
        0.13152524994011644,
        2.056072564839511,
        -0.2740140262924024,
        0.5908004474247236,
        0.984126986845011,
        -0.11408320312535758,
        -0.1400862068965517,
        -0.1996779393598573,
        0.4427540389331049,
        -0.1621805149793359,
        0.0,
        -0.11408320312535758,
        -0.11408320312535758,
        -0.11408320312535758,
        0.0,
        0.6124419548728385,
        -0.008305684757012596,
        -0.33505711054397125,
        -0.1996779393598573,
        0.27507986108695287,
        -0.18179986850861318,
        0.0,
        0.0,
        0.0,
        0.0,
        0.0,
        0.0,
        0.0,
        0.0,
        0.0,
        0.0,
        0.0,
        0.0
      ]
    },
    "form_row": {
      "bias": -4.536086196758917,
      "values": [
        -0.20994010008941416,
        -0.20994010008941416,
        -0.25144938712714965,
        -0.2375882332446145,
        0.1592266700254592,
        0.34629035859985896,
        -0.3512802555297905,
        -0.008500666933667515,
        0.5704146330473673,
        -0.26552296532785236,
        0.5422657381813969,
        -0.3156326924117503,
        -0.3042342230745642,
        0.24656825990515568,
        0.23899771658162486,
        -0.20893574502883128,
        0.566519326344431,
        -0.5440947470325377,
        0.5859278517428268,
        -0.5377002076596624,
        0.0,
        -0.18528781587114576,
        -0.08740247853325778,
        -0.008500666933667515,
        0.0,
        0.0,
        0.35465459909323904,
        -0.48259790894948146,
        0.8649591685429527,
        0.0,
        0.0,
        0.0,
        0.4725088900175438,
        -0.33476830025064835,
        -0.33476830025064835,
        0.0,
        0.0,
        0.0,
        -0.08642088946324625,
        0.49242424242424243,
        -0.19526652543517714,
        -0.10820968665789497,
        -0.10047880769024634,
        -0.08677874343553012,
        -0.16959056493008057,
        0.0,
        -0.1952665254351771,
        0.4766626375485854,
        -0.33575080532457147,
        0.4561698982799588,
        0.9333285389016448,
        0.9340914414875225,
        -0.6683760219854732,
        0.1430275703876631,
        -0.28559407301829337,
        -0.2873054007307258,
        -0.20480248102565482,
        -0.2512329049890471,
        -0.4825550201196551,
        -0.2980819460365318,
        -0.44599367382522914,
        -0.1362102169264957,
        -0.17419388645928668,
        -0.1754745527707837,
        0.6015296164791581,
        -0.15046296296296297,
        -0.21446889783095785,
        -0.3598761557694506,
        -0.17419388645928668,
        0.0,
        0.6015296164791581,
        0.6015296164791581,
        -0.12253381076427294,
        0.0,
        0.031927508176473086,
        1.4495144425880409,
        -0.3598761557694506,
        -0.21446889783095785,
        1.3001590829641543,
        -0.1952665254351771,
        0.0,
        0.0,
        0.0,
        0.0,
        0.0,
        0.0,
        0.0,
        0.0,
        0.0,
        0.0,
        0.0,
        0.0
      ]
    },
    "heading": {
      "bias": -10.448036422046831,
      "values": [
        -0.14086563691249449,
        -0.14086563691249449,
        -0.1619241145477333,
        -0.4728438190305771,
        -0.4653928452020471,
        0.7958073437075655,
        -0.30760757511257325,
        -0.33190969855011226,
        0.6204617789416166,
        -0.2857826030922182,
        0.6166853747540021,
        0.005713510817316834,
        0.005511511423561312,
        0.539939658268034,
        -0.035394038292916506,
        -0.4029419020679575,
        0.7023450722804907,
        -0.6946916105195177,
        0.7061487454702415,
        0.9082957621914909,
        0.0,
        0.6741222377553848,
        -0.0894344330339078,
        -0.33190969855011226,
        0.0,
        0.0,
        -0.6466658753775866,
        -0.6492140511180948,
        -0.31869740565366395,
        0.0,
        0.0,
        0.0,
        1.0307604902204652,
        -0.293148457516784,
        -0.293148457516784,
        0.0,
        0.0,
        0.0,
        -0.07567667077322104,
        1.054054054054054,
        -0.17099014659729023,
        -0.020376021423476633,
        -0.05306745220466687,
        1.5180111370444638,
        1.6738476116370125,
        0.0,
        -0.17099014659729023,
        0.7425103985197825,
        -0.38751033414609914,
        -0.8739200733891834,
        -0.24888259793549156,
        -0.2589425545203624,
        0.014300431190923992,
        2.2040232079113524,
        0.6034163695140052,
        0.6019476993231616,
        0.42777943595745066,
        0.5296336665085941,
        0.4929886421762963,
        -0.14432230128564127,
        -0.4757319786498536,
        -0.25772130040474606,
        -0.1525373492238078,
        -0.2817077955293122,
        -0.10729987753412011,
        -0.13175675675675674,
        -0.18780519701954146,
        -0.3151347958629784,
        -0.1525373492238078,
        0.0,
        -0.10729987753412011,
        -0.10729987753412011,
        -0.10729987753412011,
        0.0,
        -0.3758816908559913,
        -0.3463246065707846,
        -0.3151347958629784,
        -0.18780519701954146,
        -0.3758816908559913,
        0.4958714251321417,
        0.0,
        0.0,
        0.0,
        0.0,
        0.0,
        0.0,
        0.0,
        0.0,
        0.0,
        0.0,
        0.0,
        0.0
      ]
    },
    "keep_as_text": {
      "bias": -60.033725409226655,
      "values": [
        3.5716838928417434,
        3.5716838928417434,
        3.549778505757915,
        -0.5842259112998042,
        -0.016000007002704764,
        -0.582480678896501,
        -0.30109736188267755,
        -0.7480916950242718,
        -0.33781819946782726,
        1.2980258375598848,
        -0.07672450193355931,
        2.388098469442746,
        3.243759530637285,
        0.05863363630232936,
        -2.238933318267822,
        0.5169317343048767,
        0.02667458755660891,
        -0.3163666874397966,
        -0.2647558924531905,
        0.845436245799684,
        0.0,
        -0.15309863135763305,
        0.6491380426324109,
        -0.7480916950242718,
        0.0,
        0.0,
        -0.8826715040046899,
        -0.6354740712002516,
        1.136398345556432,
        0.0,
        0.0,
        0.0,
        -0.5241275082547545,
        -0.2869442573576986,
        -0.2869442573576986,
        0.0,
        0.0,
        0.0,
        -0.07407504811135393,
        -0.5158730158730158,
        3.096369189043523,
        -0.025962880891431176,
        0.6361655389228673,
        -0.73423096598557,
        -0.5495225660682145,
        0.0,
        2.0084556901903934,
        0.4452530011405763,
        -0.17263692097785077,
        -1.23760256053225,
        -1.328988039797889,
        -1.332825141281333,
        1.1692595648733222,
        -0.3133628433163328,
        0.2839823091826644,
        0.28253397968217503,
        0.2645932353309858,
        0.08992798011609907,
        -0.4136185886739901,
        0.5353308418615266,
        -0.46566357698530636,
        -0.25226688134856096,
        -0.14930904553653146,
        -0.2757457257826601,
        -0.1050289806550911,
        -0.12896825396825395,
        -0.1838304838551067,
        2.1978150941634307,
        -0.14930904553653146,
        0.0,
        -0.1050289806550911,
        -0.1050289806550911,
        1.6016919549901392,
        0.0,
        2.349712566035198,
        -0.3389949852676992,
        0.3181048162604965,
        3.799163333005539,
        -0.36792652279554705,
        3.0963691890435228,
        0.0,
        0.0,
        0.0,
        0.0,
        0.0,
        0.0,
        0.0,
        0.0,
        0.0,
        0.0,
        0.0,
        0.0
      ]
    },
    "link_text": {
      "bias": -12.864970288606642,
      "values": [
        -0.22390908623477715,
        -0.22390908623477715,
        -0.2766464337243265,
        -0.5880082972932464,
        0.3394893823514713,
        -0.6700918698376217,
        -0.29333712059704153,
        -0.8016523244691603,
        1.5909623382886655,
        -0.9921526251856218,
        1.5732918422668416,
        -0.35543123704891977,
        -0.08597862326695739,
        -0.08043695945439493,
        0.8466702342207969,
        -1.0180696247682088,
        1.4545812837245393,
        -1.4359284359686504,
        1.46527647027072,
        0.6333327441113116,
        0.0,
        -0.04397037177691308,
        -0.02035540304262692,
        -0.8016523244691603,
        0.0,
        0.0,
        -0.43944743392559815,
        -0.6190958734889049,
        -0.3039124744635455,
        0.0,
        0.0,
        0.0,
        -0.5106190673203536,
        -0.27954878680724243,
        -0.27954878680724243,
        0.0,
        0.0,
        0.0,
        -0.0721658973868345,
        -0.5025773195876289,
        -0.16305761402318913,
        -0.1759389059564386,
        -0.03199966279648499,
        -0.009564257795955058,
        -0.07130565817042481,
        0.0,
        -0.16305761402318913,
        0.7785951058611759,
        -0.40820990684438224,
        -0.41641859749209975,
        -1.4981624455660532,
        -1.4840160789167804,
        0.702123796170306,
        0.06058838702349098,
        -0.23848577231424498,
        -0.23991481916689475,
        -0.17102062848534064,
        -0.20979242581559604,
        -0.4029583157700213,
        -0.420124333368131,
        -0.45366193840321084,
        -0.245765157602464,
        -0.1454608742598167,
        -0.2686388771800142,
        -0.10232204816398051,
        -0.12564432989690721,
        -0.17909258478667614,
        -0.300515140384799,
        -0.1454608742598167,
        0.0,
        -0.10232204816398051,
        -0.10232204816398051,
        -0.10232204816398051,
        0.0,
        -0.3584438804554556,
        -0.33025800111131526,
        -0.300515140384799,
        -0.17909258478667614,
        -0.3584438804554556,
        -0.16305761402318913,
        0.0,
        0.0,
        0.0,
        0.0,
        0.0,
        0.0,
        0.0,
        0.0,
        0.0,
        0.0,
        0.0,
        0.0
      ]
    },
    "list_item": {
      "bias": -19.497844855540283,
      "values": [
        0.7744467317930719,
        0.7744467317930719,
        0.7219441711880437,
        -0.015173165681034453,
        1.1094830380609404,
        -0.610508887113249,
        -0.30595377094530135,
        -0.6704213423587505,
        0.7449572577339263,
        0.7000918424890854,
        0.7622380699260325,
        1.5737091562799783,
        0.2800445755053354,
        0.21475300056255497,
        0.20815930153883455,
        0.02477478776332276,
        0.7759175950705699,
        -0.7776120825451317,
        0.7699143160166451,
        0.8092326249977362,
        0.0,
        0.12576523095189363,
        -0.027091964769270283,
        -0.6704213423587505,
        0.0,
        0.0,
        -0.49885086051389366,
        -0.49076359913716855,
        0.010062983452112609,
        0.0,
        0.0,
        0.0,
        -0.5325811777427344,
        -0.2915723905408873,
        -0.2915723905408873,
        0.0,
        0.0,
        0.0,
        -0.07526980695185964,
        -0.5241935483870968,
        -0.17007084473386394,
        -0.11031066615352024,
        0.025324291345858833,
        0.11992398401818852,
        -0.3432688265679286,
        0.0,
        -0.17007084473386394,
        -0.306885703523029,
        0.32693984461686443,
        -0.97210390794211,
        -1.1440801444600808,
        -1.1854432171859703,
        0.75486741360291,
        0.3078170454857097,
        0.8110708581777027,
        0.8096174717468377,
        -0.17837635444169936,
        2.586592607847567,
        -0.420289856233248,
        -0.43819419716891084,
        -0.4731742798399081,
        -0.2563357020154732,
        -0.15171725594841098,
        -0.280193237488832,
        -0.1067229964721087,
        -0.1310483870967742,
        -0.18679549165922135,
        2.233263724714454,
        3.1354899562671603,
        0.0,
        -0.1067229964721087,
        -0.1067229964721087,
        -0.1067229964721087,
        0.0,
        -0.005664557902277483,
        -0.3444626463204041,
        1.384362308887322,
        -0.18679549165922135,
        -0.3738608215503139,
        -0.17007084473386394,
        0.0,
        0.0,
        0.0,
        0.0,
        0.0,
        0.0,
        0.0,
        0.0,
        0.0,
        0.0,
        0.0,
        0.0
      ]
    },
    "paragraph": {
      "bias": -6.440698127122725,
      "values": [
        0.247773144649886,
        0.247773144649886,
        0.1950785700044368,
        -0.6968745417477613,
        -0.40245133387871046,
        -0.5012803769830325,
        1.5646366953444169,
        -0.9232580700158706,
        0.3113651280747124,
        -0.1340455334099177,
        0.3398178538805313,
        0.8241668304603429,
        0.38314358458901987,
        -1.09201792707523,
        -0.5869560369269955,
        -0.4194670943984153,
        0.41164160671470595,
        -0.42314578620962157,
        0.3977932885184746,
        1.003654400485208,
        0.0,
        -0.061284650681664415,
        -0.12215386685369932,
        -0.9232580700158706,
        0.0,
        0.0,
        -0.5025896621538006,
        -0.7036832366785116,
        -0.04682875715742516,
        0.0,
        0.0,
        0.0,
        -0.4225627308451508,
        -0.3327145069975769,
        -0.3327145069975769,
        0.0,
        0.0,
        0.0,
        -0.08589069995733677,
        -0.31777223926380366,
        0.2789735712313919,
        0.13082191725061676,
        -0.13506399182986448,
        -0.0854977271921134,
        0.2989020273263413,
        0.0,
        0.5154946424927893,
        -0.1883832361857887,
        -0.24039070945082663,
        -1.1212005849411801,
        -1.0904399380755994,
        -1.08143347065944,
        0.9376758336775118,
        0.43058813178105126,
        -0.2798469854993859,
        -0.2712438382801474,
        -0.18832473813079972,
        -0.2496915988234701,
        0.4945818898695698,
        -0.28988534563609697,
        -0.5399412027621037,
        -0.2925057703980246,
        -0.17312521230922973,
        -0.31972970658234817,
        -0.12178206959393999,
        -0.1495398773006135,
        -0.21315313772156547,
        -0.3576683265929509,
        -0.17312521230922973,
        0.0,
        -0.12178206959393999,
        -0.12178206959393999,
        0.2492726737000959,
        0.0,
        -0.4266141890083337,
        -0.1409354958730197,
        1.1407663619654078,
        -0.21315313772156547,
        -0.4266141890083337,
        0.04245249996999441,
        0.0,
        0.0,
        0.0,
        0.0,
        0.0,
        0.0,
        0.0,
        0.0,
        0.0,
        0.0,
        0.0,
        0.0
      ]
    },
    "separator": {
      "bias": -30.464677804144213,
      "values": [
        -0.23452388530007134,
        -0.23452388530007134,
        -0.24918853836246854,
        -0.6003874193415253,
        1.938976140474647,
        -0.6841990670973611,
        -0.29951263892540025,
        0.07574971985014217,
        -0.2787195845569005,
        0.1484244428582472,
        -0.28354551524546073,
        0.10045080764181338,
        -0.08422644408969147,
        -0.10000863645122829,
        -2.0682348106786668,
        0.34354362266954036,
        0.0489386992929219,
        -0.046985044806499184,
        0.05063190299872784,
        0.6696059805366064,
        0.0,
        0.009128112237450683,
        -0.15315388781580794,
        0.07574971985014217,
        0.0,
        0.0,
        0.6496340991958103,
        -0.5541134918312254,
        0.8422717149418262,
        0.0,
        0.0,
        0.0,
        -0.5213689424218347,
        -0.285434024424237,
        -0.285434024424237,
        0.0,
        0.0,
        0.0,
        -0.07368517943708365,
        -0.5131578947368421,
        -0.16649040589736155,
        -0.15270886315762375,
        0.07221470968978988,
        0.9814846224358581,
        0.6658840254657408,
        0.0,
        -0.16649040589736153,
        -1.4141564381513902,
        3.3743423616170736,
        -0.5185710586983588,
        -1.131414691584998,
        -1.1295503990576514,
        0.33916088186511967,
        0.7669554756286638,
        1.4013918606253382,
        1.3999903486138352,
        1.5764404590978247,
        -0.21420910846434543,
        -0.4114416487336006,
        -0.4289690561758811,
        -0.4632127160538048,
        -0.25093916092041063,
        -0.14852320845476025,
        -0.27429443248906715,
        -0.1044761965463801,
        4.875,
        -0.18286295499271144,
        1.1890118778119612,
        -0.14852320845476025,
        0.0,
        -0.1044761965463801,
        -0.1044761965463801,
        -0.1044761965463801,
        0.0,
        0.9316110806861411,
        -0.33721080113471136,
        -0.30684177491921577,
        -0.18286295499271144,
        -0.3659900674124126,
        -0.16649040589736153,
        0.0,
        0.0,
        0.0,
        0.0,
        0.0,
        0.0,
        0.0,
        0.0,
        0.0,
        0.0,
        0.0,
        0.0
      ]
    },
    "table_like": {
      "bias": -2.5880041137483194,
      "values": [
        -0.44928103452729135,
        -0.44928103452729135,
        -0.4067439070888379,
        0.5685874485835442,
        -0.31099221096828866,
        0.37344139750500127,
        -0.48638804611817144,
        0.6226840598414529,
        -1.25208021417377,
        -0.14585124437888877,
        -1.281938534414539,
        -0.844791574931198,
        -0.4808818988354644,
        0.34140220602252325,
        0.3309199152668652,
        0.1681971017449238,
        -1.354214463226965,
        1.376023921949971,
        -1.324781331752079,
        -1.1285373417104125,
        0.0,
        -0.3122070851810714,
        -0.29392570249645905,
        0.6226840598414529,
        0.0,
        0.0,
        0.7581889848403353,
        1.1432113570320495,
        -0.5039232482557934,
        0.0,
        0.0,
        0.0,
        -0.05291671958341271,
        0.03310895277204214,
        0.03310895277204214,
        0.0,
        0.0,
        0.0,
        -0.11965969310295635,
        -0.08547008547008547,
        -0.27036903521793754,
        -0.25675132556408775,
        -0.3116100863726945,
        -0.2806113360670863,
        -0.21688164502007118,
        0.0,
        -0.27036903521793754,
        0.11999201259660854,
        -0.1297409847916457,
        1.3972715382208059,
        1.292301053863816,
        1.293357380521185,
        -0.9254437227491168,
        -0.8077388071507565,
        -0.3954379472560985,
        -0.3978074779348511,
        -0.28357266603552206,
        -0.34786094536944984,
        -0.6681531047810609,
        0.38434009159289084,
        0.04558944110345657,
        0.5186465952201182,
        0.06029788377436847,
        0.06852852356728831,
        -0.16966219951976252,
        -0.20833333333333331,
        0.445435403187374,
        -0.4982900618346239,
        -0.24119153509747387,
        0.0,
        -0.16966219951976252,
        -0.16966219951976252,
        -0.16966219951976252,
        0.0,
        -0.32418700609957296,
        -0.5476072838939757,
        -0.4982900618346239,
        -0.049492822576374884,
        -0.3917259657036506,
        -0.27036903521793754,
        0.0,
        0.0,
        0.0,
        0.0,
        0.0,
        0.0,
        0.0,
        0.0,
        0.0,
        0.0,
        0.0,
        0.0
      ]
    }
  },
  "thresholds": {
    "footer_header_noise": {
      "min_score": 7.51640759393268,
      "min_confidence": 0.5
    },
    "form_row": {
      "min_score": -5.005715698920544,
      "min_confidence": 0.5
    },
    "heading": {
      "min_score": 4.72167377133965,
      "min_confidence": 0.5
    },
    "keep_as_text": {
      "min_score": 15.288772486832379,
      "min_confidence": 0.5
    },
    "link_text": {
      "min_score": 14.354806598106741,
      "min_confidence": 0.5
    },
    "list_item": {
      "min_score": 15.071182734216816,
      "min_confidence": 0.5
    },
    "paragraph": {
      "min_score": 8.850944423031251,
      "min_confidence": 0.5
    },
    "separator": {
      "min_score": 12.297521153366663,
      "min_confidence": 0.5
    },
    "table_like": {
      "min_score": 10.529209147458726,
      "min_confidence": 0.5
    }
  },
  "metadata": {
    "trained_from": ".external/layout_model/pdf_eval_manifest.local.tsv,.external/layout_model/pdf_eval_manifest_round2.local.tsv,.external/layout_model/pdf_eval_manifest_round3_baseline.local.tsv,.external/layout_model/pdf_eval_manifest_round4.local.tsv,.external/layout_model/pdf_eval_manifest_round5_candidates.local.tsv",
    "sample_count": "195",
    "label_counts": {
      "footer_header_noise": "21",
      "form_row": "33",
      "heading": "10",
      "keep_as_text": "6",
      "link_text": "1",
      "list_item": "9",
      "paragraph": "32",
      "separator": "5",
      "table_like": "78"
    },
    "notes": "training spike / local corpus only"
  }
}
