{
  "version": 1,
  "task": "pdf_layout_classifier",
  "model_type": "linear_v1",
  "labels": [
    "caption",
    "footer_header_noise",
    "form_row",
    "heading",
    "keep_as_text",
    "link_text",
    "list_item",
    "paragraph",
    "separator",
    "table_like"
  ],
  "features": [
    "text_len",
    "normalized_text_len",
    "word_count",
    "digit_ratio",
    "punctuation_ratio",
    "uppercase_ratio",
    "cjk_ratio",
    "x0",
    "y0",
    "x1",
    "y1",
    "width",
    "height",
    "page_width",
    "page_height",
    "x_center_ratio",
    "y_center_ratio",
    "top_ratio",
    "bottom_ratio",
    "font_size_hint",
    "bold_hint",
    "line_gap_before",
    "line_gap_after",
    "indent_left",
    "alignment_hint",
    "near_image_distance",
    "page_edge_distance",
    "repeated_text_score",
    "source_ref_count",
    "is_heading_candidate",
    "is_page_number_candidate",
    "is_header_footer_candidate",
    "is_artifact_candidate",
    "is_caption_candidate",
    "is_table_cell_candidate",
    "is_noise_kind",
    "is_heading_kind",
    "line_count",
    "prev_gap_before",
    "next_gap_before",
    "prev_font_size_delta",
    "next_font_size_delta",
    "same_paragraph_candidate",
    "wrapped_candidate",
    "latin_ratio",
    "symbol_ratio",
    "text_density",
    "page_line_count",
    "page_block_count",
    "page_median_font_size",
    "relative_font_size",
    "near_annotation_distance",
    "contains_currency",
    "contains_time",
    "contains_date",
    "looks_like_address",
    "looks_like_separator",
    "looks_like_page_number",
    "looks_like_bullet",
    "contains_url",
    "contains_email",
    "contains_url_or_email",
    "has_raw_hyphen",
    "ends_with_colon",
    "has_terminal_period",
    "has_markdown_escape_chars",
    "form_key_value_signal",
    "boundary_prev_no_sentence_end",
    "boundary_next_starts_lowercase",
    "boundary_next_continues_sentence",
    "boundary_similar_indent",
    "boundary_same_column_band",
    "boundary_table_guard",
    "boundary_caption_guard",
    "boundary_noise_guard",
    "boundary_heading_guard",
    "boundary_list_guard",
    "boundary_layout_compatible"
  ],
  "normalization": {
    "mean": [
      12.910112359550562,
      12.910112359550562,
      2.106741573033708,
      0.1747633074179625,
      0.044116030852479615,
      0.14214699138325965,
      0.057918673087212415,
      188.88346022471913,
      390.86251376404493,
      257.28676511235955,
      402.2585429775281,
      68.40330488764045,
      11.396029213483155,
      600.2358426966292,
      791.9512359550562,
      0.37323348335128054,
      0.49444955089773235,
      0.49715946941998385,
      0.4860585712154485,
      9.315780898876405,
      0.0,
      5.006822471910115,
      4.678012359550565,
      188.88346022471913,
      -1.0,
      0.0,
      95.80711421348315,
      1.4775280898876404,
      1.0617977528089888,
      0.20786516853932585,
      0.07865168539325842,
      0.07865168539325842,
      0.0,
      0.0,
      0.0,
      0.0056179775280898875,
      0.21348314606741572,
      1.0056179775280898,
      3.6373426966292146,
      4.441832584269667,
      -0.014865168539325867,
      0.18323033707865166,
      0.0,
      0.028089887640449437,
      0.6161835714457278,
      0.056946765314187166,
      0.021025888822950995,
      121.4494382022472,
      121.37078651685393,
      9.441539325842697,
      0.9846291825153931,
      0.05162921348314573,
      0.06179775280898876,
      0.011235955056179775,
      0.056179775280898875,
      0.011235955056179775,
      0.016853932584269662,
      0.033707865168539325,
      0.02247191011235955,
      0.0,
      0.011235955056179775,
      0.011235955056179775,
      0.056179775280898875,
      0.07303370786516854,
      0.10112359550561797,
      0.011235955056179775,
      0.08426966292134831,
      0.0,
      0.0,
      0.0,
      0.0,
      0.0,
      0.0,
      0.0,
      0.0,
      0.0,
      0.0,
      0.0
    ],
    "scale": [
      17.812469088915076,
      17.812469088915076,
      2.8154588407180277,
      0.29813052970641746,
      0.09233521376846783,
      0.19680854979644322,
      0.21686876529871107,
      147.7856641078845,
      258.23145621623365,
      144.6751562337943,
      260.9890849890491,
      77.04638269422712,
      9.04028612809963,
      41.87930907720714,
      68.62577550484187,
      0.23363656987500422,
      0.30946456640913483,
      0.31094148093990137,
      0.3089371870933819,
      2.7984505408391245,
      1.0,
      10.670305601256892,
      9.812123272932224,
      147.7856641078845,
      1.0,
      1.0,
      58.95928124973063,
      2.334896615327355,
      0.3027980444541992,
      0.4057797928032439,
      0.2691943494541784,
      0.2691943494541784,
      1.0,
      1.0,
      1.0,
      0.07474232975084309,
      0.4097658995238308,
      0.07474232975084309,
      9.837252627015715,
      9.668063990972811,
      0.7808938725892549,
      0.9895094391115719,
      1.0,
      0.16522967606576117,
      0.42271668635157905,
      0.15291884266457054,
      0.009268108801403526,
      83.78772150479617,
      83.88754939992711,
      2.547607653087786,
      0.12290085126859007,
      0.5240436207511158,
      0.24078785383973977,
      0.10540260134434673,
      0.23026855653841793,
      0.10540260134434673,
      0.12872403637516402,
      0.18047616184504506,
      0.1482124264974485,
      1.0,
      0.10540260134434673,
      0.10540260134434673,
      0.23026855653841793,
      0.2601918242002115,
      0.3014923115730053,
      0.10540260134434673,
      0.2777918048331711,
      1.0,
      1.0,
      1.0,
      1.0,
      1.0,
      1.0,
      1.0,
      1.0,
      1.0,
      1.0,
      1.0
    ]
  },
  "weights": {
    "caption": {
      "bias": -6.15083818124834,
      "values": [
        0.456735850584682,
        0.456735850584682,
        0.6762502703730952,
        -0.4288812322449272,
        0.038152376303366264,
        0.246951900543744,
        -0.26857669959397446,
        -0.7953668541980797,
        -0.07871507621457749,
        -0.3941041938608296,
        -0.07517080928992285,
        0.7855882498476877,
        0.07831035573070982,
        0.2824932342392771,
        0.0007145937173291797,
        -0.6479280307938942,
        -0.061152576249693925,
        0.06329453158949738,
        -0.05880876876922837,
        0.6052400921722076,
        0.0,
        -0.4718805433207718,
        -0.47945196743372626,
        -0.7953668541980797,
        0.0,
        0.0,
        -0.406070379016454,
        -0.6363775151587892,
        -0.20524205421269648,
        -0.5151551450566165,
        -0.2938250574654192,
        -0.2938250574654192,
        0.0,
        0.0,
        0.0,
        -0.07558926157316584,
        -0.5239315076881781,
        -0.07558926157316584,
        -0.3718408781453559,
        -0.46202918058741105,
        0.01914364175096564,
        -0.18621907931328688,
        0.0,
        -0.1709655810217686,
        0.34667302889261054,
        -0.37450256262516085,
        -0.8169685808848863,
        -1.4456765421875226,
        -1.443013275790511,
        0.6151910930333349,
        0.12577340272098358,
        -0.09907744679800376,
        -0.258098121081847,
        -0.10720262008841429,
        -0.24535340817067644,
        -0.10720262008841429,
        -0.13167045580341236,
        -0.18782705005578793,
        -0.15247621667462694,
        0.0,
        -0.10720262008841429,
        -0.10720262008841429,
        -0.24535340817067644,
        -0.2822776154069338,
        -0.3373051694872564,
        -0.10720262008841429,
        -0.3050693405543723,
        0.0,
        0.0,
        0.0,
        0.0,
        0.0,
        0.0,
        0.0,
        0.0,
        0.0,
        0.0,
        0.0
      ]
    },
    "footer_header_noise": {
      "bias": -14.710003942526576,
      "values": [
        -0.3960393773461312,
        -0.3960393773461312,
        -0.1343124804508815,
        0.5113624531331463,
        0.598702138773199,
        -0.6189954196566256,
        0.10457308889467314,
        0.42335301554654603,
        1.598394414496894,
        0.26048484811737527,
        1.5888734629429049,
        -0.3229200331888986,
        0.21270499253851743,
        -0.10486682297562358,
        0.757255115897656,
        0.3608246561826697,
        1.515291201658293,
        -1.5060910505796494,
        1.5198937108533408,
        1.0372208516240466,
        0.0,
        -0.08408547206834296,
        0.51852791001006,
        0.42335301554654603,
        0.0,
        0.0,
        -0.9096614343772176,
        -0.25396628536028676,
        -0.22563878009718805,
        0.23500402133111328,
        1.6096963232229171,
        1.6096963232229171,
        0.0,
        0.0,
        0.0,
        0.7870176057911973,
        0.05884821907210446,
        -0.08310123787857362,
        -0.0010235635995343433,
        0.5532625550359804,
        0.18761089928251048,
        0.1896198358985243,
        0.0,
        -0.18795594932206858,
        -0.9342540819802669,
        0.5806209113022894,
        -1.2098895670443464,
        -1.5435513900843765,
        -1.5422284692247308,
        1.0847722108098714,
        0.1382726228671683,
        -0.10892365269097307,
        -0.28374762379805535,
        -0.11785629661893993,
        0.8599829689238463,
        -0.11785629661893993,
        -0.14475571849195024,
        -0.2064930922973569,
        1.5875464912593509,
        0.0,
        -0.11785629661893993,
        -0.11785629661893993,
        0.8599829689238463,
        -0.3103300492361943,
        -0.37082618011953034,
        -0.11785629661893993,
        -0.33538679054735343,
        0.0,
        0.0,
        0.0,
        0.0,
        0.0,
        0.0,
        0.0,
        0.0,
        0.0,
        0.0,
        0.0
      ]
    },
    "form_row": {
      "bias": -4.953112890503095,
      "values": [
        0.07165294059474055,
        0.07165294059474055,
        -0.14038312663770217,
        -0.26615436632855655,
        0.2962564200046978,
        0.12560969524690158,
        -0.3127504988692992,
        -0.030772513310016264,
        0.1421645465171077,
        -0.056077062150341146,
        0.12939376410155554,
        -0.04627370276541816,
        -0.32532131523337,
        0.32895593723915817,
        0.0008321255787320053,
        -0.0879563033952559,
        0.16746570038829856,
        -0.15619281659472656,
        0.17829700442422075,
        -0.5184182072825163,
        0.0,
        -0.16115076732386432,
        0.27712347890524547,
        -0.030772513310016264,
        0.0,
        0.0,
        0.3396373860836342,
        -0.4709828902300778,
        1.248477142342129,
        0.3990916322355668,
        -0.34215154718012636,
        -0.34215154718012636,
        0.0,
        0.0,
        0.0,
        -0.08802170591085759,
        0.37915398194475697,
        -0.08802170591085759,
        0.5468136719389178,
        0.3098602457542367,
        -0.09306396102470438,
        -0.26236521248761885,
        0.0,
        -0.19908492000561215,
        0.3911048668316248,
        -0.2865269912048485,
        0.3981927567459138,
        0.8742331058114169,
        0.8742907116466754,
        -0.6626288859693821,
        0.23807937390452016,
        -0.11537307949504386,
        -0.11349382781101829,
        -0.12483462997137716,
        -0.28570758714611666,
        0.7298024521403589,
        -0.15332678077107886,
        -0.21871965697285833,
        -0.1775545417855853,
        0.0,
        0.7298024521403589,
        0.7298024521403589,
        0.10549203217702768,
        1.7485542275146966,
        -0.3927829934160814,
        -0.12483462997137716,
        1.5904055186168071,
        0.0,
        0.0,
        0.0,
        0.0,
        0.0,
        0.0,
        0.0,
        0.0,
        0.0,
        0.0,
        0.0
      ]
    },
    "heading": {
      "bias": -8.44513263933243,
      "values": [
        -0.024989345890094328,
        -0.024989345890094328,
        -0.06868500016553208,
        -0.45204287762914785,
        -0.37863140173725807,
        0.40728230581293356,
        0.5442524594191477,
        -0.5502993934829365,
        0.46605666350901653,
        -0.46466970211688563,
        0.4630795978268915,
        0.18300923521782955,
        0.05621831096086964,
        0.2120308101640913,
        0.16985255147141742,
        -0.5563008233851385,
        0.47194058162810126,
        -0.46621569342690694,
        0.4762520762279476,
        0.5701067365471788,
        0.0,
        1.4088317026825938,
        0.5491852116637077,
        -0.5502993934829365,
        0.0,
        0.0,
        -0.7329856962472826,
        -0.6204155945353954,
        -0.22151124143687362,
        0.9724469037994294,
        -0.31711606811816584,
        -0.31711606811816584,
        0.0,
        0.0,
        0.0,
        -0.08158109328323386,
        1.326498880459011,
        -0.08158109328323386,
        0.5207459973372304,
        0.4154881146001096,
        1.5098417003770515,
        1.6010247416124201,
        0.0,
        -0.1845177307369088,
        0.23838077306119365,
        -0.40418874136983823,
        -0.9303538511537273,
        -0.14923851819960388,
        -0.15358830283668543,
        -0.06638666573927136,
        1.7915991283118113,
        -0.10693114684906503,
        -0.2785571184846763,
        -0.11570038875395933,
        -0.2648021539403032,
        -0.11570038875395933,
        -0.14210774803173165,
        -0.20271577963338086,
        -0.16456274604517662,
        0.0,
        -0.11570038875395933,
        -0.11570038875395933,
        -0.2648021539403032,
        -0.30465328004284925,
        -0.3640427743856365,
        -0.11570038875395933,
        -0.3292516663300238,
        0.0,
        0.0,
        0.0,
        0.0,
        0.0,
        0.0,
        0.0,
        0.0,
        0.0,
        0.0,
        0.0
      ]
    },
    "keep_as_text": {
      "bias": -136.76993040035063,
      "values": [
        0.513193476559733,
        0.513193476559733,
        -0.3953154399510378,
        -0.5895091351757152,
        0.014578152543528558,
        -0.7263408113006744,
        -0.26857669959397446,
        -1.2172635439903967,
        -1.5104814615401192,
        0.0605664609701872,
        -1.4536621222725086,
        2.4486102637037006,
        1.1795954325873044,
        -9.61088114908639,
        -10.872635614803562,
        1.3634687333243494,
        -0.6968847283026758,
        0.009186869396610245,
        -1.386902256146249,
        3.839475368280819,
        0.0,
        -0.4718805433207718,
        -0.47945196743372626,
        -1.2172635439903967,
        0.0,
        0.0,
        -1.5829814443763561,
        -0.6363775151587892,
        -0.20524205421269648,
        -0.5151551450566165,
        -0.2938250574654192,
        -0.2938250574654192,
        0.0,
        0.0,
        0.0,
        -0.07558926157316584,
        -0.5239315076881781,
        -0.07558926157316584,
        -0.3718408781453559,
        -0.46202918058741105,
        0.01914364175096564,
        -0.18621907931328688,
        0.0,
        -0.1709655810217686,
        0.4805570405128129,
        0.5222741196905364,
        -1.8575914801126772,
        -1.4456765421875226,
        -1.443013275790511,
        4.167876078359544,
        0.12577340272098358,
        -0.09907744679800376,
        -0.258098121081847,
        -0.10720262008841429,
        -0.24535340817067644,
        -0.10720262008841429,
        -0.13167045580341236,
        -0.18782705005578793,
        -0.15247621667462694,
        0.0,
        -0.10720262008841429,
        -0.10720262008841429,
        -0.24535340817067644,
        -0.2822776154069338,
        -0.3373051694872564,
        -0.10720262008841429,
        -0.3050693405543723,
        0.0,
        0.0,
        0.0,
        0.0,
        0.0,
        0.0,
        0.0,
        0.0,
        0.0,
        0.0,
        0.0
      ]
    },
    "link_text": {
      "bias": -10.909940088041578,
      "values": [
        -0.1078404091658277,
        -0.1078404091658277,
        -0.3953154399510378,
        -0.5895091351757152,
        0.5096368515001214,
        -0.7263408113006744,
        -0.26857669959397446,
        -0.803124309462003,
        1.3160041348321618,
        -0.9185359661338894,
        1.3047269308882985,
        -0.18429255826458565,
        0.07586305555991202,
        -0.11804435001769292,
        0.7322478045116182,
        -0.8979389593095883,
        1.2294974681400166,
        -1.219718027735363,
        1.2355614274744147,
        0.5980529026697443,
        0.0,
        0.6138507542343858,
        0.7012389415076022,
        -0.803124309462003,
        0.0,
        0.0,
        -0.42551499661805237,
        -0.6363775151587892,
        -0.20524205421269648,
        -0.5151551450566165,
        -0.2938250574654192,
        -0.2938250574654192,
        0.0,
        0.0,
        0.0,
        -0.07558926157316584,
        -0.5239315076881781,
        -0.07558926157316584,
        -0.3718408781453559,
        0.7320939414607837,
        0.01914364175096564,
        -0.18621907931328688,
        0.0,
        -0.1709655810217686,
        0.6968312131300621,
        -0.37450256262516085,
        -0.46098364231252187,
        -1.4216718384086626,
        -1.4190371380988547,
        0.6072962375103879,
        0.12577340272098358,
        -0.09907744679800376,
        -0.258098121081847,
        -0.10720262008841429,
        -0.24535340817067644,
        -0.10720262008841429,
        -0.13167045580341236,
        -0.18782705005578793,
        -0.15247621667462694,
        0.0,
        -0.10720262008841429,
        -0.10720262008841429,
        -0.24535340817067644,
        -0.2822776154069338,
        -0.3373051694872564,
        -0.10720262008841429,
        -0.3050693405543723,
        0.0,
        0.0,
        0.0,
        0.0,
        0.0,
        0.0,
        0.0,
        0.0,
        0.0,
        0.0,
        0.0
      ]
    },
    "list_item": {
      "bias": -29.2050855996573,
      "values": [
        -0.6194588102307256,
        -0.6194588102307256,
        -0.39756155040530505,
        1.1033172765384551,
        4.993376307689624,
        -0.7304677477285192,
        -0.27010270356894023,
        -0.799885984051478,
        0.8294658030993353,
        -1.210676394577668,
        0.8234295801277354,
        -0.7390757772035045,
        0.07875530093372522,
        0.2840983094338184,
        0.0007186539089049137,
        -1.0635871701599218,
        0.895824542156094,
        -0.8891233019204308,
        0.8998158927130201,
        0.6086789563322771,
        0.0,
        3.601107561276593,
        -0.4821761263395997,
        -0.799885984051478,
        0.0,
        0.0,
        -0.4083775970790474,
        -0.20684193993181785,
        -0.2064082022479959,
        -0.5180821629262563,
        -0.2954945180192,
        -0.2954945180192,
        0.0,
        0.0,
        0.0,
        -0.07601874601392246,
        -0.5269083912545882,
        -0.07601874601392246,
        -0.014120142519207467,
        -0.4646543463862031,
        0.01925241244273249,
        -0.18727714226393058,
        0.0,
        -0.17193697636848318,
        -1.4742395500483554,
        -0.376630418094622,
        -0.8037583609897824,
        -1.2728324073906527,
        -1.2944818375038076,
        0.6186864969710242,
        0.1264880243273528,
        -0.09964038683662878,
        -0.25956458767890295,
        -0.10781172588437118,
        -0.24674746162619166,
        -0.10781172588437118,
        -0.13241858339320448,
        -0.1888942492038322,
        -0.15334255881482367,
        0.0,
        -0.10781172588437118,
        -0.10781172588437118,
        -0.24674746162619166,
        -0.2838814654944732,
        1.3380410558542777,
        -0.10781172588437118,
        -0.30680268908024944,
        0.0,
        0.0,
        0.0,
        0.0,
        0.0,
        0.0,
        0.0,
        0.0,
        0.0,
        0.0,
        0.0
      ]
    },
    "paragraph": {
      "bias": -13.335045220763968,
      "values": [
        1.4092786726094033,
        1.4092786726094033,
        1.427378244084498,
        -0.6864678745138263,
        -0.22301712913642197,
        -0.5340307112250113,
        1.066874236860594,
        -0.977914099229814,
        0.9940638426872296,
        -0.11954356632362508,
        1.0257986994112842,
        1.6513001131467662,
        1.2193983815417864,
        -0.6380753756271713,
        0.1542732357843759,
        -0.5256756030656782,
        1.0114087661927424,
        -1.0259144317630187,
        0.9937003723726731,
        1.0264567189608296,
        0.0,
        0.7099773508596954,
        0.5073723971453077,
        -0.977914099229814,
        0.0,
        0.0,
        -0.6694133589220516,
        -0.7410448696256953,
        -0.0902513596873828,
        -0.5998846097040863,
        -0.34215154718012636,
        -0.34215154718012636,
        0.0,
        0.0,
        0.0,
        -0.08802170591085759,
        -0.5001868491453634,
        0.5145884345557828,
        -0.003680753498680004,
        0.44570756410338636,
        -0.5731189041116165,
        0.05343863772004364,
        0.0,
        1.1638810708020402,
        0.04124074710553026,
        -0.43609837884640446,
        -1.0061037090888862,
        -1.362532116736539,
        -1.3608865447088951,
        1.1768900305151035,
        -0.05711984643431733,
        0.674488772432564,
        -0.30054846994399287,
        -0.12483462997137716,
        -0.28570758714611666,
        -0.12483462997137716,
        -0.15332678077107886,
        -0.21871965697285833,
        -0.1775545417855853,
        0.0,
        -0.12483462997137716,
        -0.12483462997137716,
        -0.28570758714611666,
        -0.15559993125825997,
        2.1468779853810607,
        -0.12483462997137716,
        -0.35524521893502564,
        0.0,
        0.0,
        0.0,
        0.0,
        0.0,
        0.0,
        0.0,
        0.0,
        0.0,
        0.0,
        0.0
      ]
    },
    "separator": {
      "bias": -68.13602466807079,
      "values": [
        0.15740712361737486,
        0.15740712361737486,
        -0.3998333306933354,
        -0.5962463824348663,
        -0.48597175265778497,
        -0.7346418491441107,
        -0.27164614758933414,
        0.016244248982478858,
        -0.23768530111674632,
        0.851498737337233,
        -0.22779610880085113,
        1.5677575183861778,
        0.21299363773302904,
        -3.3452564442539128,
        -2.461142731414555,
        1.056160320764438,
        0.14539630251877098,
        -0.15198409664219248,
        0.1383188852909857,
        1.0050643440349967,
        0.0,
        -0.47727346381586633,
        0.007358710181291119,
        0.016244248982478858,
        0.0,
        0.0,
        -0.20198785387616275,
        -0.6436504010463182,
        -0.207587677689413,
        -0.5210426324286921,
        -0.2971830581221669,
        -0.2971830581221669,
        0.0,
        0.0,
        0.0,
        -0.07645313884828774,
        -0.5299192963474716,
        -0.07645313884828774,
        -0.37609048818130286,
        0.03231599864759935,
        2.0500170003610054,
        1.4141899312963515,
        0.0,
        -0.1729194733763031,
        -1.4826637760486319,
        6.2727381717778385,
        -1.616171339854804,
        -0.9644781731748461,
        -0.962376766861409,
        0.431378377989583,
        1.353449123446178,
        -0.10020976047569523,
        -0.26104781389421094,
        -0.10842779288942474,
        -0.24815744712119847,
        -0.10842779288942474,
        7.76855689240133,
        -0.18997364491356836,
        -0.15421880200805124,
        0.0,
        -0.10842779288942474,
        -0.10842779288942474,
        -0.24815744712119847,
        -0.2855036452972987,
        -0.3411600857099679,
        -0.10842779288942474,
        -0.3085558473035651,
        0.0,
        0.0,
        0.0,
        0.0,
        0.0,
        0.0,
        0.0,
        0.0,
        0.0,
        0.0,
        0.0
      ]
    },
    "table_like": {
      "bias": -0.2679666069156976,
      "values": [
        -0.597257218466954,
        -0.597257218466954,
        -0.5293408049175592,
        0.45627313250177126,
        -0.3360899392986939,
        0.4079039943671178,
        -0.5223964376717964,
        0.6141871814535542,
        -1.2699353707613525,
        0.15772712252227633,
        -1.2767317839400292,
        -0.8819215390567239,
        -0.5835877205633251,
        0.5494648622016707,
        0.0013899240435963165,
        0.3242321469999737,
        -1.3092018735507711,
        1.321221955160067,
        -1.2930799061503055,
        -0.9839700024858025,
        0.0,
        -0.7745516577834722,
        -0.7034228192974787,
        0.6141871814535542,
        0.0,
        0.0,
        0.7772039931451767,
        0.9673051558657347,
        -0.3992070724796404,
        -0.1708918233107224,
        -0.0703824976606117,
        -0.0703824976606117,
        0.0,
        0.0,
        0.0,
        -0.14702526701593793,
        -0.2509157634294533,
        -0.14702526701593793,
        -0.37128044805267735,
        -0.6661202697846809,
        -0.3082649918557956,
        -0.49853609989304615,
        0.0,
        -0.3325374488005829,
        0.16782534522996406,
        -0.11693935412866516,
        1.204550764542986,
        1.0376282611183947,
        1.0382274192648642,
        -0.7890998381265824,
        -0.7615240711343835,
        -0.19271107783787544,
        0.431722431546772,
        0.21810188224884286,
        0.10861002327585609,
        -0.20851498632581678,
        -0.25610627117806584,
        0.38213089494108576,
        -0.2965746192462524,
        0.0,
        -0.20851498632581678,
        -0.20851498632581678,
        -0.0866686044322488,
        -0.5490454717255745,
        -0.6560770879037845,
        0.21810188224884286,
        -0.3505696408356156,
        0.0,
        0.0,
        0.0,
        0.0,
        0.0,
        0.0,
        0.0,
        0.0,
        0.0,
        0.0,
        0.0
      ]
    }
  },
  "thresholds": {
    "caption": {
      "min_score": 13.3342579496138,
      "min_confidence": 0.5
    },
    "footer_header_noise": {
      "min_score": 6.892416361842029,
      "min_confidence": 0.5
    },
    "form_row": {
      "min_score": -2.285892366047683,
      "min_confidence": 0.5
    },
    "heading": {
      "min_score": 5.715441936189385,
      "min_confidence": 0.5
    },
    "keep_as_text": {
      "min_score": 47.32480990608523,
      "min_confidence": 0.5
    },
    "link_text": {
      "min_score": 10.909003688237409,
      "min_confidence": 0.5
    },
    "list_item": {
      "min_score": 9.906723294989046,
      "min_confidence": 0.5
    },
    "paragraph": {
      "min_score": 2.276212675371121,
      "min_confidence": 0.5
    },
    "separator": {
      "min_score": 41.54925276151161,
      "min_confidence": 0.5
    },
    "table_like": {
      "min_score": 0.04684048442482869,
      "min_confidence": 0.5
    }
  },
  "metadata": {
    "trained_from": "samples/pdf_layout_classifier/manifest.tsv,.external/layout_model/pdf_eval_manifest.local.tsv,.external/layout_model/pdf_eval_manifest_round2.local.tsv",
    "sample_count": "178",
    "label_counts": {
      "caption": "1",
      "footer_header_noise": "17",
      "form_row": "26",
      "heading": "14",
      "keep_as_text": "1",
      "link_text": "1",
      "list_item": "2",
      "paragraph": "26",
      "separator": "3",
      "table_like": "87"
    },
    "notes": "training spike / local corpus only"
  }
}
