{
  "version": 1,
  "task": "pdf_layout_classifier",
  "model_type": "linear_v1",
  "labels": [
    "caption",
    "form_row",
    "heading",
    "link_text",
    "paragraph",
    "separator",
    "table_like"
  ],
  "features": [
    "text_len",
    "normalized_text_len",
    "word_count",
    "digit_ratio",
    "punctuation_ratio",
    "uppercase_ratio",
    "cjk_ratio",
    "x0",
    "y0",
    "x1",
    "y1",
    "width",
    "height",
    "page_width",
    "page_height",
    "x_center_ratio",
    "y_center_ratio",
    "top_ratio",
    "bottom_ratio",
    "font_size_hint",
    "bold_hint",
    "line_gap_before",
    "line_gap_after",
    "indent_left",
    "alignment_hint",
    "near_image_distance",
    "page_edge_distance",
    "repeated_text_score",
    "source_ref_count",
    "has_rich_inline_payload",
    "has_link_inline",
    "link_inline_count",
    "link_overlap_ratio",
    "link_text_coverage_ratio",
    "has_partial_link",
    "is_link_only_candidate",
    "link_target_uri",
    "link_target_internal",
    "link_target_named",
    "link_target_mixed",
    "page_number_like_link",
    "toc_like_anchor_signal",
    "visible_url_without_annotation",
    "is_heading_candidate",
    "is_page_number_candidate",
    "is_header_footer_candidate",
    "is_artifact_candidate",
    "is_caption_candidate",
    "is_table_cell_candidate",
    "is_noise_kind",
    "is_heading_kind",
    "line_count",
    "prev_gap_before",
    "next_gap_before",
    "prev_font_size_delta",
    "next_font_size_delta",
    "same_paragraph_candidate",
    "wrapped_candidate",
    "latin_ratio",
    "symbol_ratio",
    "text_density",
    "page_line_count",
    "page_block_count",
    "page_median_font_size",
    "relative_font_size",
    "near_annotation_distance",
    "near_link_annotation_distance",
    "near_uri_annotation_distance",
    "near_dest_annotation_distance",
    "top_zone_candidate",
    "bottom_zone_candidate",
    "repeated_edge_candidate",
    "contains_currency",
    "contains_time",
    "contains_date",
    "looks_like_address",
    "looks_like_separator",
    "looks_like_page_number",
    "looks_like_bullet",
    "looks_like_list_marker_token",
    "contains_url",
    "contains_email",
    "contains_url_or_email",
    "contains_path_like",
    "caption_marker_signal",
    "caption_marker_figure",
    "caption_marker_table",
    "caption_marker_starts_line",
    "caption_reference_only_signal",
    "caption_lead_in_signal",
    "near_image_object_signal",
    "caption_object_distance_ratio",
    "caption_heading_conflict_signal",
    "asset_metadata_noise_signal",
    "has_raw_hyphen",
    "ends_with_colon",
    "has_terminal_period",
    "contains_clause_punctuation",
    "has_markdown_escape_chars",
    "form_key_value_signal",
    "option_like_signal",
    "code_like_signal",
    "monospace_hint",
    "boundary_prev_no_sentence_end",
    "boundary_next_starts_lowercase",
    "boundary_next_continues_sentence",
    "boundary_similar_indent",
    "boundary_same_column_band",
    "boundary_table_guard",
    "boundary_caption_guard",
    "boundary_noise_guard",
    "boundary_heading_guard",
    "boundary_list_guard",
    "boundary_layout_compatible"
  ],
  "normalization": {
    "mean": [
      11.699386503067485,
      11.699386503067485,
      1.7607361963190185,
      0.15582259917100086,
      0.0328716483604345,
      0.1559693808721753,
      0.10377659150665286,
      183.38349104294477,
      331.4654325153374,
      249.46530711656442,
      342.1752834355828,
      66.08181607361962,
      10.7098509202454,
      595.6829447852762,
      780.5941104294478,
      0.3635780768598919,
      0.42909991441577244,
      0.5639118393268591,
      0.4221116681584039,
      8.87474846625767,
      0.0,
      4.117191411042947,
      4.168441717791413,
      183.38349104294477,
      -1.0,
      0.0,
      104.5588609202454,
      1.5153374233128833,
      1.0736196319018405,
      0.0,
      0.0,
      0.0,
      0.0058327641085985866,
      0.0058327641085985866,
      0.0,
      0.006134969325153374,
      0.012269938650306749,
      0.0,
      0.0,
      0.0,
      0.0,
      0.0,
      0.012269938650306749,
      0.2085889570552147,
      0.03680981595092025,
      0.03680981595092025,
      0.0,
      0.0,
      0.0,
      0.0,
      0.22085889570552147,
      1.0,
      3.01235582822086,
      3.910527607361965,
      -0.020386503067484674,
      0.1345889570552147,
      0.0,
      0.018404907975460124,
      0.6165128771607177,
      0.05460948687308385,
      0.022302512955676233,
      141.64417177914112,
      141.64417177914112,
      8.946576687116563,
      0.9890091517276686,
      0.05638036809815915,
      0.2017914110429451,
      0.2017914110429451,
      0.0,
      0.09815950920245399,
      0.1411042944785276,
      0.09202453987730061,
      0.06748466257668712,
      0.012269938650306749,
      0.04294478527607362,
      0.012269938650306749,
      0.018404907975460124,
      0.03680981595092025,
      0.0,
      0.0,
      0.0,
      0.012269938650306749,
      0.012269938650306749,
      0.006134969325153374,
      0.006134969325153374,
      0.006134969325153374,
      0.0,
      0.006134969325153374,
      0.0,
      0.0,
      0.0,
      0.0,
      0.0,
      0.006134969325153374,
      0.049079754601226995,
      0.09202453987730061,
      0.06134969325153374,
      0.17177914110429449,
      0.012269938650306749,
      0.10429447852760736,
      0.0,
      0.006134969325153374,
      0.0,
      0.0,
      0.0,
      0.0,
      0.0,
      0.0,
      0.0,
      0.0,
      0.0,
      0.0,
      0.0,
      0.0
    ],
    "scale": [
      11.322454463752292,
      11.322454463752292,
      1.7923982488707293,
      0.296577230693033,
      0.05990332253480522,
      0.20494715323374682,
      0.2913424561646811,
      137.5836491084234,
      223.16210972327607,
      129.6758317085546,
      225.65638671620982,
      64.89624405421164,
      9.083163411630137,
      44.21671550419079,
      53.12712793261248,
      0.21219222751798927,
      0.27387866351010687,
      0.275679838989693,
      0.2722286787983999,
      2.6359304787641906,
      1.0,
      9.025296148086358,
      9.429031955008236,
      137.5836491084234,
      1.0,
      1.0,
      58.30482620628265,
      2.43783024371847,
      0.3240518440796137,
      1.0,
      1.0,
      1.0,
      0.07423896697652824,
      0.07423896697652824,
      1.0,
      0.07808541141937335,
      0.11008808861918012,
      1.0,
      1.0,
      1.0,
      1.0,
      1.0,
      0.11008808861918012,
      0.40629989422818275,
      0.1882945920640835,
      0.1882945920640835,
      1.0,
      1.0,
      1.0,
      1.0,
      0.4148255583896188,
      1.0,
      8.440306278193066,
      9.250601963044662,
      0.8665192716618546,
      1.0942760260682616,
      1.0,
      0.13441044355954998,
      0.42548989745176363,
      0.1518499466209412,
      0.009119185444989776,
      72.45076017600451,
      72.45076017600451,
      2.2987856674193408,
      0.12953856925980925,
      0.5473808379003358,
      2.365167409875265,
      2.365167409875265,
      1.0,
      0.2975302000731814,
      0.34812910329107016,
      0.2890605886966809,
      0.2508594883467592,
      0.11008808861918012,
      0.2027326581823105,
      0.11008808861918012,
      0.13441044355954998,
      0.1882945920640835,
      1.0,
      1.0,
      1.0,
      0.11008808861918012,
      0.11008808861918012,
      0.07808541141937335,
      0.07808541141937335,
      0.07808541141937335,
      1.0,
      0.07808541141937335,
      1.0,
      1.0,
      1.0,
      1.0,
      1.0,
      0.07808541141937335,
      0.21603456271974245,
      0.2890605886966809,
      0.23997064068230609,
      0.37718837175311404,
      0.11008808861918012,
      0.3056421768608871,
      1.0,
      0.07808541141937335,
      1.0,
      1.0,
      1.0,
      1.0,
      1.0,
      1.0,
      1.0,
      1.0,
      1.0,
      1.0,
      1.0,
      1.0
    ]
  },
  "weights": {
    "caption": {
      "bias": -252.9723230201074,
      "values": [
        0.8265014199277028,
        0.8265014199277028,
        1.2570233323830828,
        -0.36709316644192025,
        0.24770633680207824,
        0.1694086209725104,
        -0.3584001766343981,
        -0.8145665868221887,
        0.17667178169158498,
        -0.3792303152813768,
        0.18091744874529242,
        0.9691475651663465,
        0.15399153175232533,
        0.3713025173980127,
        0.2160157483170004,
        -0.6679953440602576,
        0.17094661180162266,
        -0.17220442630062993,
        0.16957791086344615,
        0.8112392901093914,
        0.0,
        -0.4589994726896434,
        -0.4448147868751719,
        -0.8145665868221887,
        0.0,
        0.0,
        -0.5618718667869013,
        -0.6254296672023603,
        -0.2285871085982014,
        0.0,
        0.0,
        0.0,
        -0.0790524042067265,
        -0.0790524042067265,
        0.0,
        -0.0790524042067265,
        -0.11214364030837347,
        0.0,
        0.0,
        0.0,
        0.0,
        0.0,
        -0.11214364030837347,
        -0.5165557416857397,
        -0.1966972956102318,
        -0.1966972956102318,
        0.0,
        0.0,
        0.0,
        0.0,
        -0.5357004112400983,
        0.0,
        -0.3591043402198468,
        -0.42534168937170946,
        0.02367211711249392,
        -0.12375282822651565,
        0.0,
        -0.137775890236639,
        0.3438139574880353,
        -0.36184788795630907,
        -0.9715995990394899,
        -1.9532209922330235,
        -1.9532209922330235,
        0.8987783396751118,
        0.08536988696064292,
        -0.10363606310978837,
        -0.08584467898098816,
        -0.08584467898098816,
        0.0,
        -0.3319509484229594,
        -0.4078237277486967,
        -0.3203224383167382,
        -0.2706743723962412,
        -0.11214364030837347,
        -0.21313722678243935,
        -0.11214364030837347,
        -0.137775890236639,
        -0.1966972956102318,
        0.0,
        0.0,
        0.0,
        -0.11214364030837347,
        -0.11214364030837347,
        -0.0790524042067265,
        12.806489481489693,
        12.806489481489693,
        0.0,
        12.806489481489693,
        0.0,
        0.0,
        0.0,
        0.0,
        0.0,
        -0.0790524042067265,
        -0.2285871085982014,
        -0.3203224383167382,
        -0.2572331135434596,
        -0.4582312688206899,
        -0.11214364030837347,
        -0.3433370115430793,
        0.0,
        -0.0790524042067265,
        0.0,
        0.0,
        0.0,
        0.0,
        0.0,
        0.0,
        0.0,
        0.0,
        0.0,
        0.0,
        0.0,
        0.0
      ]
    },
    "form_row": {
      "bias": -5.063756211721991,
      "values": [
        0.2950384522414206,
        0.2950384522414206,
        0.040185250166000816,
        -0.1766231801925981,
        0.7276032530366945,
        0.2302587803904259,
        -0.44662175857517306,
        0.029920685741959288,
        0.7427614376208368,
        0.0386338001601703,
        0.7243098337780793,
        0.013764633880519083,
        -0.25443442801220467,
        0.46270006014213894,
        0.26918885559503125,
        -0.02361668577788472,
        0.7413404444074965,
        -0.7301721026632335,
        0.7522386452726133,
        -0.38726716513703824,
        0.0,
        -0.13415731118432,
        0.5095098455820661,
        0.029920685741959288,
        0.0,
        0.0,
        0.2071894723902888,
        -0.5300100757236343,
        1.122154896754807,
        0.0,
        0.0,
        0.0,
        -0.09851145754992072,
        -0.09851145754992072,
        0.0,
        -0.09851145754992072,
        -0.1397482286919731,
        0.0,
        0.0,
        0.0,
        0.0,
        0.0,
        0.5505233251501971,
        0.47847808273465603,
        -0.2451150914527504,
        -0.2451150914527504,
        0.0,
        0.0,
        0.0,
        0.0,
        0.43155725436964565,
        0.0,
        0.5878811510095141,
        0.5542957367805268,
        -0.05819736407295587,
        -0.2583807498330614,
        0.0,
        -0.17168995552565783,
        0.39097613589608304,
        -0.28033836760953074,
        0.27006120967489333,
        0.7330177375458571,
        0.7330177375458571,
        -0.5162993467737822,
        0.17971224682830278,
        -0.1291464786445055,
        -0.10697567688400064,
        -0.10697567688400064,
        0.0,
        -0.4136619511116879,
        -0.28992807547035654,
        -0.26772683795536045,
        -0.18584127284675173,
        -0.1397482286919731,
        -0.07818580387064109,
        0.5505233251501971,
        -0.17168995552565783,
        -0.2451150914527504,
        0.0,
        0.0,
        0.0,
        0.5505233251501971,
        0.5505233251501971,
        -0.09851145754992072,
        -0.09851145754992072,
        -0.09851145754992072,
        0.0,
        -0.09851145754992072,
        0.0,
        0.0,
        0.0,
        0.0,
        0.0,
        -0.09851145754992072,
        0.4186500960969856,
        1.572491969918533,
        -0.3205520338003112,
        1.14143532191903,
        -0.1397482286919731,
        1.436846326875636,
        0.0,
        -0.09851145754992072,
        0.0,
        0.0,
        0.0,
        0.0,
        0.0,
        0.0,
        0.0,
        0.0,
        0.0,
        0.0,
        0.0,
        0.0
      ]
    },
    "heading": {
      "bias": -13.589808549531117,
      "values": [
        -0.12300706882439626,
        -0.12300706882439626,
        -0.006299003353612078,
        -0.40477770771818117,
        -0.21133464522341242,
        0.15597325340557092,
        0.678197163665878,
        -1.0003253712402194,
        0.7582652047536688,
        -1.0109273245883885,
        0.7563622019123536,
        0.10070803562383318,
        0.16094598802500976,
        0.23895064983341888,
        0.5960974135202004,
        -1.077103130912816,
        0.6881904416434673,
        -0.6855285027220008,
        0.6905039188815417,
        0.847875903211106,
        0.0,
        1.4573896177373333,
        0.6643305037332036,
        -1.0003253712402194,
        0.0,
        0.0,
        -0.947798437783418,
        -0.6536748779792411,
        -0.23891039737360403,
        0.0,
        0.0,
        0.0,
        -0.08262251278380447,
        -0.08262251278380447,
        0.0,
        -0.08262251278380447,
        -0.11720819180617098,
        0.0,
        0.0,
        0.0,
        0.0,
        0.0,
        -0.11720819180617098,
        1.077783263119729,
        -0.20558039928295194,
        -0.20558039928295194,
        0.0,
        0.0,
        0.0,
        0.0,
        1.6582951843105784,
        0.0,
        -0.0015394640856420613,
        0.4080529568725042,
        1.3900478214366707,
        1.9128098264242697,
        0.0,
        -0.14399802721506785,
        -0.07855283522945981,
        -0.3781894054769166,
        -1.1631522480812193,
        -0.3522637185800175,
        -0.3522637185800175,
        0.0816223368380209,
        1.9919155625118201,
        -0.10831640144377881,
        -0.0897215354510973,
        -0.0897215354510973,
        0.0,
        0.978485653511669,
        -0.04864713610803177,
        -0.33478861295039736,
        -0.28289837631091014,
        -0.11720819180617098,
        -0.2227627789597108,
        -0.11720819180617098,
        -0.14399802721506785,
        -0.20558039928295194,
        0.0,
        0.0,
        0.0,
        -0.11720819180617098,
        -0.11720819180617098,
        -0.08262251278380447,
        -0.08262251278380447,
        -0.08262251278380447,
        0.0,
        -0.08262251278380447,
        0.0,
        0.0,
        0.0,
        0.0,
        0.0,
        -0.08262251278380447,
        -0.23891039737360403,
        -0.33478861295039736,
        -0.2688500928647772,
        -0.47892558418678555,
        -0.11720819180617098,
        -0.3588425539998635,
        0.0,
        -0.08262251278380447,
        0.0,
        0.0,
        0.0,
        0.0,
        0.0,
        0.0,
        0.0,
        0.0,
        0.0,
        0.0,
        0.0,
        0.0
      ]
    },
    "link_text": {
      "bias": -543.8458144940204,
      "values": [
        -0.06215116218453701,
        -0.06215116218453701,
        -0.4270435430561706,
        -0.5286463384284383,
        0.974832378169487,
        -0.7657201007773538,
        -0.3584001766343981,
        -0.8229036024811723,
        1.7914070190894487,
        -0.9646263374175112,
        1.777706228638795,
        -0.1829172438523436,
        0.15155451708397297,
        -0.00825898488888263,
        1.1614489027660513,
        -0.9434158023424012,
        1.6300534214468816,
        -1.6200772541465889,
        1.6392507594263255,
        0.8036050004525727,
        0.0,
        0.8252920254423913,
        0.7844854388976854,
        -0.8229036024811723,
        0.0,
        0.0,
        -0.5815449729716075,
        -0.6254296672023603,
        -0.2285871085982014,
        0.0,
        0.0,
        0.0,
        12.806489481489693,
        12.806489481489693,
        0.0,
        12.806489481489693,
        9.027563044824065,
        0.0,
        0.0,
        0.0,
        0.0,
        0.0,
        -0.11214364030837347,
        -0.5165557416857397,
        -0.1966972956102318,
        -0.1966972956102318,
        0.0,
        0.0,
        0.0,
        0.0,
        -0.5357004112400983,
        0.0,
        -0.3591043402198468,
        0.8233191268298288,
        0.02367211711249392,
        -0.12375282822651565,
        0.0,
        -0.137775890236639,
        0.6918708785505341,
        -0.36184788795630907,
        -0.6096129494539055,
        -1.9254456359203533,
        -1.9254456359203533,
        0.8900243888064716,
        0.08536988696064292,
        -0.10363606310978837,
        -0.08584467898098816,
        -0.08584467898098816,
        0.0,
        -0.3319509484229594,
        -0.4078237277486967,
        -0.3203224383167382,
        -0.2706743723962412,
        -0.11214364030837347,
        -0.21313722678243935,
        -0.11214364030837347,
        -0.137775890236639,
        -0.1966972956102318,
        0.0,
        0.0,
        0.0,
        -0.11214364030837347,
        -0.11214364030837347,
        12.806489481489693,
        -0.0790524042067265,
        -0.0790524042067265,
        0.0,
        -0.0790524042067265,
        0.0,
        0.0,
        0.0,
        0.0,
        0.0,
        12.806489481489693,
        -0.2285871085982014,
        -0.3203224383167382,
        -0.2572331135434596,
        -0.4582312688206899,
        -0.11214364030837347,
        -0.3433370115430793,
        0.0,
        12.806489481489693,
        0.0,
        0.0,
        0.0,
        0.0,
        0.0,
        0.0,
        0.0,
        0.0,
        0.0,
        0.0,
        0.0,
        0.0
      ]
    },
    "paragraph": {
      "bias": -11.332418808355394,
      "values": [
        0.9742434472121981,
        0.9742434472121981,
        0.801770885870364,
        -0.6439150889128347,
        -0.4248612340280968,
        -0.6505912798318331,
        1.6081802240353067,
        -1.0026189738142461,
        0.6104690111262185,
        -0.32876928458314975,
        0.642492977183658,
        1.4686604448871017,
        0.9632207284736389,
        -1.5289073914024078,
        -0.9367918441498292,
        -0.5305308611735111,
        0.7067492738309457,
        -0.7259192080300636,
        0.6869437986596207,
        1.2416918084814264,
        0.0,
        1.045899977986651,
        0.36235941425840884,
        -1.0026189738142461,
        0.0,
        0.0,
        -0.7333272252588489,
        -0.7282863936346597,
        -0.2784294104729972,
        0.0,
        0.0,
        0.0,
        -0.09628939459766687,
        -0.09628939459766687,
        0.0,
        -0.09628939459766687,
        0.2344898223290125,
        0.0,
        0.0,
        0.0,
        0.0,
        0.0,
        -0.13659601300719176,
        -0.4280947141843162,
        -0.23958617961547032,
        -0.23958617961547032,
        0.0,
        0.0,
        0.0,
        0.0,
        -0.35706647711605044,
        0.0,
        -0.035607219654513744,
        0.3107791251258411,
        -0.1126015678616139,
        0.19500035223562937,
        0.0,
        0.7439898072778506,
        -0.5606336592295514,
        -0.15541262776756426,
        -1.3764737228889192,
        -1.5423421283318992,
        -1.5423421283318992,
        1.1968657555187525,
        0.463185123757035,
        0.5596347407928571,
        0.46356126649733614,
        0.46356126649733614,
        0.0,
        0.9687102395237679,
        -0.26205240904309846,
        -0.39016718050610216,
        -0.32969359645256446,
        -0.13659601300719176,
        -0.25961075743424944,
        -0.13659601300719176,
        -0.1678172497619212,
        -0.23958617961547032,
        0.0,
        0.0,
        0.0,
        -0.13659601300719176,
        -0.13659601300719176,
        -0.09628939459766687,
        -0.09628939459766687,
        -0.09628939459766687,
        0.0,
        -0.09628939459766687,
        0.0,
        0.0,
        0.0,
        0.0,
        0.0,
        -0.09628939459766687,
        -0.2784294104729972,
        -0.39016718050610216,
        1.3890588131346822,
        -0.5581463575109155,
        -0.13659601300719176,
        -0.41819996894720934,
        0.0,
        -0.09628939459766687,
        0.0,
        0.0,
        0.0,
        0.0,
        0.0,
        0.0,
        0.0,
        0.0,
        0.0,
        0.0,
        0.0,
        0.0
      ]
    },
    "separator": {
      "bias": -68.99180648810936,
      "values": [
        0.35696029333618956,
        0.35696029333618956,
        -0.43238158734437265,
        -0.5352544176587938,
        -0.559033962560847,
        -0.7752916020370706,
        -0.3628801788423281,
        0.0582013485509185,
        -0.004319843156597616,
        1.0129371811758707,
        0.007372202983964909,
        1.9006634254178905,
        0.28928357675868216,
        -3.0685256345451637,
        -2.9663682403441083,
        1.211090594312332,
        0.4076295651706393,
        -0.41837229701832324,
        0.39652425317194945,
        1.2391710541362149,
        0.0,
        -0.464736966098264,
        0.0627258188138704,
        0.0582013485509185,
        0.0,
        0.0,
        -0.357495579375449,
        -0.6332475380423898,
        -0.2314444474556789,
        0.0,
        0.0,
        0.0,
        -0.08004055925931058,
        -0.08004055925931058,
        0.0,
        -0.08004055925931058,
        -0.11354543581222815,
        0.0,
        0.0,
        0.0,
        0.0,
        0.0,
        -0.11354543581222815,
        -0.5230126884568115,
        -0.19915601180535972,
        -0.19915601180535972,
        0.0,
        0.0,
        0.0,
        0.0,
        -0.5423966663805995,
        0.0,
        -0.36359314447259483,
        0.09233926110024722,
        1.856854258895105,
        1.3260993711192552,
        0.0,
        -0.139498088864597,
        -1.4761161131415197,
        6.342554651350961,
        -1.787778105887599,
        -1.4011240151710742,
        -1.4011240151710742,
        0.6981784003385408,
        1.2516795834226755,
        -0.10493151389866073,
        -0.08691773746825052,
        -0.08691773746825052,
        0.0,
        -0.3361003352782464,
        -0.4129215243455554,
        -0.32432646879569743,
        -0.27405780205119423,
        -0.11354543581222815,
        -0.21580144211721985,
        -0.11354543581222815,
        7.439898072778505,
        -0.19915601180535972,
        0.0,
        0.0,
        0.0,
        -0.11354543581222815,
        -0.11354543581222815,
        -0.08004055925931058,
        -0.08004055925931058,
        -0.08004055925931058,
        0.0,
        -0.08004055925931058,
        0.0,
        0.0,
        0.0,
        0.0,
        0.0,
        -0.08004055925931058,
        -0.2314444474556789,
        -0.32432646879569743,
        -0.2604485274627529,
        -0.46395915968094853,
        -0.11354543581222815,
        -0.3476287241873678,
        0.0,
        -0.08004055925931058,
        0.0,
        0.0,
        0.0,
        0.0,
        0.0,
        0.0,
        0.0,
        0.0,
        0.0,
        0.0,
        0.0,
        0.0
      ]
    },
    "table_like": {
      "bias": 0.7754472447523225,
      "values": [
        -0.8009049049766905,
        -0.8009049049766905,
        -0.4976653595919658,
        0.6398806602577465,
        -0.16543884474810477,
        0.2848434109403142,
        -0.7639582712470065,
        0.8091087337245029,
        -1.0404147030691033,
        0.3223072075108954,
        -1.0480279778297943,
        -1.0713205043669043,
        -0.4748418953938477,
        0.7914606291905008,
        0.4604546214125535,
        0.48903005457480914,
        -1.1102632264669838,
        1.1146520929585224,
        -1.1052021007855397,
        -0.7865618842167559,
        0.0,
        -0.792654994403974,
        -0.6867084337153043,
        0.8091087337245029,
        0.0,
        0.0,
        0.5398115942560496,
        0.9825712060775642,
        -0.487251468327745,
        0.0,
        0.0,
        0.0,
        -0.168506440545917,
        -0.168506440545917,
        0.0,
        -0.168506440545917,
        -0.2390430227625856,
        0.0,
        0.0,
        0.0,
        0.0,
        0.0,
        -0.2390430227625856,
        -0.19095797955826788,
        0.36626392975698335,
        0.36626392975698335,
        0.0,
        0.0,
        0.0,
        0.0,
        -0.3098992850867175,
        0.0,
        -0.31566150640729485,
        -0.6401570291528744,
        -0.29093650350192835,
        -0.39895855341716174,
        0.0,
        -0.2936801870833621,
        0.18115562369720595,
        -0.09611080948605152,
        1.0420699147193262,
        0.7179355006132389,
        0.7179355006132389,
        -0.49708008752509963,
        -0.8647180162759797,
        -0.22090845031296996,
        -0.1829847104594748,
        -0.1829847104594748,
        0.0,
        -0.45901180090177934,
        0.4053297374622197,
        0.5111788021994699,
        0.4057436083824534,
        0.2088191922983506,
        0.27527692383114377,
        -0.2390430227625856,
        -0.2936801870833621,
        0.36626392975698335,
        0.0,
        0.0,
        0.0,
        -0.2390430227625856,
        -0.2390430227625856,
        -0.168506440545917,
        -0.168506440545917,
        -0.168506440545917,
        0.0,
        -0.168506440545917,
        0.0,
        0.0,
        0.0,
        0.0,
        0.0,
        -0.168506440545917,
        -0.03080325374485745,
        -0.6827925658856788,
        -0.5483126893952692,
        -0.257821916580114,
        0.2088191922983506,
        -0.5705361645322728,
        0.0,
        -0.168506440545917,
        0.0,
        0.0,
        0.0,
        0.0,
        0.0,
        0.0,
        0.0,
        0.0,
        0.0,
        0.0,
        0.0,
        0.0
      ]
    }
  },
  "thresholds": {
    "caption": {
      "min_score": 23.365768417677316,
      "min_confidence": 0.5
    },
    "form_row": {
      "min_score": -4.249667848800565,
      "min_confidence": 0.5
    },
    "heading": {
      "min_score": 14.064658489328655,
      "min_confidence": 0.5
    },
    "link_text": {
      "min_score": 56.80504661006043,
      "min_confidence": 0.5
    },
    "paragraph": {
      "min_score": 4.0466828075486765,
      "min_confidence": 0.5
    },
    "separator": {
      "min_score": 24.972617095910188,
      "min_confidence": 0.5
    },
    "table_like": {
      "min_score": 0.9071226032205653,
      "min_confidence": 0.5
    }
  },
  "metadata": {
    "trained_from": "samples/pdf_layout_classifier/manifest.tsv,.external/layout_model/pdf_eval_manifest.local.tsv",
    "sample_count": "163",
    "label_counts": {
      "caption": "1",
      "form_row": "33",
      "heading": "8",
      "link_text": "1",
      "paragraph": "30",
      "separator": "3",
      "table_like": "87"
    },
    "notes": "training spike / local corpus only"
  }
}
