{
  "version": 1,
  "task": "pdf_layout_classifier",
  "model_type": "linear_v1",
  "labels": [
    "caption",
    "footer_header_noise",
    "form_row",
    "heading",
    "keep_as_text",
    "link_text",
    "list_item",
    "paragraph",
    "separator",
    "table_like"
  ],
  "features": [
    "text_len",
    "normalized_text_len",
    "word_count",
    "digit_ratio",
    "punctuation_ratio",
    "uppercase_ratio",
    "cjk_ratio",
    "x0",
    "y0",
    "x1",
    "y1",
    "width",
    "height",
    "page_width",
    "page_height",
    "x_center_ratio",
    "y_center_ratio",
    "top_ratio",
    "bottom_ratio",
    "font_size_hint",
    "bold_hint",
    "line_gap_before",
    "line_gap_after",
    "indent_left",
    "alignment_hint",
    "near_image_distance",
    "page_edge_distance",
    "repeated_text_score",
    "source_ref_count",
    "has_rich_inline_payload",
    "has_link_inline",
    "link_inline_count",
    "is_heading_candidate",
    "is_page_number_candidate",
    "is_header_footer_candidate",
    "is_artifact_candidate",
    "is_caption_candidate",
    "is_table_cell_candidate",
    "is_noise_kind",
    "is_heading_kind",
    "line_count",
    "prev_gap_before",
    "next_gap_before",
    "prev_font_size_delta",
    "next_font_size_delta",
    "same_paragraph_candidate",
    "wrapped_candidate",
    "latin_ratio",
    "symbol_ratio",
    "text_density",
    "page_line_count",
    "page_block_count",
    "page_median_font_size",
    "relative_font_size",
    "near_annotation_distance",
    "near_link_annotation_distance",
    "near_uri_annotation_distance",
    "near_dest_annotation_distance",
    "top_zone_candidate",
    "bottom_zone_candidate",
    "repeated_edge_candidate",
    "contains_currency",
    "contains_time",
    "contains_date",
    "looks_like_address",
    "looks_like_separator",
    "looks_like_page_number",
    "looks_like_bullet",
    "looks_like_list_marker_token",
    "contains_url",
    "contains_email",
    "contains_url_or_email",
    "contains_path_like",
    "caption_marker_signal",
    "has_raw_hyphen",
    "ends_with_colon",
    "has_terminal_period",
    "contains_clause_punctuation",
    "has_markdown_escape_chars",
    "form_key_value_signal",
    "option_like_signal",
    "code_like_signal",
    "monospace_hint",
    "boundary_prev_no_sentence_end",
    "boundary_next_starts_lowercase",
    "boundary_next_continues_sentence",
    "boundary_similar_indent",
    "boundary_same_column_band",
    "boundary_table_guard",
    "boundary_caption_guard",
    "boundary_noise_guard",
    "boundary_heading_guard",
    "boundary_list_guard",
    "boundary_layout_compatible"
  ],
  "normalization": {
    "mean": [
      23.94090909090909,
      23.94090909090909,
      3.5954545454545452,
      0.15432736570276975,
      0.053387069731916495,
      0.13027584564750255,
      0.08294962613144431,
      178.18885872727273,
      385.92379863636364,
      274.55170972727274,
      399.35096090909093,
      96.362851,
      13.427162272727276,
      601.2749090909091,
      780.2564545454546,
      0.3785180627612029,
      0.4972941696063556,
      0.4929333551322965,
      0.48752169434500764,
      9.507381818181818,
      0.0,
      15.135758411420612,
      11.603298571898431,
      178.16540418181816,
      -1.0,
      0.0,
      94.06853513636365,
      1.2402597402597402,
      1.1136363636363635,
      0.0,
      0.0,
      0.0,
      0.18181818181818182,
      0.06363636363636363,
      0.06363636363636363,
      0.0,
      0.0,
      0.0,
      0.004545454545454545,
      0.18636363636363637,
      1.0318181818181817,
      13.834130837710598,
      12.405505672580503,
      -0.009831818181818204,
      0.08899090909090908,
      0.0,
      0.02727272727272727,
      0.5829306505181402,
      0.07179823319136096,
      0.019670898567894834,
      109.35454545454546,
      108.91363636363636,
      9.572327272727271,
      0.9912583564428854,
      20.44450909090909,
      20.552245454545453,
      14.804045454545454,
      5.7482,
      0.18181818181818182,
      0.1318181818181818,
      0.15,
      0.05,
      0.01818181818181818,
      0.05909090909090909,
      0.00909090909090909,
      0.01818181818181818,
      0.02727272727272727,
      0.07727272727272727,
      0.03636363636363636,
      0.0,
      0.00909090909090909,
      0.00909090909090909,
      0.013636363636363636,
      0.004545454545454545,
      0.09090909090909091,
      0.08636363636363636,
      0.1,
      0.18636363636363637,
      0.01818181818181818,
      0.08636363636363636,
      0.01818181818181818,
      0.031818181818181815,
      0.0,
      0.0,
      0.0,
      0.0,
      0.0,
      0.0,
      0.0,
      0.0,
      0.0,
      0.0,
      0.0,
      0.0
    ],
    "scale": [
      65.0552992676993,
      65.0552992676993,
      9.076191495672385,
      0.2822916381346757,
      0.12614154180664347,
      0.19424308425760242,
      0.2569192904431973,
      143.26625516370777,
      250.37018774606844,
      161.91663886918963,
      252.1576759558472,
      126.25980106971342,
      17.0434649153671,
      56.69177374581149,
      75.39753436511597,
      0.22947175717479018,
      0.30073030478435125,
      0.3021225719280965,
      0.3005888311936183,
      2.6422475401267356,
      1.0,
      71.84184444428134,
      61.755980387727504,
      143.28380365071698,
      1.0,
      1.0,
      56.79832406176185,
      2.1647737924802235,
      0.4272485486389036,
      1.0,
      1.0,
      1.0,
      0.385694607919935,
      0.24410402876541004,
      0.24410402876541004,
      1.0,
      1.0,
      1.0,
      0.06726658448613064,
      0.3893998348804974,
      0.29214934480402566,
      77.42044608864653,
      62.09078120589535,
      0.9214907605151968,
      1.2148255991215329,
      1.0,
      0.162877026065172,
      0.4252128746939198,
      0.18898438265867637,
      0.009319854519506385,
      83.2310678842764,
      83.64240331453541,
      2.355856216129155,
      0.12233157977872659,
      87.5693130601318,
      87.56665019029545,
      83.10728125046634,
      30.517065010729507,
      0.385694607919935,
      0.3382929924789022,
      0.3570714214271425,
      0.21794494717703367,
      0.133608531424537,
      0.2357947699880534,
      0.09491187735373227,
      0.133608531424537,
      0.162877026065172,
      0.2670236935040821,
      0.18719327529067273,
      1.0,
      0.09491187735373227,
      0.09491187735373227,
      0.11597591656520975,
      0.06726658448613064,
      0.28747978728803447,
      0.2809002646450977,
      0.3,
      0.3893998348804974,
      0.133608531424537,
      0.2809002646450977,
      0.133608531424537,
      0.17551576887552564,
      1.0,
      1.0,
      1.0,
      1.0,
      1.0,
      1.0,
      1.0,
      1.0,
      1.0,
      1.0,
      1.0,
      1.0
    ]
  },
  "weights": {
    "caption": {
      "bias": -114.59461462743184,
      "values": [
        -0.045412717069925786,
        -0.045412717069925786,
        0.044775685292415754,
        -0.37973342528329107,
        -0.04593538362061697,
        0.31133789127748607,
        -0.3243368429199085,
        -0.7445838466206605,
        -0.06128342254827175,
        -0.4588746094788279,
        -0.06613625510445197,
        0.25641023237183425,
        -0.07822484342530121,
        0.190046336797438,
        0.15646624321484268,
        -0.6821113627526189,
        -0.07236308839410627,
        0.0791238544386947,
        -0.06526671258545032,
        0.5674842221188775,
        0.0,
        -0.21164366785321134,
        -0.18874741518501828,
        -0.7443282143519597,
        0.0,
        0.0,
        -0.3903161769190533,
        -0.575544212089461,
        -0.26718698402889784,
        0.0,
        0.0,
        0.0,
        -0.4735570528494382,
        -0.2618840047933202,
        -0.2618840047933202,
        0.0,
        0.0,
        0.0,
        -0.06788229372049631,
        -0.4807773273185908,
        -0.10940798221223416,
        -0.1795042664698977,
        -0.20070856856961097,
        0.010718189212494298,
        -0.07358855488278951,
        0.0,
        -0.16820825463138145,
        0.42282667217300884,
        -0.3816510020052114,
        -0.6655059148527787,
        -1.3077966898110223,
        -1.296069797114797,
        0.6087772976138588,
        0.07178489604748652,
        -0.23453264957777797,
        -0.23577573516097583,
        -0.17894513707886442,
        -0.18922027680428097,
        -0.4735570528494382,
        -0.3914361049984189,
        -0.4220022171043317,
        -0.2304632942991945,
        -0.13670414596963448,
        -0.251747443747861,
        -0.09621999212267275,
        -0.13670414596963448,
        -0.16820825463138145,
        -0.29070667758952634,
        -0.19514419152383392,
        0.0,
        -0.09621999212267275,
        -0.09621999212267275,
        -0.11811616189542228,
        14.866222324788692,
        -0.3176717284187413,
        -0.3088569210755068,
        -0.334855403348554,
        -0.4807773273185908,
        -0.13670414596963448,
        -0.3088569210755068,
        -0.13670414596963448,
        -0.18211167306740933,
        0.0,
        0.0,
        0.0,
        0.0,
        0.0,
        0.0,
        0.0,
        0.0,
        0.0,
        0.0,
        0.0,
        0.0
      ]
    },
    "footer_header_noise": {
      "bias": -14.086544680286634,
      "values": [
        -0.21343963418262726,
        -0.21343963418262726,
        -0.12473172442989089,
        0.6220987163585389,
        0.2844707848628144,
        -0.4381839803539784,
        -0.0837261897795219,
        0.5832324803701819,
        1.0539461614838437,
        0.49500578070511586,
        1.0468527750084904,
        -0.026990864004320173,
        0.00558950246239934,
        -0.03927350756319889,
        0.7295397573191286,
        0.5837108318600509,
        0.9399621604840588,
        -0.9297114884443541,
        0.9463538177608406,
        0.7839099129767716,
        0.0,
        0.8160794530936709,
        1.0252931921184443,
        0.5833420168302437,
        0.0,
        0.0,
        -0.9873045709783762,
        -0.14701672643785887,
        -0.2940399472478825,
        0.0,
        0.0,
        0.0,
        0.16130855820320059,
        1.437098883446392,
        1.437098883446392,
        0.0,
        0.0,
        0.0,
        0.7079153487994615,
        0.011675768266259616,
        -0.12040375931899137,
        0.7693077418127786,
        1.005481376305384,
        0.1260541051579316,
        -0.3409929370359167,
        0.0,
        -0.18511360685564088,
        -0.7622580641444227,
        0.30737203856927625,
        -1.006307100309694,
        -1.3462551196876977,
        -1.3413596418004983,
        0.9854877257137646,
        -0.1676533745711362,
        0.6660615105556494,
        0.6647215952765152,
        0.6177876712171588,
        0.2249492098989571,
        1.526227127614898,
        0.19169196883886727,
        2.1893826439432917,
        -0.2536254344297668,
        0.6375928473544259,
        1.0625274102983469,
        -0.10589034308977553,
        -0.15044325611733644,
        -0.18511360685564088,
        0.46868334292008473,
        -0.21475667308401822,
        0.0,
        -0.10589034308977553,
        -0.10589034308977553,
        -0.12998713294018835,
        -0.07470463479793313,
        0.7491397184892787,
        0.034926843419314305,
        -0.3685092127303183,
        0.011675768266259616,
        -0.15044325611733644,
        0.034926843419314305,
        -0.15044325611733644,
        -0.20041435377770173,
        0.0,
        0.0,
        0.0,
        0.0,
        0.0,
        0.0,
        0.0,
        0.0,
        0.0,
        0.0,
        0.0,
        0.0
      ]
    },
    "form_row": {
      "bias": -5.393698202630536,
      "values": [
        -0.1731969540679489,
        -0.1731969540679489,
        -0.2303729589559736,
        -0.16787874755729992,
        0.13286942824279158,
        0.3835729542393073,
        -0.3798383347564704,
        0.06961787115889681,
        0.3652936215915628,
        -0.15324371111150548,
        0.34142662263071144,
        -0.27551602354587534,
        -0.3148003633620909,
        0.2225676350729354,
        0.1832412153157783,
        -0.09708594490453373,
        0.3667047939731278,
        -0.34875804390769216,
        0.38321720488224315,
        -0.6441823109722997,
        0.0,
        -0.19625205653608654,
        -0.06864395583801913,
        0.06980192472188249,
        0.0,
        0.0,
        0.4168473905525847,
        -0.41053671616886067,
        0.6883994059097485,
        0.0,
        0.0,
        0.0,
        0.554593553871802,
        -0.3066983799451183,
        -0.3066983799451183,
        0.0,
        0.0,
        0.0,
        -0.07949851510582188,
        0.5355835597532391,
        -0.12813020376726889,
        -0.10431100514917543,
        -0.08347370977517357,
        -0.06482365902253097,
        -0.17422011766674658,
        0.0,
        -0.19699255488915796,
        0.4600024150050115,
        -0.3183566800130225,
        0.5801354707121551,
        1.0551130010765126,
        1.0561257794510395,
        -0.7851908697905181,
        0.1569254851771294,
        -0.2746665789172908,
        -0.2761223850280947,
        -0.20956676481428507,
        -0.22160021721998682,
        -0.554593553871802,
        -0.24765208855791543,
        -0.3943747830239315,
        -0.10632458254250635,
        -0.16009736880935804,
        -0.1436337739523995,
        0.638550856814101,
        -0.16009736880935804,
        -0.19699255488915796,
        -0.3404532748240977,
        -0.22853784996641513,
        0.0,
        0.638550856814101,
        0.638550856814101,
        -0.1383285532358154,
        -0.07949851510582188,
        0.1240108886340541,
        1.5420244646660326,
        -0.39215686274509803,
        0.9933472860380588,
        -0.16009736880935804,
        1.5420244646660326,
        -0.16009736880935804,
        -0.2132751679238644,
        0.0,
        0.0,
        0.0,
        0.0,
        0.0,
        0.0,
        0.0,
        0.0,
        0.0,
        0.0,
        0.0,
        0.0
      ]
    },
    "heading": {
      "bias": -8.265666847493831,
      "values": [
        -0.15737690130337836,
        -0.15737690130337836,
        -0.15980162937419118,
        -0.368267804916367,
        -0.32473674867545843,
        0.5010640178717356,
        0.39934836374287835,
        -0.41695878480507376,
        0.6924969655589014,
        -0.4087123492052235,
        0.6875746841883091,
        -0.051015494531395755,
        -0.00019719403195889542,
        0.3883030036456653,
        0.13264975073710591,
        -0.5011801205435442,
        0.7276514309527986,
        -0.7206703565698644,
        0.7316402632189755,
        0.7885036298269806,
        0.0,
        0.5216323010427024,
        -0.021272822318121498,
        -0.41673374518978684,
        0.0,
        0.0,
        -0.6457161288628075,
        -0.6089090939497196,
        -0.2826760845523122,
        0.0,
        0.0,
        0.0,
        0.7707840548051056,
        -0.2770656862306141,
        -0.2770656862306141,
        0.0,
        0.0,
        0.0,
        -0.07181749915356857,
        1.1709412400482229,
        -0.11575047393468252,
        -0.033136155020204165,
        -0.02231244428594929,
        1.2569581942104981,
        1.3730665693040924,
        0.0,
        -0.1779594577984181,
        0.23388313164747251,
        -0.37673841245428885,
        -0.8907889898108128,
        -0.3640320190557345,
        -0.3693458743940726,
        0.07217227346342259,
        1.8320685642197176,
        0.40199808774586576,
        0.40070270934974905,
        0.2684198146057851,
        0.4188002007990798,
        0.5588184397337016,
        -0.17246181522265325,
        -0.4464661137480611,
        -0.24382348527306086,
        -0.14462902399685967,
        -0.26634149845788196,
        -0.10179796268050885,
        -0.14462902399685967,
        -0.1779594577984181,
        -0.30755923860920903,
        -0.20645689827883879,
        0.0,
        -0.10179796268050885,
        -0.10179796268050885,
        -0.12496347562849024,
        -0.07181749915356857,
        -0.3360874807908423,
        -0.3267616701233622,
        -0.35426731078904994,
        -0.5086484767283642,
        -0.14462902399685967,
        -0.3267616701233622,
        0.467263000605239,
        0.273124004662493,
        0.0,
        0.0,
        0.0,
        0.0,
        0.0,
        0.0,
        0.0,
        0.0,
        0.0,
        0.0,
        0.0,
        0.0
      ]
    },
    "keep_as_text": {
      "bias": -83.0376522325398,
      "values": [
        4.6782137046244,
        4.6782137046244,
        3.552232316397625,
        -0.5200021661055039,
        1.289603787721885,
        -0.5896052739315927,
        -0.3288415212937961,
        -0.35086280784066404,
        -0.7714154239997766,
        1.058841488464412,
        -0.47972099241879357,
        1.7559892664534371,
        4.234707809701669,
        1.809616520914553,
        -1.0571386560490152,
        0.20450324508831866,
        -0.48937737743927984,
        0.3060667990842979,
        -0.6715869196503272,
        0.2901149661090375,
        0.0,
        0.1720038428769425,
        0.1671363420704585,
        -0.35065311212105893,
        0.0,
        0.0,
        -0.005353389731784673,
        -0.5835378817018146,
        3.9009299668219084,
        0.0,
        0.0,
        0.0,
        -0.48013423413901374,
        -0.26552128263767183,
        -0.26552128263767183,
        0.0,
        0.0,
        0.0,
        -0.06882510335550321,
        -0.4874547901980157,
        4.246940007936804,
        0.219086786827503,
        0.47126344858251185,
        0.01086705295155672,
        -0.07461061814505048,
        0.0,
        1.3927799231862303,
        0.238966117213695,
        -0.3481121147411492,
        -0.8031880590592342,
        -0.9833178243776192,
        -1.009644280025111,
        0.2973048196286903,
        0.0727819084925905,
        1.0015672441706782,
        1.0003445819123271,
        1.1244679264694133,
        -0.19184833620434044,
        -0.48013423413901374,
        0.35581691919875436,
        -0.42786335900855854,
        -0.2336641733866833,
        -0.13860281466365718,
        -0.25524393602213685,
        -0.09755638090215431,
        -0.13860281466365718,
        -0.17054448039015063,
        1.612424537708574,
        -0.1978545275172205,
        0.0,
        -0.09755638090215431,
        -0.09755638090215431,
        -0.11975666414396981,
        -0.06882510335550321,
        1.4493772609105073,
        -0.3131466005348888,
        -0.3395061728395062,
        1.4742535118183888,
        3.672974588586915,
        -0.3131466005348888,
        3.672974588586915,
        2.71686045594018,
        0.0,
        0.0,
        0.0,
        0.0,
        0.0,
        0.0,
        0.0,
        0.0,
        0.0,
        0.0,
        0.0,
        0.0
      ]
    },
    "link_text": {
      "bias": -80.09138612539206,
      "values": [
        -0.11542755773095023,
        -0.11542755773095023,
        -0.28858646892749706,
        -0.5517103309317164,
        0.11836291100629635,
        -0.6768376716960488,
        -0.32582462660302736,
        -0.970379949619198,
        -0.08073670042752168,
        -0.492255118293158,
        -0.06570923898317868,
        0.46981229769999544,
        0.2138634292563674,
        -3.6245635336995963,
        -4.47446189502319,
        0.2145794656415157,
        0.26545548046995876,
        -0.6110000259832659,
        -0.08295678885461279,
        2.2849882516557756,
        0.0,
        -0.13170283442505135,
        -0.09548721886778082,
        -0.970095908969288,
        0.0,
        0.0,
        -1.015219072626723,
        -0.5781843231540915,
        -0.26841261239600284,
        0.0,
        0.0,
        0.0,
        -0.4757293329083806,
        -0.26308530756760146,
        -0.26308530756760146,
        0.0,
        0.0,
        0.0,
        -0.06819368038893896,
        -0.48298272790262103,
        -0.10990985369027194,
        -0.18032768053627338,
        -0.10833584261830193,
        0.010767355218056199,
        -0.07392611706115093,
        0.0,
        -0.16897985212969055,
        0.666209825123155,
        -0.019311612301255002,
        -1.0101701463421733,
        -1.3016707858647019,
        -1.289949728095559,
        2.5349438823412864,
        0.07211418456146582,
        -0.2356084874198779,
        -0.23685727523052158,
        -0.17976598633151977,
        -0.19008825972540153,
        -0.4757293329083806,
        1.0983367710482368,
        -0.42393800709104884,
        -0.23152046537396143,
        -0.1373312292080273,
        -0.25290224853569526,
        -0.09666136823332722,
        -0.1373312292080273,
        -0.16897985212969055,
        -0.2920401944592031,
        -0.19603934836568634,
        0.0,
        -0.09666136823332722,
        -0.09666136823332722,
        8.582927158648552,
        -0.06819368038893896,
        -0.31912893818213006,
        -0.3102736959428256,
        -0.3363914373088685,
        -0.48298272790262103,
        -0.1373312292080273,
        -0.3102736959428256,
        -0.1373312292080273,
        5.566817309027158,
        0.0,
        0.0,
        0.0,
        0.0,
        0.0,
        0.0,
        0.0,
        0.0,
        0.0,
        0.0,
        0.0,
        0.0
      ]
    },
    "list_item": {
      "bias": -18.78419720820002,
      "values": [
        0.9786060140471047,
        0.9786060140471047,
        1.2207809996867698,
        0.049988464727519825,
        1.0130776465640632,
        -0.6074670745702795,
        -0.3366339744050235,
        -0.6258980420899836,
        0.6673177952161725,
        1.0334407950203621,
        0.6893529734849364,
        2.035496067846864,
        0.39599706199198,
        0.565084450418936,
        -0.11417648686931059,
        0.1937075537141786,
        0.77245713235571,
        -0.780065802734188,
        0.7615953333598423,
        0.6644143303788455,
        0.0,
        0.15272321628383334,
        -0.004709493766621108,
        -0.6298227687886373,
        0.0,
        0.0,
        -0.5016162696573746,
        -0.47504307145909863,
        -0.006162606582657058,
        0.0,
        0.0,
        0.0,
        -0.49151182262572024,
        -0.27181325615989155,
        -0.27181325615989155,
        0.0,
        0.0,
        0.0,
        -0.07045602997530186,
        -0.49900585157711563,
        -0.11355615215393025,
        -0.11654856544853051,
        0.038849551551700105,
        0.14690290347649435,
        -0.36247019571224415,
        0.0,
        -0.1745858187880215,
        -0.09179653241754798,
        -0.3657381023392561,
        -0.9331104815838391,
        -0.9439830868010494,
        -0.983707038446395,
        0.5689142394471777,
        0.3318489782916116,
        1.0713309773454676,
        1.070080741800631,
        0.10890994051556536,
        2.7739291739053598,
        -0.49151182262572024,
        -0.4062772843348519,
        -0.4380023011651595,
        -0.23920123910674693,
        -0.14188724155142157,
        -0.2612923705250311,
        -0.09986814348277408,
        -0.14188724155142157,
        -0.1745858187880215,
        2.3014211105407805,
        1.654101358011265,
        0.0,
        -0.09986814348277408,
        -0.09986814348277408,
        -0.12259449978719185,
        -0.07045602997530186,
        0.47625666709223613,
        -0.3205671360925876,
        1.1971212919080219,
        0.39352493986162773,
        -0.14188724155142157,
        -0.3205671360925876,
        0.7252014568183769,
        0.4710408226191782,
        0.0,
        0.0,
        0.0,
        0.0,
        0.0,
        0.0,
        0.0,
        0.0,
        0.0,
        0.0,
        0.0,
        0.0
      ]
    },
    "paragraph": {
      "bias": -5.263002023127611,
      "values": [
        0.20597860821237135,
        0.20597860821237135,
        0.27149349871054435,
        -0.6849652592352989,
        -0.360848606785682,
        -0.5676659589816176,
        1.1797387520990974,
        -0.9186981165282389,
        0.48332760385740114,
        -0.2536543004984757,
        0.5041535326228613,
        0.7171529357909303,
        0.35880967988864293,
        -0.8682915919494816,
        -0.27146372106784694,
        -0.5169979712684706,
        0.5300528157100854,
        -0.5376061681180189,
        0.5202552963241662,
        0.8751154882032127,
        0.0,
        -0.04535061015146319,
        -0.05847099699249531,
        -0.9183798148424449,
        0.0,
        0.0,
        -0.49970881603792267,
        -0.6575708133740574,
        -0.13820437596740476,
        0.0,
        0.0,
        0.0,
        -0.44775946863706884,
        -0.3277291259984978,
        -0.3277291259984978,
        0.0,
        0.0,
        0.0,
        -0.08494984185593539,
        -0.3864310587660367,
        0.054331855112197916,
        0.07567524793998381,
        -0.08283714971104818,
        -0.28854073251799484,
        0.1687103489931866,
        0.0,
        0.6470944855946287,
        -0.29449253328303415,
        0.2713341691640537,
        -0.9838250868898675,
        -1.0686943432258325,
        -1.0634918695306974,
        0.9042123501129249,
        0.21680766901331966,
        -0.29056904952559837,
        -0.2845629117732599,
        -0.2128804133013689,
        -0.2367956606865002,
        0.6387157126146423,
        -0.32469271395895116,
        -0.5281056316905637,
        -0.2884083511515634,
        -0.1710754740991426,
        -0.31504394389018037,
        -0.12041244728494475,
        -0.1710754740991426,
        -0.21050061579584306,
        0.05468868478126776,
        0.35274635763070167,
        0.0,
        -0.12041244728494475,
        -0.12041244728494475,
        0.09306803613474225,
        -0.08494984185593539,
        -0.3975434772783106,
        -0.1876054220347364,
        1.2571428571428571,
        -0.3864310587660367,
        -0.1710754740991426,
        -0.38651237551734846,
        -0.1710754740991426,
        -0.0687316708964617,
        0.0,
        0.0,
        0.0,
        0.0,
        0.0,
        0.0,
        0.0,
        0.0,
        0.0,
        0.0,
        0.0,
        0.0
      ]
    },
    "separator": {
      "bias": -36.66500995895317,
      "values": [
        -0.2161309727962508,
        -0.2161309727962508,
        -0.2700651249884285,
        -0.5594086146191357,
        2.2709143849200903,
        -0.6862819182778541,
        -0.33037101674167424,
        -0.056272032375140044,
        -0.4106814068235532,
        0.06886535943901322,
        -0.41297457411307714,
        0.15216506537273045,
        -0.07699889156890416,
        -0.1258933317392819,
        -2.170302294874168,
        0.2806311196733465,
        -0.0963286088007748,
        0.09586788768339849,
        -0.09639084346861124,
        0.593765116545212,
        0.0,
        0.22646534486447967,
        -0.14504631862721207,
        -0.056097640794288174,
        0.0,
        0.0,
        0.21537156191686513,
        -0.5187256016959221,
        0.6858379197482238,
        0.0,
        0.0,
        0.0,
        -0.4823674166233812,
        -0.2667562653476145,
        -0.2667562653476145,
        0.0,
        0.0,
        0.0,
        -0.06914522011529624,
        -0.48972202178033203,
        -0.11144347955571761,
        0.05064773121036453,
        0.0982493637336764,
        1.0496187210250612,
        0.712936098714173,
        0.0,
        -0.17133771053150018,
        -1.4027966055913625,
        2.859948114356161,
        -0.6341241941246251,
        -0.9264206107675416,
        -0.9262576819237286,
        0.23145093174445971,
        0.8167295443196286,
        1.7123513628018612,
        1.7111444867658108,
        1.873735579174274,
        -0.19274065404715132,
        -0.4823674166233812,
        -0.398718637184436,
        -0.4298534211434821,
        -0.2347509834954586,
        -0.13924747891790676,
        -0.25643111711991423,
        -0.09801013151100155,
        5.9876415934699905,
        -0.17133771053150018,
        0.4703005703384048,
        0.8944865151011084,
        0.0,
        -0.09801013151100155,
        -0.09801013151100155,
        -0.12031367188417433,
        -0.06914522011529624,
        1.1001784603748594,
        -0.3146030963513301,
        -0.34108527131782945,
        -0.48972202178033203,
        -0.13924747891790676,
        -0.3146030963513301,
        -0.13924747891790676,
        -0.18549979721750065,
        0.0,
        0.0,
        0.0,
        0.0,
        0.0,
        0.0,
        0.0,
        0.0,
        0.0,
        0.0,
        0.0,
        0.0
      ]
    },
    "table_like": {
      "bias": -2.251435241032068,
      "values": [
        -0.41876713585415926,
        -0.41876713585415926,
        -0.4101766240278779,
        0.5272461029434035,
        -0.329619112427349,
        0.4505935985031688,
        -0.5340584105222553,
        0.6592525401721696,
        -1.075016069993818,
        -0.05719871007544769,
        -1.0984128946100018,
        -0.8214020982294717,
        -0.4589012568300096,
        0.31293344179427757,
        0.25763990424098154,
        0.24107081214236897,
        -1.15493258452888,
        1.1730477794099554,
        -1.1319191163575164,
        -1.001237731358073,
        0.0,
        -0.33049966428020205,
        -0.2800072335340537,
        0.6594425693809879,
        0.0,
        0.0,
        0.7328834619518279,
        1.0635896287320317,
        -0.4399545075363054,
        0.0,
        0.0,
        0.0,
        -0.040332769473953964,
        0.036112231928794813,
        0.036112231928794813,
        0.0,
        0.0,
        0.0,
        -0.11177610770517814,
        -0.10808422294278519,
        -0.1801529932667615,
        -0.25775510246656863,
        -0.299868675749456,
        -0.22994635386178863,
        -0.21507721511960382,
        0.0,
        -0.27697449446821454,
        0.270447278130117,
        -0.2100094596944827,
        1.2534674521359357,
        1.1237165766219277,
        1.1269099194259633,
        -0.8134504546437469,
        -0.7366201998142432,
        -0.38618534028220586,
        -0.38823222556581727,
        -0.2946540227088068,
        -0.31157323774539497,
        -0.6318800550919456,
        0.367107175046169,
        0.05058483062170151,
        0.4928938850593869,
        0.05950901246642891,
        0.06927184303043893,
        -0.1584374306380852,
        -0.22509930802518763,
        0.4234207788996843,
        -0.478682424000799,
        -0.32132765371217764,
        0.0,
        -0.1584374306380852,
        -0.1584374306380852,
        -0.19449202597817655,
        -0.11177610770517814,
        -0.2585355342251566,
        -0.5085689151544058,
        -0.5513784461152882,
        -0.25456386799871583,
        0.05950901246642891,
        -0.3731966691362942,
        -0.22509930802518763,
        -0.2998680932463357,
        0.0,
        0.0,
        0.0,
        0.0,
        0.0,
        0.0,
        0.0,
        0.0,
        0.0,
        0.0,
        0.0,
        0.0
      ]
    }
  },
  "thresholds": {
    "caption": {
      "min_score": 8.69922678110305,
      "min_confidence": 0.5
    },
    "footer_header_noise": {
      "min_score": 2.813616733698841,
      "min_confidence": 0.5
    },
    "form_row": {
      "min_score": -3.1679031389187373,
      "min_confidence": 0.5
    },
    "heading": {
      "min_score": 6.078836765994101,
      "min_confidence": 0.5
    },
    "keep_as_text": {
      "min_score": -10.069200033404506,
      "min_confidence": 0.5
    },
    "link_text": {
      "min_score": 32.89117627632902,
      "min_confidence": 0.5
    },
    "list_item": {
      "min_score": 20.669989190691133,
      "min_confidence": 0.5
    },
    "paragraph": {
      "min_score": 4.658284618047105,
      "min_confidence": 0.5
    },
    "separator": {
      "min_score": 18.39153539469311,
      "min_confidence": 0.5
    },
    "table_like": {
      "min_score": 0.5110930320845686,
      "min_confidence": 0.5
    }
  },
  "metadata": {
    "trained_from": "samples/pdf_layout_classifier/manifest.tsv,.external/layout_model/pdf_eval_manifest.local.tsv,.external/layout_model/pdf_eval_manifest_round2.local.tsv,.external/layout_model/pdf_eval_manifest_round3.local.tsv,.external/layout_model/pdf_eval_manifest_round4.local.tsv,.external/layout_model/pdf_eval_manifest_round5_candidates.local.tsv,.external/layout_model/pdf_eval_manifest_round6.local.tsv,.external/layout_model/pdf_eval_manifest_round7.local.tsv,.external/layout_model/pdf_eval_manifest_round8.local.tsv",
    "sample_count": "220",
    "label_counts": {
      "caption": "1",
      "footer_header_noise": "21",
      "form_row": "33",
      "heading": "13",
      "keep_as_text": "4",
      "link_text": "2",
      "list_item": "9",
      "paragraph": "45",
      "separator": "5",
      "table_like": "87"
    },
    "notes": "training spike / local corpus only"
  }
}
