{
  "version": 1,
  "task": "pdf_layout_classifier",
  "model_type": "linear_v1",
  "labels": [
    "caption",
    "footer_header_noise",
    "form_row",
    "heading",
    "keep_as_text",
    "link_text",
    "list_item",
    "paragraph",
    "separator",
    "table_like"
  ],
  "features": [
    "text_len",
    "normalized_text_len",
    "word_count",
    "digit_ratio",
    "punctuation_ratio",
    "uppercase_ratio",
    "cjk_ratio",
    "x0",
    "y0",
    "x1",
    "y1",
    "width",
    "height",
    "page_width",
    "page_height",
    "x_center_ratio",
    "y_center_ratio",
    "top_ratio",
    "bottom_ratio",
    "font_size_hint",
    "bold_hint",
    "line_gap_before",
    "line_gap_after",
    "indent_left",
    "alignment_hint",
    "near_image_distance",
    "page_edge_distance",
    "repeated_text_score",
    "source_ref_count",
    "has_rich_inline_payload",
    "has_link_inline",
    "link_inline_count",
    "is_heading_candidate",
    "is_page_number_candidate",
    "is_header_footer_candidate",
    "is_artifact_candidate",
    "is_caption_candidate",
    "is_table_cell_candidate",
    "is_noise_kind",
    "is_heading_kind",
    "line_count",
    "prev_gap_before",
    "next_gap_before",
    "prev_font_size_delta",
    "next_font_size_delta",
    "same_paragraph_candidate",
    "wrapped_candidate",
    "latin_ratio",
    "symbol_ratio",
    "text_density",
    "page_line_count",
    "page_block_count",
    "page_median_font_size",
    "relative_font_size",
    "near_annotation_distance",
    "near_link_annotation_distance",
    "near_uri_annotation_distance",
    "near_dest_annotation_distance",
    "top_zone_candidate",
    "bottom_zone_candidate",
    "repeated_edge_candidate",
    "contains_currency",
    "contains_time",
    "contains_date",
    "looks_like_address",
    "looks_like_separator",
    "looks_like_page_number",
    "looks_like_bullet",
    "looks_like_list_marker_token",
    "contains_url",
    "contains_email",
    "contains_url_or_email",
    "contains_path_like",
    "has_raw_hyphen",
    "ends_with_colon",
    "has_terminal_period",
    "has_markdown_escape_chars",
    "form_key_value_signal",
    "code_like_signal",
    "monospace_hint",
    "boundary_prev_no_sentence_end",
    "boundary_next_starts_lowercase",
    "boundary_next_continues_sentence",
    "boundary_similar_indent",
    "boundary_same_column_band",
    "boundary_table_guard",
    "boundary_caption_guard",
    "boundary_noise_guard",
    "boundary_heading_guard",
    "boundary_list_guard",
    "boundary_layout_compatible"
  ],
  "normalization": {
    "mean": [
      25.074626865671643,
      25.074626865671643,
      3.8059701492537314,
      0.16403310445264685,
      0.05605776689595089,
      0.13192220745337424,
      0.05129116323146174,
      182.95892497512438,
      382.1979176616915,
      279.6069123880597,
      395.87391368159206,
      96.64798741293534,
      13.675996019900504,
      606.9551243781094,
      786.5836815920399,
      0.38359482871287215,
      0.4892513380383799,
      0.500787726229288,
      0.47929040230604786,
      9.478452736318408,
      0.0,
      15.94118543067247,
      11.721235148084691,
      182.9332533333333,
      -1.0,
      0.0,
      93.46006333333335,
      1.3368869936034116,
      1.1144278606965174,
      0.0,
      0.0,
      0.0,
      0.18407960199004975,
      0.06965174129353234,
      0.06965174129353234,
      0.0,
      0.0,
      0.0,
      0.004975124378109453,
      0.1890547263681592,
      1.0348258706467661,
      14.75459384698358,
      12.620102830946978,
      0.022656716417910408,
      0.13062189054726364,
      0.0,
      0.029850746268656716,
      0.612999378020511,
      0.05751787163191586,
      0.020066727556471792,
      110.95522388059702,
      110.51741293532338,
      9.56265671641791,
      0.9891399193147287,
      22.377074626865667,
      22.49499502487562,
      16.203432835820895,
      6.291562189054726,
      0.19900497512437812,
      0.14427860696517414,
      0.16417910447761194,
      0.05472636815920398,
      0.01990049751243781,
      0.05970149253731343,
      0.009950248756218905,
      0.014925373134328358,
      0.029850746268656716,
      0.06965174129353234,
      0.024875621890547265,
      0.0,
      0.009950248756218905,
      0.009950248756218905,
      0.009950248756218905,
      0.08955223880597014,
      0.07960199004975124,
      0.10945273631840796,
      0.01990049751243781,
      0.0945273631840796,
      0.014925373134328358,
      0.0,
      0.0,
      0.0,
      0.0,
      0.0,
      0.0,
      0.0,
      0.0,
      0.0,
      0.0,
      0.0,
      0.0
    ],
    "scale": [
      67.91866223349174,
      67.91866223349174,
      9.465158112184982,
      0.2890830220198952,
      0.13086485959958588,
      0.18830993815950575,
      0.20491514313538278,
      145.88541405438406,
      255.19651359465539,
      165.77802461362003,
      257.25548200028646,
      130.86458705659274,
      17.803071640559377,
      51.16108586197687,
      71.4732759115633,
      0.23475786459401252,
      0.3072166496967821,
      0.30887914697792,
      0.30689055538483906,
      2.721617654213454,
      1.0,
      75.07476458829443,
      64.42283662157443,
      145.90511553912737,
      1.0,
      1.0,
      58.5831463467299,
      2.2356413142589107,
      0.4369054407980129,
      1.0,
      1.0,
      1.0,
      0.38754909640100393,
      0.2545591802082792,
      0.2545591802082792,
      1.0,
      1.0,
      1.0,
      0.07035888370015399,
      0.39155208696419896,
      0.3054742573733085,
      80.90573954789215,
      64.76544166607427,
      0.8941326359738784,
      1.21580538436673,
      1.0,
      0.17017543658196088,
      0.4153988590930968,
      0.15942084507992946,
      0.009346964043592447,
      84.1932920897507,
      84.60391147041115,
      2.432276219619092,
      0.1258879880498453,
      91.3783978944772,
      91.37310421892627,
      86.81606313692497,
      31.87326727421735,
      0.39925179398485333,
      0.35137201160218057,
      0.3704380192833091,
      0.22744536220223802,
      0.13965839649371342,
      0.23693295322966482,
      0.09925341961820898,
      0.12125430454680537,
      0.17017543658196088,
      0.2545591802082792,
      0.15574602828356746,
      1.0,
      0.09925341961820898,
      0.09925341961820898,
      0.09925341961820898,
      0.2855392010404327,
      0.27067603002458596,
      0.3122063978057161,
      0.13965839649371342,
      0.29256100354207276,
      0.12125430454680537,
      1.0,
      1.0,
      1.0,
      1.0,
      1.0,
      1.0,
      1.0,
      1.0,
      1.0,
      1.0,
      1.0,
      1.0
    ]
  },
  "weights": {
    "caption": {
      "bias": -5.023039565016038,
      "values": [
        -0.06029270697238044,
        -0.06029270697238044,
        0.02060187454755422,
        -0.4047146259240203,
        -0.06480664785976382,
        0.3124994544264831,
        -0.2515559282681354,
        -0.7643925221916239,
        -0.04547733464899136,
        -0.47902607800452524,
        -0.051270173709982644,
        0.24530488631059114,
        -0.0889664453403401,
        0.09910071130386469,
        0.07615993433315323,
        -0.6887736584596512,
        -0.04455528385298143,
        0.05187071469867733,
        -0.03699842746774428,
        0.5618551884511217,
        0.0,
        -0.21339915543769536,
        -0.1828519503576188,
        -0.7641124794565705,
        0.0,
        0.0,
        -0.36814962996954004,
        -0.6009780817710496,
        -0.2632148498538978,
        0.0,
        0.0,
        0.0,
        -0.47735887328344384,
        -0.2749851721816762,
        -0.2749851721816762,
        0.0,
        0.0,
        0.0,
        -0.07106423150924802,
        -0.4852483394306934,
        -0.11457593939651624,
        -0.1832795410941253,
        -0.19583288585439368,
        -0.025466020458138363,
        -0.10797369520482628,
        0.0,
        -0.17628866188071288,
        0.3602559504626214,
        -0.36259662882286997,
        -0.7064223985478947,
        -1.3125154897399762,
        -1.300944579122603,
        0.5939004741107164,
        0.08669914626307464,
        -0.2461080574641942,
        -0.247419305639802,
        -0.18757415864753527,
        -0.1983800388457434,
        -0.5009370102106229,
        -0.412668041881968,
        -0.44541864336502895,
        -0.2418163178508584,
        -0.1432065704756984,
        -0.25323619691618227,
        -0.10075219613053418,
        -0.1237069484342294,
        -0.17628866188071288,
        -0.2749851721816762,
        -0.1605177369562349,
        0.0,
        -0.10075219613053418,
        -0.10075219613053418,
        -0.10075219613053418,
        -0.315193149214058,
        -0.2955562780817107,
        -0.35233102451812104,
        -0.1432065704756984,
        -0.3247186017610792,
        -0.1237069484342294,
        0.0,
        0.0,
        0.0,
        0.0,
        0.0,
        0.0,
        0.0,
        0.0,
        0.0,
        0.0,
        0.0,
        0.0
      ]
    },
    "footer_header_noise": {
      "bias": -13.341183917922097,
      "values": [
        -0.2251409161844398,
        -0.2251409161844398,
        -0.14564695192959565,
        0.5761134857169563,
        0.25417716635911664,
        -0.4663069625988076,
        0.06648771006317153,
        0.5420203612399493,
        1.060735584677771,
        0.4542958258235305,
        1.051539819296268,
        -0.028736576599844108,
        -0.010202733756693552,
        -0.167936728708311,
        0.6784957991896353,
        0.5521676304345244,
        0.9586213347072416,
        -0.9469324519270895,
        0.9662114925121992,
        0.7805864770236817,
        0.0,
        0.7768254490598226,
        0.9907087369564507,
        0.5421436472585557,
        0.0,
        0.0,
        -0.9552714219999707,
        -0.19205454677661873,
        -0.29246094428210867,
        0.0,
        0.0,
        0.0,
        0.1556382426835767,
        1.3655726237593442,
        1.3655726237593442,
        0.0,
        0.0,
        0.0,
        0.6768022048499811,
        0.004053870839019995,
        -0.12730659932946248,
        0.7308803076104171,
        0.9699699392959211,
        0.0906456191042938,
        -0.38238745784209915,
        0.0,
        -0.19587629097856987,
        -0.8689587239894663,
        0.46807056162667554,
        -1.0607873988081375,
        -1.3655086267931098,
        -1.3606448096212778,
        0.9685819033035937,
        -0.1457673689207898,
        0.6211118042673831,
        0.6197066882378618,
        0.5793550043336159,
        0.19851128283046535,
        1.4411878269948475,
        0.14681676366900887,
        2.0889041716253165,
        -0.2686847976120649,
        0.6023768440644456,
        1.0651998759172747,
        -0.11194688458948245,
        -0.13745216492692156,
        -0.19587629097856987,
        0.5300167717787408,
        -0.1783530410624832,
        0.0,
        -0.11194688458948245,
        -0.11194688458948245,
        -0.11194688458948245,
        0.7671367652828924,
        0.06450633053370669,
        -0.39147891613124564,
        -0.1591184116396649,
        0.36622398694858554,
        -0.13745216492692156,
        0.0,
        0.0,
        0.0,
        0.0,
        0.0,
        0.0,
        0.0,
        0.0,
        0.0,
        0.0,
        0.0,
        0.0
      ]
    },
    "form_row": {
      "bias": -5.033782168606231,
      "values": [
        -0.18728284070541618,
        -0.18728284070541618,
        -0.24715283480886668,
        -0.22658212559535196,
        0.10020886630903304,
        0.1911230819694087,
        -0.2874924894492976,
        0.016069601422037498,
        0.18009063273252382,
        -0.20264141339528574,
        0.15725712971687678,
        -0.2746183248122266,
        -0.3091176069056134,
        0.11325795577584535,
        0.08703992495217511,
        -0.13654942196124997,
        0.18488684788165743,
        -0.16770889195449382,
        0.2013709949248554,
        -0.5914706353351246,
        0.0,
        -0.1897497032081913,
        -0.08417319203919196,
        0.01626951983593744,
        0.0,
        0.0,
        0.3812718993398662,
        -0.41019490012604515,
        0.7102902398350764,
        0.0,
        0.0,
        0.0,
        0.480336163553403,
        -0.3142687682076299,
        -0.3142687682076299,
        0.0,
        0.0,
        0.0,
        -0.08121626458199774,
        0.4608315635310576,
        -0.1309439307388757,
        -0.09261491954794183,
        -0.09966873337390418,
        -0.12791671044411676,
        -0.15973312678291002,
        0.0,
        -0.20147275643510046,
        0.39915849082292665,
        -0.27367932703510334,
        0.5051170620388039,
        0.9964825079854088,
        0.9975898103661265,
        -0.7379190088138659,
        0.18681317253022903,
        -0.28126635138765055,
        -0.2827649207312023,
        -0.21437046702575457,
        -0.2267200443951353,
        -0.5724994402407119,
        -0.22017302120871957,
        -0.38979693465311227,
        -0.08213541265663521,
        -0.16366465197222674,
        -0.2894127964756369,
        0.7750168933118015,
        -0.14137936963911932,
        -0.20147275643510046,
        -0.3142687682076299,
        -0.18344884223569702,
        0.0,
        0.7750168933118015,
        0.7750168933118015,
        -0.11514536700632479,
        -0.0508003610454892,
        1.620687722667842,
        -0.4026640280207097,
        -0.16366465197222674,
        1.4408566296766914,
        -0.14137936963911932,
        0.0,
        0.0,
        0.0,
        0.0,
        0.0,
        0.0,
        0.0,
        0.0,
        0.0,
        0.0,
        0.0,
        0.0
      ]
    },
    "heading": {
      "bias": -7.791282296208092,
      "values": [
        -0.17216041984465724,
        -0.17216041984465724,
        -0.19295518677075196,
        -0.4439316564238041,
        -0.36527341580451317,
        0.4218394718479269,
        0.5012747649934599,
        -0.5546406350983045,
        0.5449809505164416,
        -0.5371740551909491,
        0.5376353463626673,
        -0.06218393549831322,
        -0.04311606411949812,
        0.2794707498116919,
        0.053519105736021755,
        -0.628281905543704,
        0.5811232646270802,
        -0.572519958686954,
        0.5872517260953777,
        0.684258197071179,
        0.0,
        0.45143203228464707,
        -0.039807674070972444,
        -0.5543745776968292,
        0.0,
        0.0,
        -0.6619543441162561,
        -0.5889580020287433,
        -0.28455659443664627,
        0.0,
        0.0,
        0.0,
        0.8856767992256738,
        -0.2972812672234337,
        -0.2972812672234337,
        0.0,
        0.0,
        0.0,
        -0.07682619622621407,
        1.2096695801597301,
        -0.1238658804286662,
        -0.07353197379420286,
        -0.04466113974810056,
        1.4944182265002848,
        1.4225583109708941,
        0.0,
        -0.19058233716833825,
        0.30596051995297774,
        -0.36537444267403674,
        -0.8764074782606122,
        -0.13895390233719893,
        -0.14309126931223493,
        -0.06930778433630186,
        1.91572634697426,
        0.25142711134148915,
        0.2500395263792558,
        0.16117562975160113,
        0.27779562031961386,
        0.30885474447107664,
        -0.2528697460739925,
        -0.48153366850273405,
        -0.2614230463252523,
        -0.15481791402778206,
        -0.2737688615310079,
        -0.10892129311409102,
        -0.13373724155051828,
        -0.19058233716833825,
        -0.2972812672234337,
        -0.173532688601335,
        0.0,
        -0.10892129311409102,
        -0.10892129311409102,
        -0.10892129311409102,
        -0.3407493505016843,
        -0.31952030062887643,
        -0.3808984048844552,
        -0.15481791402778206,
        -0.35104713703900453,
        0.42628745744227703,
        0.0,
        0.0,
        0.0,
        0.0,
        0.0,
        0.0,
        0.0,
        0.0,
        0.0,
        0.0,
        0.0,
        0.0
      ]
    },
    "keep_as_text": {
      "bias": -52.0651771474631,
      "values": [
        3.5864177218354523,
        3.5864177218354523,
        2.6646600376342087,
        -0.5529419653264487,
        0.9679116731069582,
        -0.6407444147258103,
        -0.2566897227225871,
        -0.5475332710740128,
        -0.902401503681294,
        0.7911701213271846,
        -0.6633520933085888,
        1.6126267812609951,
        3.3499137848870064,
        -0.10734202766323665,
        -3.084620879228582,
        0.41097320316871633,
        -0.5040878087097005,
        0.21975652398357595,
        -0.7880663760258595,
        1.0284980945413262,
        0.0,
        0.08022896724761205,
        0.09023527773358497,
        -0.547278902000923,
        0.0,
        0.0,
        -0.3123640530043623,
        -0.6132429405827037,
        3.0175118545806208,
        0.0,
        0.0,
        0.0,
        -0.48710089110555493,
        -0.28059711447109814,
        -0.28059711447109814,
        0.0,
        0.0,
        0.0,
        -0.07251452194821227,
        -0.49515136676601373,
        3.240194204507894,
        0.12213265789697787,
        0.3212379587095495,
        -0.02598573516136568,
        -0.11017724000492475,
        0.0,
        1.0253524211429221,
        0.2389556350859829,
        -0.15747208846750316,
        -1.03443997292854,
        -1.0664599670777637,
        -1.0850682765449822,
        1.1153447576102553,
        0.08846851659497412,
        0.7055477391414513,
        0.704265155698395,
        0.815551317757962,
        -0.2024286110670851,
        -0.5111602145006356,
        0.7463454381679506,
        -0.45450881976023366,
        -0.24675134474577384,
        -0.146129153546631,
        -0.25840428256753295,
        -0.10280836339850427,
        -0.12623158003492796,
        -0.17988638967419682,
        1.330832028634351,
        -0.1637936091390152,
        0.0,
        -0.10280836339850427,
        -0.10280836339850427,
        1.9636397409114317,
        1.1149689632061914,
        -0.30158803885888846,
        -0.35952145358991944,
        2.7910668327406523,
        -0.33134551200110124,
        1.5652715924331067,
        0.0,
        0.0,
        0.0,
        0.0,
        0.0,
        0.0,
        0.0,
        0.0,
        0.0,
        0.0,
        0.0,
        0.0
      ]
    },
    "link_text": {
      "bias": -10.32292326721819,
      "values": [
        -0.2082638193221786,
        -0.2082638193221786,
        -0.2979348011492455,
        -0.5702627183811735,
        0.26764695075802114,
        -0.7040617175411061,
        -0.2515559282681354,
        -0.7722459461094728,
        1.364916874621813,
        -0.9364041302326276,
        1.347749867385193,
        -0.32534246512074344,
        -0.09020836586093592,
        -0.22855847961371076,
        0.778095019302209,
        -0.9374296852866483,
        1.254698551138009,
        -1.2388738559452956,
        1.2651620060302549,
        0.5544698748054369,
        0.0,
        -0.059184885656219884,
        -0.003139280019802607,
        -0.7719648429310557,
        0.0,
        0.0,
        -0.38770644914785907,
        -0.6009780817710496,
        -0.2632148498538978,
        0.0,
        0.0,
        0.0,
        -0.47735887328344384,
        -0.2749851721816762,
        -0.2749851721816762,
        0.0,
        0.0,
        0.0,
        -0.07106423150924802,
        -0.4852483394306934,
        -0.11457593939651624,
        -0.1832795410941253,
        -0.017691585444739998,
        -0.025466020458138363,
        -0.10797369520482628,
        0.0,
        -0.17628866188071288,
        0.716352445876747,
        -0.36259662882286997,
        -0.3536687608819026,
        -1.2886418538467828,
        -1.277186812311751,
        0.5856366100652309,
        0.08669914626307464,
        -0.2461080574641942,
        -0.247419305639802,
        -0.18757415864753527,
        -0.1983800388457434,
        -0.5009370102106229,
        -0.412668041881968,
        -0.44541864336502895,
        -0.2418163178508584,
        -0.1432065704756984,
        -0.25323619691618227,
        -0.10075219613053418,
        -0.1237069484342294,
        -0.17628866188071288,
        -0.2749851721816762,
        -0.1605177369562349,
        0.0,
        -0.10075219613053418,
        -0.10075219613053418,
        -0.10075219613053418,
        -0.315193149214058,
        -0.2955562780817107,
        -0.35233102451812104,
        -0.1432065704756984,
        -0.3247186017610792,
        -0.1237069484342294,
        0.0,
        0.0,
        0.0,
        0.0,
        0.0,
        0.0,
        0.0,
        0.0,
        0.0,
        0.0,
        0.0,
        0.0
      ]
    },
    "list_item": {
      "bias": -17.081527123434327,
      "values": [
        0.7983525420863846,
        0.7983525420863846,
        1.0110932067518952,
        -0.04717072712904453,
        0.8226311648421889,
        -0.6511978976518679,
        -0.2634093489718695,
        -0.6563500660603223,
        0.5294614124670878,
        0.7711613577400508,
        0.5475124442577837,
        1.708586812715358,
        0.32207201768067,
        0.4740206976449106,
        -0.18527922387929596,
        0.04752141688641743,
        0.6290612603817458,
        -0.6342390377629874,
        0.6211105862598929,
        0.656383192181309,
        0.0,
        0.122046443604063,
        -0.010083905701888371,
        -0.6597979844374703,
        0.0,
        0.0,
        -0.4381083771238469,
        -0.48808109950192713,
        -0.03475178987372199,
        0.0,
        0.0,
        0.0,
        -0.49985222333344903,
        -0.28794258867191225,
        -0.28794258867191225,
        0.0,
        0.0,
        0.0,
        -0.07441280786308693,
        -0.5081134444300455,
        -0.11997480565080235,
        -0.10697857170249503,
        0.035455025858663565,
        0.10044540900443208,
        -0.372730327644547,
        0.0,
        -0.18459545746671507,
        -0.3092081453290522,
        0.31314690764168546,
        -0.9432374186676938,
        -0.9668850520219074,
        -1.0052571993579853,
        0.5682350963651364,
        0.31794377621705644,
        0.8868023318668424,
        0.8854956038308888,
        0.05979678987089169,
        2.375632204818681,
        -0.5245413719482962,
        -0.43211313286069947,
        -0.4664069564031717,
        -0.25321080403231244,
        -0.14995452405832294,
        -0.26516879258238985,
        -0.10549968181207768,
        -0.12953607165887895,
        -0.18459545746671507,
        2.6058804274808054,
        2.534667511308924,
        0.0,
        -0.10549968181207768,
        -0.10549968181207768,
        -0.10549968181207768,
        0.40705572498848674,
        -0.30948301369812636,
        0.9793494446386611,
        -0.14995452405832294,
        -0.34001947828385254,
        -0.12953607165887895,
        0.0,
        0.0,
        0.0,
        0.0,
        0.0,
        0.0,
        0.0,
        0.0,
        0.0,
        0.0,
        0.0,
        0.0
      ]
    },
    "paragraph": {
      "bias": -8.93609715926086,
      "values": [
        0.396825903758223,
        0.396825903758223,
        0.5178109792363803,
        -0.6598449900992389,
        -0.26253616730693485,
        -0.49363622754764913,
        1.013815800886172,
        -0.9158076919780812,
        0.8906576919059987,
        -0.016425658491643163,
        0.9207903258269793,
        1.000117557121013,
        0.5384251383513261,
        -0.5929844144737362,
        0.22036912407914788,
        -0.428050534990332,
        0.8872936269935355,
        -0.8983805859823921,
        0.8722709676388428,
        0.9510126813588503,
        0.0,
        -0.06765680969735459,
        -0.053730640714598724,
        -0.9154784179077802,
        0.0,
        0.0,
        -0.5572008610772695,
        -0.6988117229895926,
        -0.029367439054861156,
        0.0,
        0.0,
        0.0,
        -0.55506845730633,
        -0.31975020021125133,
        -0.31975020021125133,
        0.0,
        0.0,
        0.0,
        -0.08263282733633491,
        -0.46132692549176413,
        0.13060265746309274,
        0.1613029514942168,
        -0.08273134652919253,
        -0.44617458099556395,
        0.206486265235725,
        0.0,
        0.978988759842772,
        0.10548815135070129,
        -0.4201501129234012,
        -0.8972950129213934,
        -1.2112479147393198,
        -1.203132260666743,
        1.1072211868486146,
        -0.04441832307654348,
        -0.2821194866412503,
        -0.2731910727193149,
        -0.20284227233707608,
        -0.2306744637741202,
        1.133334835650938,
        -0.25047876335782976,
        -0.5179286550756151,
        -0.28118176494285857,
        -0.1665192679949981,
        -0.29446069408858405,
        -0.1171537164308537,
        -0.14384528887701092,
        -0.20498681614036382,
        -0.31975020021125133,
        -0.18664853134445916,
        0.0,
        -0.1171537164308537,
        -0.1171537164308537,
        0.28884450775193243,
        -0.3665036618768116,
        -0.04592143454557454,
        1.913586157804186,
        -0.1665192679949981,
        -0.37757976948962696,
        0.188486930252635,
        0.0,
        0.0,
        0.0,
        0.0,
        0.0,
        0.0,
        0.0,
        0.0,
        0.0,
        0.0,
        0.0,
        0.0
      ]
    },
    "separator": {
      "bias": -33.2167620839655,
      "values": [
        -0.2245933758266964,
        -0.2245933758266964,
        -0.28234594160148857,
        -0.5819007330420137,
        2.1728439826710373,
        -0.7184303240215368,
        -0.2566897227225871,
        -0.08891496531501585,
        -0.3888297066150915,
        0.03613779202323734,
        -0.39182211178060555,
        0.1448997680168595,
        -0.08820953743218235,
        -0.2536685640075269,
        -2.385291420637862,
        0.2527392097704372,
        -0.06765502156145682,
        0.06790010629926074,
        -0.06711373433859807,
        0.5886197705631249,
        0.0,
        0.20618857966406984,
        -0.14122565770790732,
        -0.08872252321083668,
        0.0,
        0.0,
        0.2199214148096135,
        -0.547712993183914,
        0.6702986859633422,
        0.0,
        0.0,
        0.0,
        -0.48710089110555493,
        -0.28059711447109814,
        -0.28059711447109814,
        0.0,
        0.0,
        0.0,
        -0.07251452194821227,
        -0.49515136676601373,
        -0.11691422387399616,
        0.03690547411200823,
        0.09100143681403082,
        1.0468553695066707,
        0.6788160127249144,
        0.0,
        -0.17988638967419682,
        -1.5133337598186363,
        3.4896374931049174,
        -0.6771067475281649,
        -0.9373474464309008,
        -0.9371882994570255,
        0.22875020073029403,
        0.8126622483977974,
        1.6228991970583837,
        1.6216697601186216,
        1.781111186539422,
        -0.2024286110670851,
        -0.5111602145006356,
        -0.4210898386550694,
        -0.45450881976023366,
        -0.24675134474577384,
        -0.146129153546631,
        -0.25840428256753295,
        -0.10280836339850427,
        4.948277937369176,
        -0.17988638967419682,
        0.5251174570816265,
        1.153107008338667,
        0.0,
        -0.10280836339850427,
        -0.10280836339850427,
        -0.10280836339850427,
        1.1149689632061914,
        -0.30158803885888846,
        -0.35952145358991944,
        -0.146129153546631,
        -0.33134551200110124,
        -0.12623158003492796,
        0.0,
        0.0,
        0.0,
        0.0,
        0.0,
        0.0,
        0.0,
        0.0,
        0.0,
        0.0,
        0.0,
        0.0
      ]
    },
    "table_like": {
      "bias": -1.4736575297556203,
      "values": [
        -0.45698054910603636,
        -0.45698054910603636,
        -0.4584585792098479,
        0.4895968553293837,
        -0.37464553794372646,
        0.48000954256008127,
        -0.44132618994409717,
        0.6324366794733872,
        -1.0984563106964096,
        -0.11331390496696407,
        -1.1237766902490571,
        -0.8485736643696475,
        -0.492920180411112,
        0.173860897024324,
        0.13361391988272495,
        0.21304429659590213,
        -1.1589026986202091,
        1.1781765739030399,
        -1.134457309108772,
        -1.0173637253320538,
        0.0,
        -0.35602810966721465,
        -0.2893348227910503,
        0.6326615051498672,
        0.0,
        0.0,
        0.7757000996533492,
        1.0215471355630852,
        -0.4617804383401716,
        0.0,
        0.0,
        0.0,
        -0.05307369628239267,
        -0.004753006173739109,
        -0.004753006173739109,
        0.0,
        0.0,
        0.0,
        -0.12467409036710178,
        -0.12669266034106047,
        -0.20101041999388813,
        -0.28296739659467085,
        -0.3122748050301126,
        -0.31666617390623897,
        -0.2894411541991169,
        0.0,
        -0.30927835417668925,
        0.16745626597967037,
        -0.10742515728707158,
        1.2575403189060648,
        1.1505695231800632,
        1.154109355728481,
        -0.8328116407356592,
        -0.7333183195001705,
        -0.4317685218670074,
        -0.4340689572628105,
        -0.32907747131146536,
        -0.3480351558697252,
        -0.7265556454809247,
        0.3142120601767284,
        -0.015514407640718531,
        0.46679605986719075,
        0.038985454757449654,
        0.06893907357064853,
        -0.17675823882549857,
        -0.21702973409513932,
        0.40526129167979974,
        -0.4824301266345196,
        -0.2816100648354998,
        0.0,
        -0.17675823882549857,
        -0.17675823882549857,
        -0.17675823882549857,
        -0.26906990623234095,
        -0.5185197861082643,
        -0.6181246044177562,
        0.038985454757449654,
        -0.3618668150933796,
        -0.21702973409513932,
        0.0,
        0.0,
        0.0,
        0.0,
        0.0,
        0.0,
        0.0,
        0.0,
        0.0,
        0.0,
        0.0,
        0.0
      ]
    }
  },
  "thresholds": {
    "caption": {
      "min_score": 8.396301316444516,
      "min_confidence": 0.5
    },
    "footer_header_noise": {
      "min_score": 2.9206981739850093,
      "min_confidence": 0.5
    },
    "form_row": {
      "min_score": -2.844380181375883,
      "min_confidence": 0.5
    },
    "heading": {
      "min_score": 5.381891362177247,
      "min_confidence": 0.5
    },
    "keep_as_text": {
      "min_score": 3.7104197782719694,
      "min_confidence": 0.5
    },
    "link_text": {
      "min_score": 10.913161032661725,
      "min_confidence": 0.5
    },
    "list_item": {
      "min_score": 18.267487572061242,
      "min_confidence": 0.5
    },
    "paragraph": {
      "min_score": 2.0997162603076314,
      "min_confidence": 0.5
    },
    "separator": {
      "min_score": 10.957981208829999,
      "min_confidence": 0.5
    },
    "table_like": {
      "min_score": 0.5764231428910023,
      "min_confidence": 0.5
    }
  },
  "metadata": {
    "trained_from": "samples/pdf_layout_classifier/manifest.tsv,.external/layout_model/pdf_eval_manifest.local.tsv,.external/layout_model/pdf_eval_manifest_round2.local.tsv,.external/layout_model/pdf_eval_manifest_round3.local.tsv",
    "sample_count": "201",
    "label_counts": {
      "caption": "1",
      "footer_header_noise": "21",
      "form_row": "26",
      "heading": "16",
      "keep_as_text": "5",
      "link_text": "1",
      "list_item": "10",
      "paragraph": "29",
      "separator": "5",
      "table_like": "87"
    },
    "notes": "training spike / local corpus only"
  }
}
