{
  "version": 1,
  "task": "pdf_layout_classifier",
  "model_type": "linear_v1",
  "labels": [
    "caption",
    "footer_header_noise",
    "form_row",
    "heading",
    "keep_as_text",
    "link_text",
    "list_item",
    "paragraph",
    "separator",
    "table_like"
  ],
  "features": [
    "text_len",
    "normalized_text_len",
    "word_count",
    "digit_ratio",
    "punctuation_ratio",
    "uppercase_ratio",
    "cjk_ratio",
    "x0",
    "y0",
    "x1",
    "y1",
    "width",
    "height",
    "page_width",
    "page_height",
    "x_center_ratio",
    "y_center_ratio",
    "top_ratio",
    "bottom_ratio",
    "font_size_hint",
    "bold_hint",
    "line_gap_before",
    "line_gap_after",
    "indent_left",
    "alignment_hint",
    "near_image_distance",
    "page_edge_distance",
    "repeated_text_score",
    "source_ref_count",
    "has_rich_inline_payload",
    "has_link_inline",
    "link_inline_count",
    "is_heading_candidate",
    "is_page_number_candidate",
    "is_header_footer_candidate",
    "is_artifact_candidate",
    "is_caption_candidate",
    "is_table_cell_candidate",
    "is_noise_kind",
    "is_heading_kind",
    "line_count",
    "prev_gap_before",
    "next_gap_before",
    "prev_font_size_delta",
    "next_font_size_delta",
    "same_paragraph_candidate",
    "wrapped_candidate",
    "latin_ratio",
    "symbol_ratio",
    "text_density",
    "page_line_count",
    "page_block_count",
    "page_median_font_size",
    "relative_font_size",
    "near_annotation_distance",
    "near_link_annotation_distance",
    "near_uri_annotation_distance",
    "near_dest_annotation_distance",
    "top_zone_candidate",
    "bottom_zone_candidate",
    "repeated_edge_candidate",
    "contains_currency",
    "contains_time",
    "contains_date",
    "looks_like_address",
    "looks_like_separator",
    "looks_like_page_number",
    "looks_like_bullet",
    "looks_like_list_marker_token",
    "contains_url",
    "contains_email",
    "contains_url_or_email",
    "contains_path_like",
    "caption_marker_signal",
    "has_raw_hyphen",
    "ends_with_colon",
    "has_terminal_period",
    "has_markdown_escape_chars",
    "form_key_value_signal",
    "code_like_signal",
    "monospace_hint",
    "boundary_prev_no_sentence_end",
    "boundary_next_starts_lowercase",
    "boundary_next_continues_sentence",
    "boundary_similar_indent",
    "boundary_same_column_band",
    "boundary_table_guard",
    "boundary_caption_guard",
    "boundary_noise_guard",
    "boundary_heading_guard",
    "boundary_list_guard",
    "boundary_layout_compatible"
  ],
  "normalization": {
    "mean": [
      21.566326530612244,
      21.566326530612244,
      3.622448979591837,
      0.1681781939781201,
      0.048292430021423055,
      0.1350924812269787,
      0.05259961127308067,
      184.62163224489794,
      385.8368135204081,
      277.29423566326534,
      399.0532992346939,
      92.67260341836736,
      13.21648571428572,
      604.0713265306122,
      789.200612244898,
      0.384221271209928,
      0.4918376240970245,
      0.4984978897377807,
      0.48217313793182964,
      9.462494897959184,
      0.0,
      15.292638928302088,
      11.91768648203729,
      184.62163224489794,
      -1.0,
      0.0,
      93.55526903061228,
      1.369533527696793,
      1.0816326530612246,
      0.0,
      0.0,
      0.0,
      0.18877551020408162,
      0.07142857142857142,
      0.07142857142857142,
      0.0,
      0.0,
      0.0,
      0.00510204081632653,
      0.19387755102040816,
      1.0153061224489797,
      14.199863829779245,
      12.443621186770248,
      0.02323469387755098,
      0.13395408163265302,
      0.0,
      0.030612244897959183,
      0.6141621931908697,
      0.05896939289748416,
      0.02021725715109467,
      113.08163265306122,
      112.70408163265306,
      9.54884693877551,
      0.9888628764401044,
      17.730659183673467,
      17.85158775510204,
      11.399526530612244,
      6.452061224489796,
      0.20408163265306123,
      0.14285714285714285,
      0.1683673469387755,
      0.05612244897959184,
      0.02040816326530612,
      0.061224489795918366,
      0.01020408163265306,
      0.015306122448979591,
      0.030612244897959183,
      0.061224489795918366,
      0.02040816326530612,
      0.0,
      0.01020408163265306,
      0.01020408163265306,
      0.01020408163265306,
      0.00510204081632653,
      0.07653061224489796,
      0.08163265306122448,
      0.11224489795918367,
      0.015306122448979591,
      0.09693877551020408,
      0.015306122448979591,
      0.0,
      0.0,
      0.0,
      0.0,
      0.0,
      0.0,
      0.0,
      0.0,
      0.0,
      0.0,
      0.0,
      0.0
    ],
    "scale": [
      52.01795891584875,
      52.01795891584875,
      9.389002800848218,
      0.2915645810112397,
      0.10406198679707838,
      0.1896264607608031,
      0.2073464998607955,
      147.0683358926432,
      256.81074465932744,
      164.308900022978,
      259.07350035122596,
      125.83194430779868,
      17.0627303078394,
      46.38476425921742,
      69.02953126278528,
      0.23594755445919352,
      0.30922341909593093,
      0.3109770896545128,
      0.30878903022248627,
      2.751549614414796,
      1.0,
      75.75837615702581,
      65.22271172083035,
      147.0683358926432,
      1.0,
      1.0,
      58.232616609115816,
      2.2544214854108673,
      0.3249323128181767,
      1.0,
      1.0,
      1.0,
      0.39133018916417667,
      0.2575393768188564,
      0.2575393768188564,
      1.0,
      1.0,
      1.0,
      0.07124612267229052,
      0.3953340944451126,
      0.12276744301546903,
      81.678559107788,
      65.40873335540746,
      0.9054581521677006,
      1.2310341649354992,
      1.0,
      0.1722647246544299,
      0.41625947885615744,
      0.16117881649841906,
      0.009396700933318227,
      84.17840305085139,
      84.54031874522569,
      2.458519680089746,
      0.1274714882542672,
      82.29401935872404,
      82.29481709549312,
      76.67302160297662,
      32.261208366419844,
      0.403028931798602,
      0.3499271061118826,
      0.37419217445528374,
      0.23015803201306043,
      0.14139190265868384,
      0.23974163519328023,
      0.10049854899791943,
      0.12276744301546903,
      0.1722647246544299,
      0.23974163519328023,
      0.14139190265868384,
      1.0,
      0.10049854899791943,
      0.10049854899791943,
      0.10049854899791943,
      0.07124612267229052,
      0.265845213675776,
      0.2738042421428314,
      0.31566751629098,
      0.12276744301546903,
      0.29587438096730573,
      0.12276744301546903,
      1.0,
      1.0,
      1.0,
      1.0,
      1.0,
      1.0,
      1.0,
      1.0,
      1.0,
      1.0,
      1.0,
      1.0
    ]
  },
  "weights": {
    "caption": {
      "bias": -102.6031869500875,
      "values": [
        -0.010942966258088542,
        -0.010942966258088542,
        0.0404182624647738,
        -0.4156108330147678,
        -0.00650415839920848,
        0.29356519152262434,
        -0.2549806864588856,
        -0.7697046300949247,
        -0.05943947024348234,
        -0.46922346085432354,
        -0.06325195697444999,
        0.28690320695248794,
        -0.06576973683606029,
        0.1718092882567512,
        0.04076144714110957,
        -0.6880567829612013,
        -0.05267848179267907,
        0.05892847356607525,
        -0.04615913747907188,
        0.5616434228529874,
        0.0,
        -0.2028958842229948,
        -0.18365999368813596,
        -0.7697046300949247,
        0.0,
        0.0,
        -0.3720562484290513,
        -0.6106031128007545,
        -0.2525180747326774,
        0.0,
        0.0,
        0.0,
        -0.48486826469701705,
        -0.2787724063080638,
        -0.2787724063080638,
        0.0,
        0.0,
        0.0,
        -0.07197872580088659,
        -0.49292939215201054,
        -0.1253151080346023,
        -0.17474210858024355,
        -0.1912196428081369,
        -0.02579229763179682,
        -0.10937228996246437,
        0.0,
        -0.17861596929351092,
        0.35674916838047693,
        -0.36773939236071734,
        -0.7188744925150906,
        -1.3383053868146628,
        -1.3280872930617353,
        0.5932817555243759,
        0.08781757526608479,
        -0.21655991261455335,
        -0.21803480452667554,
        -0.14943959950289498,
        -0.20102001897421182,
        -0.5089664511497402,
        -0.4103418714406008,
        -0.45225630246575993,
        -0.24509358164417822,
        -0.14507775995021366,
        -0.2566865846595611,
        -0.10205530685445606,
        -0.1253151080346023,
        -0.17861596929351092,
        -0.2566865846595611,
        -0.14507775995021366,
        0.0,
        -0.10205530685445606,
        -0.10205530685445606,
        -0.10205530685445606,
        14.035851531172884,
        -0.2893528751542319,
        -0.29967133236920257,
        -0.3574029857304535,
        -0.1253151080346023,
        -0.3293150867518474,
        -0.1253151080346023,
        0.0,
        0.0,
        0.0,
        0.0,
        0.0,
        0.0,
        0.0,
        0.0,
        0.0,
        0.0,
        0.0,
        0.0
      ]
    },
    "footer_header_noise": {
      "bias": -13.474935829576626,
      "values": [
        -0.219301550567825,
        -0.219301550567825,
        -0.12537464117451452,
        0.5569924672860276,
        0.40417572160596615,
        -0.48317656541448634,
        0.05883651999648449,
        0.5266033005381167,
        1.0413446987140942,
        0.4754902214439816,
        1.0335328642031674,
        0.005408834578314411,
        0.0194851191652846,
        -0.11615061828299487,
        0.6621530444949743,
        0.5480498447548624,
        0.9458756809617541,
        -0.9351047983169385,
        0.9526816911172031,
        0.7808953797147372,
        0.0,
        0.7817016720347205,
        0.9781065540458141,
        0.5266033005381167,
        0.0,
        0.0,
        -0.9657214860377019,
        -0.2072420296635846,
        -0.2813772832735548,
        0.0,
        0.0,
        0.0,
        0.14115469945233622,
        1.3460724761732226,
        1.3460724761732226,
        0.0,
        0.0,
        0.0,
        0.668373882436804,
        -0.009636213681167124,
        -0.13963683466712828,
        0.7337326312344351,
        0.9663192007410838,
        0.08906409349868381,
        -0.3818160249461466,
        0.0,
        -0.19902922292705502,
        -0.872879393381736,
        0.4542609825772158,
        -1.0762641410144844,
        -1.3981190460495228,
        -1.394702234136421,
        0.9673943692617807,
        -0.14195213550416116,
        0.7549711250598429,
        0.7533180164798919,
        0.7281288226967906,
        0.1911376461332385,
        1.4178351139171335,
        0.15241269510650887,
        2.0615839242270355,
        -0.27310427668922715,
        0.5927462763680158,
        1.0487480458947782,
        -0.11371877049496532,
        -0.13963683466712828,
        -0.19902922292705502,
        0.6038246324848724,
        -0.16165807537309523,
        0.0,
        -0.11371877049496532,
        -0.11371877049496532,
        -0.11371877049496532,
        -0.08020486589241647,
        0.8812861854697462,
        0.055653247439994766,
        -0.3982490412425053,
        -0.13963683466712828,
        0.3540756195903322,
        -0.13963683466712828,
        0.0,
        0.0,
        0.0,
        0.0,
        0.0,
        0.0,
        0.0,
        0.0,
        0.0,
        0.0,
        0.0,
        0.0
      ]
    },
    "form_row": {
      "bias": -5.090939269962304,
      "values": [
        -0.1677022627104047,
        -0.1677022627104047,
        -0.22756959700953316,
        -0.24189937245026072,
        0.2125337805678586,
        0.17124277948343852,
        -0.29247784623225115,
        0.002966211333378557,
        0.16330281750108863,
        -0.1890032716751214,
        0.142598631056933,
        -0.250263600452349,
        -0.29270764901637697,
        0.19707536005921464,
        0.046755777603037445,
        -0.13943886641045383,
        0.1747428433668671,
        -0.15872170194347573,
        0.1901309317860158,
        -0.5805756861737051,
        0.0,
        -0.17888286148316493,
        -0.0869298912682712,
        0.002966211333378557,
        0.0,
        0.0,
        0.3831412717132268,
        -0.4250212851506865,
        1.075058568163384,
        0.0,
        0.0,
        0.0,
        0.46366973166177383,
        -0.3197683484121909,
        -0.3197683484121909,
        0.0,
        0.0,
        0.0,
        -0.08256383253631108,
        0.444094282093607,
        -0.14374380039263207,
        -0.08425730111576668,
        -0.09595316547765324,
        -0.12753324692377396,
        -0.16147810802937268,
        0.0,
        -0.20488302360138017,
        0.3966279635576681,
        -0.2821071687746724,
        0.4858855827589413,
        0.9713264081876161,
        0.9723171289159842,
        -0.7263433464561566,
        0.18770017921652504,
        -0.2484069585872818,
        -0.2500987463688337,
        -0.17141601119449718,
        -0.23058178647041944,
        -0.5838144586717608,
        -0.21723981429208275,
        -0.400258920096702,
        -0.08846960834749748,
        -0.1664127246487745,
        -0.29443461181537894,
        0.7654148014084206,
        -0.14374380039263207,
        -0.20488302360138017,
        -0.29443461181537894,
        -0.1664127246487745,
        0.0,
        0.7654148014084206,
        0.7654148014084206,
        -0.11706344021540548,
        -0.08256383253631108,
        0.0017020757362013641,
        1.5997160830885375,
        -0.4099622483378731,
        -0.14374380039263207,
        1.4207448092529393,
        -0.14374380039263207,
        0.0,
        0.0,
        0.0,
        0.0,
        0.0,
        0.0,
        0.0,
        0.0,
        0.0,
        0.0,
        0.0,
        0.0
      ]
    },
    "heading": {
      "bias": -7.716118810194463,
      "values": [
        -0.15184392613114572,
        -0.15184392613114572,
        -0.1736665320206581,
        -0.4566069449293292,
        -0.3791159809354341,
        0.40163243108010827,
        0.4896208235457143,
        -0.5637066329829297,
        0.5273237627735909,
        -0.5278491534277746,
        0.5216800174900825,
        -0.030412923795982122,
        -0.015761838530404228,
        0.37662749949852864,
        0.014256177091452497,
        -0.6293872346380291,
        0.5695213058538603,
        -0.5618970859076824,
        0.5747663066250113,
        0.6846263369065141,
        0.0,
        0.4576693610689133,
        -0.04268616670393213,
        -0.5637066329829297,
        0.0,
        0.0,
        -0.6691917098514437,
        -0.6011115219263238,
        -0.2735612476270672,
        0.0,
        0.0,
        0.0,
        0.8659921934791318,
        -0.30200344016706915,
        -0.30200344016706915,
        0.0,
        0.0,
        0.0,
        -0.07797695295096047,
        1.187462581752157,
        -0.13575803370415251,
        -0.06560196465893496,
        -0.04138171152602218,
        1.4782939776165627,
        1.4051194103866576,
        0.0,
        -0.1935006334013035,
        0.30296127880464757,
        -0.3719945697017806,
        -0.8911396212110516,
        -0.16679192368731652,
        -0.1716800824069349,
        -0.06260316415506291,
        1.8984783806872878,
        0.34127921508983866,
        0.3396758330858048,
        0.25112475661375766,
        0.2696447872585388,
        0.29292079610440774,
        -0.2500520779091161,
        -0.48994432767123997,
        -0.26551804678119306,
        -0.15716757327939815,
        -0.2780771333811912,
        -0.11055991575899407,
        -0.1357580337041525,
        -0.1935006334013035,
        -0.2780771333811912,
        -0.15716757327939815,
        0.0,
        -0.11055991575899407,
        -0.11055991575899407,
        -0.11055991575899407,
        -0.07797695295096047,
        -0.3134656147504179,
        -0.3246439433999695,
        -0.38718656787465794,
        -0.1357580337041525,
        -0.3567580106478347,
        0.41858727058780354,
        0.0,
        0.0,
        0.0,
        0.0,
        0.0,
        0.0,
        0.0,
        0.0,
        0.0,
        0.0,
        0.0,
        0.0
      ]
    },
    "keep_as_text": {
      "bias": -136.72557725560415,
      "values": [
        5.077647633323556,
        5.077647633323556,
        5.044286996909766,
        -0.5254318398347424,
        0.14442718865422796,
        -0.6316128623480625,
        -0.2562950198942407,
        -0.9989969862523366,
        -1.0726644249550206,
        0.29506420712754017,
        -0.6610512413984456,
        1.55288468849531,
        6.107515552406651,
        -2.3539079191467227,
        -6.7061780868049405,
        0.44428927407055097,
        -0.2720924086194751,
        -0.33507836649197176,
        -0.8824030595525416,
        1.9377852913141165,
        0.0,
        -0.13231630222415386,
        0.41632731082456664,
        -0.9989969862523366,
        0.0,
        0.0,
        -1.003762470359999,
        -0.6137505515265317,
        1.3008260357524197,
        0.0,
        0.0,
        0.0,
        -0.4873675856490635,
        -0.2802093774746003,
        -0.2802093774746003,
        0.0,
        0.0,
        0.0,
        -0.07234975016068497,
        -0.49547026530743327,
        3.988766969658089,
        0.015469059228851383,
        0.40701964550762937,
        -0.025925247619589586,
        -0.10993606465299254,
        0.0,
        2.7528956092144212,
        0.32543505873354595,
        0.13840343563486507,
        -1.524762503345289,
        -1.2191828575957222,
        -1.2214022077435593,
        2.1332634208977863,
        0.0882702431798275,
        0.4629976318982053,
        0.46150853923973667,
        0.5803649995007166,
        -0.20205620463902735,
        -0.5115899895577285,
        1.0311425893159427,
        -0.4545875205197072,
        -0.24635695062172552,
        -0.14582558345511168,
        -0.2580097113846104,
        -0.10258136513721099,
        -0.1259610621997291,
        -0.17953667016615787,
        1.8490695982563745,
        -0.14582558345511168,
        0.0,
        -0.10258136513721099,
        -0.10258136513721099,
        4.923905526586127,
        -0.07234975016068497,
        1.609338929337197,
        -0.3012160299587346,
        -0.35924526916205374,
        3.988766969658089,
        -0.3310125871990219,
        3.988766969658089,
        0.0,
        0.0,
        0.0,
        0.0,
        0.0,
        0.0,
        0.0,
        0.0,
        0.0,
        0.0,
        0.0,
        0.0
      ]
    },
    "link_text": {
      "bias": -10.300173310061515,
      "values": [
        -0.20417011820271513,
        -0.20417011820271513,
        -0.2807430663093747,
        -0.579770854431782,
        0.41163165517979144,
        -0.7160670648874783,
        -0.2549806864588856,
        -0.7774958799713264,
        1.342268236642082,
        -0.9307499061868499,
        1.3261278394597702,
        -0.3066428661143294,
        -0.06706570882377373,
        -0.18963565448016959,
        0.7676387572156529,
        -0.9354906019633349,
        1.2383082431156218,
        -1.223271901511305,
        1.2481605372961264,
        0.5543375163931327,
        0.0,
        -0.05005368365791467,
        -0.006128630493083743,
        -0.7774958799713264,
        0.0,
        0.0,
        -0.39173329920520994,
        -0.6106031128007545,
        -0.2525180747326774,
        0.0,
        0.0,
        0.0,
        -0.48486826469701705,
        -0.2787724063080638,
        -0.2787724063080638,
        0.0,
        0.0,
        0.0,
        -0.07197872580088659,
        -0.49292939215201054,
        -0.1253151080346023,
        -0.17474210858024355,
        -0.01480785186007247,
        -0.02579229763179682,
        -0.10937228996246437,
        0.0,
        -0.17861596929351092,
        0.7121547638217531,
        -0.36773939236071734,
        -0.3679432239061666,
        -1.3144244822429518,
        -1.3043086222441507,
        0.5851050611235282,
        0.08781757526608479,
        -0.21655991261455335,
        -0.21803480452667554,
        -0.14943959950289498,
        -0.20102001897421182,
        -0.5089664511497402,
        -0.4103418714406008,
        -0.45225630246575993,
        -0.24509358164417822,
        -0.14507775995021366,
        -0.2566865846595611,
        -0.10205530685445606,
        -0.1253151080346023,
        -0.17861596929351092,
        -0.2566865846595611,
        -0.14507775995021366,
        0.0,
        -0.10205530685445606,
        -0.10205530685445606,
        -0.10205530685445606,
        -0.07197872580088659,
        -0.2893528751542319,
        -0.29967133236920257,
        -0.3574029857304535,
        -0.1253151080346023,
        -0.3293150867518474,
        -0.1253151080346023,
        0.0,
        0.0,
        0.0,
        0.0,
        0.0,
        0.0,
        0.0,
        0.0,
        0.0,
        0.0,
        0.0,
        0.0
      ]
    },
    "list_item": {
      "bias": -20.683357880492935,
      "values": [
        1.1348633269353574,
        1.1348633269353574,
        1.0344462033578432,
        -0.001138788797895137,
        1.2513562550466333,
        -0.6521466118240412,
        -0.2658889511202283,
        -0.6457261157663398,
        0.5485939951587688,
        0.7966726602909794,
        0.5665975480792034,
        1.7949835792608653,
        0.34610976979628305,
        0.17915941823564965,
        0.042505252366397676,
        0.09404678849598466,
        0.5997727591875308,
        -0.6039279026924809,
        0.5930256812579635,
        0.7244961947077537,
        0.0,
        0.11981968254668933,
        -0.012430455900837467,
        -0.6457261157663398,
        0.0,
        0.0,
        -0.4496656348776039,
        -0.4817514377774877,
        0.09508813420192173,
        0.0,
        0.0,
        0.0,
        -0.5056112920637343,
        -0.2906984985565372,
        -0.2906984985565372,
        0.0,
        0.0,
        0.0,
        -0.07505802957846462,
        -0.5140172805863211,
        -0.13067618217512006,
        -0.1088757375030339,
        0.0450227447306134,
        0.11201231072936814,
        -0.3978583190876552,
        0.0,
        -0.18625729418307288,
        -0.3924185994359642,
        0.37488355346810864,
        -0.9238676467857381,
        -0.9735992597495404,
        -1.015719863850182,
        0.6319262368743874,
        0.3398369517183416,
        0.8814428705037068,
        0.8798941481541408,
        -0.1558327374495429,
        2.614870896109003,
        -0.5307404169743279,
        -0.4278966039086479,
        -0.47160416567285124,
        -0.25557886855943723,
        -0.15128429513524955,
        -0.2676678289230717,
        -0.10642130928673225,
        -0.13067618217512003,
        -0.18625729418307288,
        2.646937419350376,
        3.143351465587963,
        0.0,
        -0.10642130928673225,
        -0.10642130928673225,
        -0.10642130928673225,
        -0.07505802957846462,
        0.13633798573814968,
        -0.31249149632082623,
        1.103020557970586,
        -0.13067618217512003,
        -0.3434034327091457,
        -0.13067618217512003,
        0.0,
        0.0,
        0.0,
        0.0,
        0.0,
        0.0,
        0.0,
        0.0,
        0.0,
        0.0,
        0.0,
        0.0
      ]
    },
    "paragraph": {
      "bias": -9.143018637447838,
      "values": [
        0.5995205478275287,
        0.5995205478275287,
        0.5472066267180209,
        -0.6737404965236719,
        -0.24400227637369215,
        -0.5119483528438629,
        0.9988495186731392,
        -0.9256346833533727,
        0.872252361768711,
        -0.00012474430303226853,
        0.9038752023926093,
        1.081689205986807,
        0.5958210570306849,
        -0.5839029325394876,
        0.18466260753243155,
        -0.4308480186699408,
        0.8755271274510794,
        -0.8875323896208838,
        0.8596961622426653,
        0.9515374706239095,
        0.0,
        -0.05728860834653827,
        -0.05683600772423744,
        -0.9256346833533727,
        0.0,
        0.0,
        -0.5648951857474285,
        -0.7129796826116596,
        0.0787978402725085,
        0.0,
        0.0,
        0.0,
        -0.5661635426102893,
        -0.3255126900004338,
        -0.3255126900004338,
        0.0,
        0.0,
        0.0,
        -0.08404701515672386,
        -0.4732051453073655,
        0.5129820393941752,
        0.1684379461013971,
        -0.0791048748257212,
        -0.44324622119451385,
        0.2016359399455781,
        0.0,
        0.9661047523525744,
        0.10244620801448898,
        -0.42793220059956866,
        -0.9152023844141364,
        -1.2463426656284942,
        -1.2395953704727816,
        1.1067265244099598,
        -0.04150524949691029,
        -0.24834987518607815,
        -0.2384159754399252,
        -0.15713375836342847,
        -0.23472397425132518,
        1.1127795308690944,
        -0.24783191698611548,
        -0.5280837064719952,
        -0.2861871162911063,
        -0.16940217479216566,
        -0.2997238563390085,
        -0.11916637626717923,
        -0.14632602435178113,
        -0.20856355695948878,
        -0.2997238563390085,
        -0.16940217479216566,
        0.0,
        -0.11916637626717923,
        -0.11916637626717923,
        0.2835337918081161,
        -0.08404701515672386,
        -0.3378671296711091,
        -0.05429725256121728,
        1.8903990070804824,
        -0.14632602435178113,
        -0.38452959231503137,
        0.18332800752119705,
        0.0,
        0.0,
        0.0,
        0.0,
        0.0,
        0.0,
        0.0,
        0.0,
        0.0,
        0.0,
        0.0,
        0.0
      ]
    },
    "separator": {
      "bias": -39.5998796580474,
      "values": [
        -0.17792332737056837,
        -0.17792332737056837,
        -0.2579480538424383,
        -0.5888297740322785,
        1.161234474707776,
        -0.7272556127763451,
        -0.2589647596848057,
        0.07750645398377344,
        -0.3263884643710095,
        0.38042581363775874,
        -0.3260700687178571,
        0.40616555718010733,
        -0.038449267340601716,
        -1.302789489144056,
        -2.466337248018526,
        0.6284451828415085,
        0.018307248813750218,
        -0.019607055260189948,
        0.016920015453858368,
        0.7302286704701122,
        0.0,
        0.05530973074629212,
        -0.1307829476423846,
        0.07750645398377344,
        0.0,
        0.0,
        0.3834537088104087,
        -0.5716280138962626,
        0.5289563186538995,
        0.0,
        0.0,
        0.0,
        -0.49244433133290794,
        -0.28312822515662733,
        -0.28312822515662733,
        0.0,
        0.0,
        0.0,
        -0.07310339339152544,
        -0.5006314139043857,
        -0.12727315659764296,
        -0.14390948438158974,
        0.16411418229898747,
        1.2920427323993249,
        0.8585176702944779,
        0.0,
        -0.18140684381372202,
        -1.506169278367346,
        4.376673643653026,
        -0.8588828236519696,
        -0.9226436217820498,
        -0.9201723842691314,
        0.295909772816398,
        0.9791095205365262,
        0.8315104552338998,
        0.8300023257123691,
        0.9767629758717182,
        -0.20416095677068388,
        -0.5169190519489548,
        -0.4167534631818602,
        -0.4593228071917874,
        -0.2489231688573685,
        -0.14734459994943575,
        -0.2606973125448668,
        -0.10364992102405693,
        6.109111516686862,
        -0.18140684381372202,
        0.8038167136800058,
        -0.14734459994943575,
        0.0,
        -0.10364992102405693,
        -0.10364992102405693,
        -0.10364992102405693,
        -0.07310339339152544,
        0.666114431344638,
        -0.3043536969374714,
        -0.3629874073824918,
        -0.12727315659764296,
        -0.334460634982345,
        -0.12727315659764296,
        0.0,
        0.0,
        0.0,
        0.0,
        0.0,
        0.0,
        0.0,
        0.0,
        0.0,
        0.0,
        0.0,
        0.0
      ]
    },
    "table_like": {
      "bias": -1.2438803586414597,
      "values": [
        -0.4872403670173542,
        -0.4872403670173542,
        -0.43620600325097036,
        0.4695039508516521,
        -0.3463130130052863,
        0.4560786647793783,
        -0.45615810880259355,
        0.619476232964689,
        -1.1387035760564557,
        -0.09128752740767623,
        -1.160113894004129,
        -0.8432254027784014,
        -0.4760934426016823,
        0.30736524045932556,
        0.07292185497721437,
        0.21140458256838804,
        -1.189281788889158,
        1.2067034989003957,
        -1.1666554982025548,
        -1.0158478855724247,
        0.0,
        -0.3444269676861411,
        -0.2968768295909454,
        0.619476232964689,
        0.0,
        0.0,
        0.7929236702081641,
        1.007111540425205,
        -0.45175251901717517,
        0.0,
        0.0,
        0.0,
        -0.07518221209744097,
        -0.01719728542552118,
        -0.01719728542552118,
        0.0,
        0.0,
        0.0,
        -0.12876928010250352,
        -0.14990851242372455,
        -0.22418757859401334,
        -0.273642695984185,
        -0.31049109624804894,
        -0.3200618310431993,
        -0.2964035920588427,
        0.0,
        -0.3195423303874737,
        0.16540484471688605,
        -0.12455678219554742,
        1.2469147172144286,
        1.128198478203255,
        1.131399156305183,
        -0.8301801496772074,
        -0.7346797339920561,
        -0.3874236968792468,
        -0.39006226497891494,
        -0.2673460725051791,
        -0.35962296972450736,
        -0.7566870728181601,
        0.3290783435944078,
        -0.03579012948390756,
        0.45954606008720483,
        0.03281575399063675,
        0.058061027532928244,
        -0.18257600767540305,
        -0.22418757859401328,
        0.4003461380716624,
        -0.4592099450331598,
        -0.2595427815623088,
        0.0,
        -0.18257600767540305,
        -0.18257600767540305,
        -0.18257600767540305,
        -0.12876928010250352,
        -0.20666318922488797,
        -0.5361092643302248,
        -0.6393906625453067,
        0.11252326741691855,
        -0.379574033540296,
        -0.22418757859401328,
        0.0,
        0.0,
        0.0,
        0.0,
        0.0,
        0.0,
        0.0,
        0.0,
        0.0,
        0.0,
        0.0,
        0.0
      ]
    }
  },
  "thresholds": {
    "caption": {
      "min_score": 8.50651644272748,
      "min_confidence": 0.5
    },
    "footer_header_noise": {
      "min_score": 2.6742805970473067,
      "min_confidence": 0.5
    },
    "form_row": {
      "min_score": -3.1007946146712886,
      "min_confidence": 0.5
    },
    "heading": {
      "min_score": 5.166995899063804,
      "min_confidence": 0.5
    },
    "keep_as_text": {
      "min_score": 49.760969785242565,
      "min_confidence": 0.5
    },
    "link_text": {
      "min_score": 10.80714685331229,
      "min_confidence": 0.5
    },
    "list_item": {
      "min_score": 23.895399439175073,
      "min_confidence": 0.5
    },
    "paragraph": {
      "min_score": 7.809342011973361,
      "min_confidence": 0.5
    },
    "separator": {
      "min_score": -0.9720576013429163,
      "min_confidence": 0.5
    },
    "table_like": {
      "min_score": 0.5793554995990977,
      "min_confidence": 0.5
    }
  },
  "metadata": {
    "trained_from": "samples/pdf_layout_classifier/manifest.tsv,.external/layout_model/pdf_eval_manifest.local.tsv,.external/layout_model/pdf_eval_manifest_round2.local.tsv,.external/layout_model/pdf_eval_manifest_round3_baseline.local.tsv,.external/layout_model/pdf_eval_manifest_round4.local.tsv",
    "sample_count": "196",
    "label_counts": {
      "caption": "1",
      "footer_header_noise": "21",
      "form_row": "26",
      "heading": "16",
      "keep_as_text": "2",
      "link_text": "1",
      "list_item": "9",
      "paragraph": "29",
      "separator": "4",
      "table_like": "87"
    },
    "notes": "training spike / local corpus only"
  }
}
