{
  "version": 1,
  "task": "pdf_layout_classifier",
  "model_type": "linear_v1",
  "labels": [
    "caption",
    "footer_header_noise",
    "form_row",
    "heading",
    "keep_as_text",
    "link_text",
    "list_item",
    "paragraph",
    "separator",
    "table_like"
  ],
  "features": [
    "text_len",
    "normalized_text_len",
    "word_count",
    "digit_ratio",
    "punctuation_ratio",
    "uppercase_ratio",
    "cjk_ratio",
    "x0",
    "y0",
    "x1",
    "y1",
    "width",
    "height",
    "page_width",
    "page_height",
    "x_center_ratio",
    "y_center_ratio",
    "top_ratio",
    "bottom_ratio",
    "font_size_hint",
    "bold_hint",
    "line_gap_before",
    "line_gap_after",
    "indent_left",
    "alignment_hint",
    "near_image_distance",
    "page_edge_distance",
    "repeated_text_score",
    "source_ref_count",
    "has_rich_inline_payload",
    "has_link_inline",
    "link_inline_count",
    "link_overlap_ratio",
    "link_text_coverage_ratio",
    "has_partial_link",
    "is_link_only_candidate",
    "link_target_uri",
    "link_target_internal",
    "link_target_named",
    "link_target_mixed",
    "page_number_like_link",
    "toc_like_anchor_signal",
    "visible_url_without_annotation",
    "page_label_pattern_signal",
    "cleanup_shell_signal",
    "is_heading_candidate",
    "is_page_number_candidate",
    "is_header_footer_candidate",
    "is_artifact_candidate",
    "is_caption_candidate",
    "is_table_cell_candidate",
    "is_noise_kind",
    "is_heading_kind",
    "line_count",
    "prev_gap_before",
    "next_gap_before",
    "prev_font_size_delta",
    "next_font_size_delta",
    "same_paragraph_candidate",
    "wrapped_candidate",
    "latin_ratio",
    "symbol_ratio",
    "text_density",
    "page_line_count",
    "page_block_count",
    "page_median_font_size",
    "relative_font_size",
    "near_annotation_distance",
    "near_link_annotation_distance",
    "near_uri_annotation_distance",
    "near_dest_annotation_distance",
    "top_zone_candidate",
    "bottom_zone_candidate",
    "repeated_edge_candidate",
    "contains_currency",
    "contains_time",
    "contains_date",
    "looks_like_address",
    "looks_like_separator",
    "looks_like_page_number",
    "looks_like_bullet",
    "looks_like_list_marker_token",
    "contains_url",
    "contains_email",
    "contains_url_or_email",
    "contains_path_like",
    "identifier_like_signal",
    "technical_literal_signal",
    "sentence_like_signal",
    "citation_reference_signal",
    "caption_marker_signal",
    "caption_marker_figure",
    "caption_marker_table",
    "caption_marker_starts_line",
    "caption_reference_only_signal",
    "caption_lead_in_signal",
    "near_image_object_signal",
    "caption_object_distance_ratio",
    "caption_heading_conflict_signal",
    "asset_metadata_noise_signal",
    "has_raw_hyphen",
    "ends_with_colon",
    "has_terminal_period",
    "contains_clause_punctuation",
    "has_markdown_escape_chars",
    "form_key_value_signal",
    "option_like_signal",
    "code_like_signal",
    "monospace_hint",
    "sku_like_signal",
    "quantity_price_signal",
    "payment_card_signal",
    "receipt_line_item_signal",
    "boundary_prev_no_sentence_end",
    "boundary_next_starts_lowercase",
    "boundary_next_continues_sentence",
    "boundary_similar_indent",
    "boundary_same_column_band",
    "boundary_table_guard",
    "boundary_caption_guard",
    "boundary_noise_guard",
    "boundary_heading_guard",
    "boundary_list_guard",
    "boundary_layout_compatible"
  ],
  "normalization": {
    "mean": [
      25.73542600896861,
      25.73542600896861,
      3.672645739910314,
      0.15237084211753835,
      0.06077022142594283,
      0.12880051064734763,
      0.08183371187855493,
      178.6695377578475,
      385.35755022421523,
      280.0377530941704,
      398.95857130044845,
      101.36821533632288,
      13.601021076233188,
      602.2263677130045,
      779.6072645739911,
      0.3821668645515109,
      0.4972094866855024,
      0.49288011097864454,
      0.48729908434964936,
      9.528,
      0.0,
      15.140517587179847,
      11.61876989155899,
      178.64639874439462,
      -1.0,
      0.0,
      93.08341044843051,
      1.2235746316463805,
      1.116591928251121,
      0.0,
      0.0,
      0.0,
      0.02950940749548728,
      0.029307623147345925,
      0.008968609865470852,
      0.017937219730941704,
      0.026905829596412557,
      0.013452914798206279,
      0.0,
      0.0,
      0.0,
      0.013452914798206279,
      0.008968609865470852,
      0.013452914798206279,
      0.0,
      0.17937219730941703,
      0.06278026905829596,
      0.06278026905829596,
      0.0,
      0.0,
      0.0,
      0.004484304932735426,
      0.18385650224215247,
      1.031390134529148,
      14.704113702802255,
      12.41018496846507,
      -0.009699551569506748,
      0.08779372197309415,
      0.0,
      0.026905829596412557,
      0.5794924613903035,
      0.07098876691941543,
      0.019655632574692626,
      108.35874439461884,
      107.86995515695067,
      9.585076233183857,
      0.9921138806253816,
      20.169470852017934,
      20.27575784753363,
      14.60488789237668,
      5.670869955156951,
      0.17937219730941703,
      0.13004484304932734,
      0.14798206278026907,
      0.04932735426008968,
      0.017937219730941704,
      0.05829596412556054,
      0.008968609865470852,
      0.017937219730941704,
      0.026905829596412557,
      0.07623318385650224,
      0.03587443946188341,
      0.004484304932735426,
      0.008968609865470852,
      0.013452914798206279,
      0.013452914798206279,
      0.004484304932735426,
      0.04035874439461883,
      0.08520179372197309,
      0.0,
      0.004484304932735426,
      0.004484304932735426,
      0.0,
      0.004484304932735426,
      0.004484304932735426,
      0.004484304932735426,
      0.0,
      0.0,
      0.0,
      0.0,
      0.09417040358744394,
      0.08520179372197309,
      0.09865470852017937,
      0.18834080717488788,
      0.017937219730941704,
      0.08520179372197309,
      0.02242152466367713,
      0.03587443946188341,
      0.0,
      0.008968609865470852,
      0.0,
      0.0,
      0.0,
      0.0,
      0.0,
      0.0,
      0.0,
      0.0,
      0.0,
      0.0,
      0.0,
      0.0,
      0.0,
      0.0
    ],
    "scale": [
      66.42995536061375,
      66.42995536061375,
      9.089762422221881,
      0.28088748073786207,
      0.14771289285593767,
      0.19334997445523755,
      0.25536414713198724,
      144.24898380950796,
      248.75842206774578,
      168.01604334827002,
      250.4844843229743,
      132.96805051569115,
      17.152810926773647,
      57.740521546921684,
      75.7369022503073,
      0.2305929013904911,
      0.29872207842526977,
      0.30013335789076356,
      0.2985713499796161,
      2.6303470503682904,
      1.0,
      71.36390107735332,
      61.34174053595821,
      144.26625542373927,
      1.0,
      1.0,
      57.07462497723244,
      2.154905423869687,
      0.4286207406403057,
      1.0,
      1.0,
      1.0,
      0.15696541706863568,
      0.15583413313455818,
      0.09427711229429883,
      0.13272330571254476,
      0.1618082381405266,
      0.11520387962928366,
      1.0,
      1.0,
      1.0,
      0.11520387962928366,
      0.09427711229429883,
      0.11520387962928366,
      1.0,
      0.3836636706046177,
      0.2425673244179107,
      0.2425673244179107,
      1.0,
      1.0,
      1.0,
      0.06681463868049928,
      0.38736712408958235,
      0.29020071188095853,
      78.2024406572419,
      61.674138583109126,
      0.9152721050718571,
      1.2066700101946626,
      1.0,
      0.1618082381405266,
      0.425202734542383,
      0.1878465151041339,
      0.009289148501592744,
      83.11516944665053,
      83.56242071411869,
      2.344053900672032,
      0.12205867535744505,
      87.0101709056999,
      87.00786384430579,
      82.56398734967827,
      30.31833114744359,
      0.3836636706046177,
      0.33635276399281033,
      0.35508220439155436,
      0.21655060928519526,
      0.13272330571254476,
      0.23430225071951807,
      0.09427711229429883,
      0.13272330571254476,
      0.1618082381405266,
      0.26537084530069044,
      0.18597705249621274,
      0.06681463868049928,
      0.09427711229429883,
      0.11520387962928366,
      0.11520387962928366,
      0.06681463868049928,
      0.1967991771972349,
      0.279181747377101,
      1.0,
      0.06681463868049928,
      0.06681463868049928,
      1.0,
      0.06681463868049928,
      0.06681463868049928,
      0.06681463868049928,
      1.0,
      1.0,
      1.0,
      1.0,
      0.292065641039171,
      0.279181747377101,
      0.2981978487631623,
      0.3909840757979788,
      0.13272330571254476,
      0.279181747377101,
      0.14804999120375945,
      0.18597705249621274,
      1.0,
      0.09427711229429883,
      1.0,
      1.0,
      1.0,
      1.0,
      1.0,
      1.0,
      1.0,
      1.0,
      1.0,
      1.0,
      1.0,
      1.0,
      1.0,
      1.0
    ]
  },
  "weights": {
    "caption": {
      "bias": -338.2244077152581,
      "values": [
        -0.07160559917487215,
        -0.07160559917487215,
        0.03617573414514508,
        -0.37461138941562144,
        -0.08943304184985279,
        0.3204215484434579,
        -0.3219024014355672,
        -0.7428130745979545,
        -0.05939015180932061,
        -0.47498812771368376,
        -0.06500036490040412,
        0.20564643317898706,
        -0.08790293549373487,
        0.1700306369709449,
        0.16436582681209483,
        -0.6946480801989288,
        -0.07256032981701933,
        0.07982157728832193,
        -0.06495474882626576,
        0.5621427904061553,
        0.0,
        -0.21311500474682118,
        -0.19026370283756094,
        -0.7425630312041773,
        0.0,
        0.0,
        -0.3710647380375082,
        -0.5703666692151568,
        -0.2732418336596563,
        0.0,
        0.0,
        0.0,
        -0.18884626504393878,
        -0.188916502923074,
        -0.09555881369049744,
        -0.1357562480928697,
        -0.16703121755491024,
        -0.11730085442433758,
        0.0,
        0.0,
        0.0,
        -0.11730085442433758,
        -0.09555881369049744,
        -0.11730085442433758,
        0.0,
        -0.46963054879872584,
        -0.25998169050343295,
        -0.25998169050343295,
        0.0,
        0.0,
        0.0,
        -0.06741792806879614,
        -0.4767691246869329,
        -0.10865421841027699,
        -0.18887324136019115,
        -0.2021282662222927,
        0.010645187577827819,
        -0.07308476090738535,
        0.0,
        -0.16703121755491024,
        0.43093320587649814,
        -0.37961064169991565,
        -0.6660139585856751,
        -1.2975049327375017,
        -1.2846845559754505,
        0.6063415593343722,
        0.06490028186580027,
        -0.23285006928996968,
        -0.23408332523294112,
        -0.1776885558293333,
        -0.18788680639154276,
        -0.46963054879872584,
        -0.38837388781922694,
        -0.4186316487005122,
        -0.22881279213716377,
        -0.1357562480928697,
        -0.24992742655578964,
        -0.09555881369049744,
        -0.1357562480928697,
        -0.16703121755491024,
        -0.2885643918035081,
        -0.19376603485405747,
        -0.06741792806879614,
        -0.09555881369049744,
        -0.11730085442433758,
        -0.11730085442433758,
        -0.06741792806879614,
        -0.20599954287364852,
        -0.3065586715093591,
        0.0,
        14.966780031272743,
        14.966780031272743,
        0.0,
        14.966780031272743,
        -0.06741792806879614,
        -0.06741792806879614,
        0.0,
        0.0,
        0.0,
        0.0,
        -0.32388128318698,
        -0.3065586715093591,
        -0.3323266734154296,
        -0.4838795257915903,
        -0.1357562480928697,
        -0.3065586715093591,
        -0.15212782074079992,
        -0.19376603485405747,
        0.0,
        -0.09555881369049744,
        0.0,
        0.0,
        0.0,
        0.0,
        0.0,
        0.0,
        0.0,
        0.0,
        0.0,
        0.0,
        0.0,
        0.0,
        0.0,
        0.0
      ]
    },
    "footer_header_noise": {
      "bias": -14.887400024984824,
      "values": [
        -0.2385485629984388,
        -0.2385485629984388,
        -0.1337438851504716,
        0.6320119113467599,
        0.18740413061914055,
        -0.43116031012841954,
        -0.07929246781187595,
        0.5747591830526195,
        1.061784076786837,
        0.44031315478897975,
        1.0540809680743788,
        -0.06714961943155616,
        -0.005643611172114326,
        -0.056696770252306496,
        0.7347039447791849,
        0.5625807671354686,
        0.9452527347496423,
        -0.9343508221749168,
        0.952220879314855,
        0.7776867482305436,
        0.0,
        0.8203066798587034,
        1.030475232132545,
        0.5748674379977832,
        0.0,
        0.0,
        -0.962077436459094,
        -0.13893281730558407,
        -0.300295480556652,
        0.0,
        0.0,
        0.0,
        -0.20754391504828915,
        -0.20762110717288332,
        -0.10502008237272492,
        -0.14919746077533205,
        -0.1835689618672776,
        -0.12891480040694525,
        0.0,
        0.0,
        0.0,
        -0.12891480040694525,
        -0.10502008237272492,
        1.2400376039144259,
        0.0,
        0.16897068012825445,
        1.4480491611895592,
        1.4480491611895592,
        0.0,
        0.0,
        0.0,
        0.7127038110129876,
        0.018865497844409978,
        -0.11941206181723511,
        0.7482539736157932,
        1.0107551535960237,
        0.12657110982322503,
        -0.3417156675867034,
        0.0,
        -0.1835689618672776,
        -0.7522689844029841,
        0.31355271575967103,
        -1.006387956609808,
        -1.3329946861148536,
        -1.3269518619966518,
        0.983041278956736,
        -0.17552781132356837,
        0.6728810378962048,
        0.671550304664951,
        0.6236342498554166,
        0.2289185088469695,
        1.5391692862591904,
        0.19834477780593693,
        2.204800527082973,
        -0.25146752403193245,
        0.6429700095317881,
        1.071525431773571,
        -0.10502008237272492,
        -0.14919746077533205,
        -0.1835689618672776,
        0.47525851865799507,
        -0.21295079078020177,
        -0.07409297045184526,
        -0.10502008237272492,
        -0.12891480040694525,
        -0.12891480040694525,
        -0.07409297045184526,
        -0.22639553721757416,
        0.039686259938567364,
        0.0,
        -0.07409297045184526,
        -0.07409297045184526,
        0.0,
        -0.07409297045184526,
        -0.07409297045184526,
        -0.07409297045184526,
        0.0,
        0.0,
        0.0,
        0.0,
        0.7240045738326046,
        0.039686259938567364,
        -0.36523030444666027,
        0.0060293468223509275,
        -0.14919746077533205,
        0.039686259938567364,
        -0.16718998121018605,
        -0.21295079078020177,
        0.0,
        -0.10502008237272492,
        0.0,
        0.0,
        0.0,
        0.0,
        0.0,
        0.0,
        0.0,
        0.0,
        0.0,
        0.0,
        0.0,
        0.0,
        0.0,
        0.0
      ]
    },
    "form_row": {
      "bias": -5.87745291515271,
      "values": [
        -0.20091673823502926,
        -0.20091673823502926,
        -0.23945125546982257,
        -0.16014307369209785,
        0.05453261552214982,
        0.393387735204739,
        -0.37611754272997855,
        0.06506876985850835,
        0.36946132768490836,
        -0.1856538313284235,
        0.3447318507803012,
        -0.305178017912542,
        -0.32394906241696964,
        0.1986673758292093,
        0.19204849238044763,
        -0.1149569585027137,
        0.3686284199707538,
        -0.35002983705941226,
        0.3857679754264392,
        -0.6547642057528237,
        0.0,
        -0.1971767608871174,
        -0.06923985276813388,
        0.06524922821981308,
        0.0,
        0.0,
        0.43410505430954816,
        -0.4023523282254577,
        0.6764771874475688,
        0.0,
        0.0,
        0.0,
        -0.2206519517881811,
        -0.2207340192048549,
        -0.11165292968047597,
        -0.1586204582979846,
        -0.1951627910378425,
        -0.13705678780106811,
        0.0,
        0.0,
        0.0,
        -0.13705678780106811,
        0.6428502011906192,
        -0.13705678780106811,
        0.0,
        0.5636914807255903,
        -0.30376808048295845,
        -0.30376808048295845,
        0.0,
        0.0,
        0.0,
        -0.07877252648038285,
        0.5447152625172144,
        -0.1269538762477973,
        -0.11608030032033996,
        -0.08392763290909688,
        -0.06527912905695701,
        -0.17381775305961528,
        0.0,
        -0.1951627910378425,
        0.4684142896861859,
        -0.31446890614190093,
        0.5826034663570345,
        1.0681437330811911,
        1.069292043185752,
        -0.7936587750115546,
        0.14867735364662155,
        -0.2720669230651225,
        -0.2735078852721733,
        -0.20761504944269468,
        -0.21953090009959209,
        -0.5487262201753533,
        -0.2423027585216342,
        -0.38897477998149377,
        -0.10311007074993547,
        -0.1586204582979846,
        -0.14022428010366056,
        0.6428502011906192,
        -0.1586204582979846,
        -0.1951627910378425,
        -0.3371647104230463,
        -0.22640031440842504,
        -0.07877252648038285,
        0.6428502011906192,
        0.4803909633027337,
        -0.13705678780106811,
        -0.07877252648038285,
        -0.2406942027260525,
        -0.35818960565830377,
        0.0,
        -0.07877252648038285,
        -0.07877252648038285,
        0.0,
        -0.07877252648038285,
        -0.07877252648038285,
        -0.07877252648038285,
        0.0,
        0.0,
        0.0,
        0.0,
        0.10866884885421435,
        1.552726233140781,
        -0.38829748156960725,
        0.98104396451503,
        -0.1586204582979846,
        1.552726233140781,
        -0.1777493484445136,
        -0.22640031440842504,
        0.0,
        0.6428502011906192,
        0.0,
        0.0,
        0.0,
        0.0,
        0.0,
        0.0,
        0.0,
        0.0,
        0.0,
        0.0,
        0.0,
        0.0,
        0.0,
        0.0
      ]
    },
    "heading": {
      "bias": -8.467945945953453,
      "values": [
        -0.18267609498289325,
        -0.18267609498289325,
        -0.1684461551373819,
        -0.36239964277251724,
        -0.33015682095151505,
        0.5110563143153622,
        0.40608160321156306,
        -0.4173071505983716,
        0.6988126692479795,
        -0.42821578231126856,
        0.6932467608467376,
        -0.08837453047851036,
        -0.010959108953745998,
        0.36343012024219307,
        0.1410461604581395,
        -0.5151254814818312,
        0.7322258836848906,
        -0.724646018142054,
        0.7367539886534082,
        0.7830786047339638,
        0.0,
        0.5246117085710041,
        -0.021666227050087278,
        -0.4170868704185111,
        0.0,
        0.0,
        -0.6237189545986328,
        -0.6029590503131658,
        -0.2888556527259224,
        0.0,
        0.0,
        0.0,
        -0.19963748018930672,
        -0.1997117316615354,
        -0.10101931732995446,
        -0.14351374798389083,
        -0.17657585855804797,
        -0.12400376039144258,
        0.0,
        0.0,
        0.0,
        -0.12400376039144258,
        -0.10101931732995446,
        -0.12400376039144258,
        0.0,
        0.7809801203264966,
        -0.2748377871036291,
        -0.2748377871036291,
        0.0,
        0.0,
        0.0,
        -0.07127038110129877,
        1.1829650214089555,
        -0.11486303089086425,
        -0.04459054232078787,
        -0.022524782733405087,
        1.264276641279585,
        1.3822334354945678,
        0.0,
        -0.17657585855804797,
        0.2422778321718524,
        -0.3741245784581315,
        -0.8912339552345228,
        -0.35150925048048837,
        -0.3561242937231,
        0.06669888755585518,
        1.8271717581181999,
        0.4075965358983222,
        0.4063101427898256,
        0.27251949652627744,
        0.4238980455810801,
        0.5680723369123049,
        -0.1677115886922285,
        -0.44255345719768435,
        -0.24188780883071598,
        -0.14351374798389083,
        -0.2642089937875491,
        -0.10101931732995446,
        -0.14351374798389083,
        -0.17657585855804797,
        -0.30505378562085145,
        -0.20483837970286076,
        -0.07127038110129877,
        -0.10101931732995446,
        -0.12400376039144258,
        -0.12400376039144258,
        -0.07127038110129877,
        0.19729675388289364,
        -0.32407630988132247,
        0.0,
        -0.07127038110129877,
        -0.07127038110129877,
        0.0,
        -0.07127038110129877,
        -0.07127038110129877,
        -0.07127038110129877,
        0.0,
        0.0,
        0.0,
        0.0,
        -0.3423887850833788,
        -0.32407630988132247,
        -0.3513167690391684,
        -0.5115297844082526,
        -0.14351374798389083,
        -0.32407630988132247,
        0.3909183472750402,
        0.23438237677538878,
        0.0,
        -0.10101931732995446,
        0.0,
        0.0,
        0.0,
        0.0,
        0.0,
        0.0,
        0.0,
        0.0,
        0.0,
        0.0,
        0.0,
        0.0,
        0.0,
        0.0
      ]
    },
    "keep_as_text": {
      "bias": -89.7366905984011,
      "values": [
        4.552757804443913,
        4.552757804443913,
        3.5373982394120063,
        -0.5153787658502158,
        1.0501052894396397,
        -0.5844114577424099,
        -0.3263120233730407,
        -0.3517788342116964,
        -0.7739023572488962,
        0.9869004509650535,
        -0.48121002779031213,
        1.6286532552039394,
        4.1963433205744956,
        1.7595265684013588,
        -1.0434114217831882,
        0.1873456817907999,
        -0.49225595848554593,
        0.308199244379734,
        -0.6751973086859433,
        0.2833732008517031,
        0.0,
        0.1730447650584461,
        0.16796628030705274,
        -0.3515733985603183,
        0.0,
        0.0,
        0.012249401555925996,
        -0.5781799112592,
        3.880451530758275,
        0.0,
        0.0,
        0.0,
        1.3148073709925285,
        1.2521634767614682,
        -0.09686783853557275,
        1.780406000245358,
        -0.16931931642552547,
        2.090793996554346,
        0.0,
        0.0,
        0.0,
        2.090793996554346,
        -0.09686783853557275,
        -0.11890771544384905,
        0.0,
        -0.4760638439877495,
        -0.2635430835240279,
        -0.2635430835240279,
        0.0,
        0.0,
        0.0,
        -0.06834146133001252,
        -0.4833002085867539,
        4.275894334875666,
        0.20551403592062742,
        0.47425166587891343,
        0.010791012065195322,
        -0.07408592201570569,
        0.0,
        1.4039393320283153,
        0.24714598533379095,
        -0.3457456558491126,
        -0.8039689137696855,
        -0.9722439323179253,
        -0.9976409980852504,
        0.2931891375686706,
        0.06578932682286603,
        1.0109711506954104,
        1.0097540660169562,
        1.1340415450657957,
        -0.19046059825992007,
        -0.4760638439877495,
        0.3631488478687575,
        -0.4243663288196973,
        -0.2319472139472619,
        -0.13761592272427886,
        -0.2533510899332662,
        -0.09686783853557275,
        -0.13761592272427886,
        -0.16931931642552547,
        1.6260522094133216,
        -0.19642036409863362,
        -0.06834146133001252,
        -0.09686783853557275,
        -0.11890771544384905,
        -0.11890771544384905,
        -0.06834146133001252,
        2.378244342003994,
        0.6010715985361947,
        0.0,
        -0.06834146133001252,
        -0.06834146133001252,
        0.0,
        -0.06834146133001252,
        -0.06834146133001252,
        -0.06834146133001252,
        0.0,
        0.0,
        0.0,
        0.0,
        1.4148942945226388,
        -0.3107581053656517,
        -0.3368790935992026,
        1.4627649656879826,
        3.698427923214995,
        -0.3107581053656517,
        3.284710562351354,
        2.5411884605260724,
        0.0,
        -0.09686783853557275,
        0.0,
        0.0,
        0.0,
        0.0,
        0.0,
        0.0,
        0.0,
        0.0,
        0.0,
        0.0,
        0.0,
        0.0,
        0.0,
        0.0
      ]
    },
    "link_text": {
      "bias": -118.09355493433607,
      "values": [
        0.881606320149266,
        0.881606320149266,
        -0.1593694168996995,
        -0.5281927200180019,
        2.8594219240532044,
        -0.6428445182127045,
        -0.3263120233730407,
        -0.8643314347794696,
        -0.07754023876895855,
        0.7315549235349722,
        -0.07297944073988312,
        1.8620404971390265,
        0.05879910105226098,
        -1.7176030653457144,
        -2.1595957984899936,
        0.4787944812053753,
        0.09024573340954588,
        -0.2618864816550544,
        -0.08267398402689968,
        1.4466743874082169,
        0.0,
        -0.10766417115674351,
        -0.06679405197441797,
        -0.8640646361242189,
        0.0,
        0.0,
        -1.2450906973146092,
        -0.5781799112592,
        -0.2769848724769119,
        0.0,
        0.0,
        0.0,
        4.992883014022293,
        5.0304475586297865,
        2.6033231606435177,
        5.616449846184631,
        2.9771979804821562,
        4.30049570855254,
        0.0,
        0.0,
        0.0,
        4.30049570855254,
        -0.09686783853557275,
        -0.11890771544384905,
        0.0,
        -0.4760638439877495,
        -0.2635430835240279,
        -0.2635430835240279,
        0.0,
        0.0,
        0.0,
        -0.06834146133001252,
        -0.4833002085867539,
        -0.1101426323611027,
        -0.1609916795150327,
        -0.07966574505365531,
        0.010791012065195322,
        -0.07408592201570569,
        0.0,
        -0.16931931642552547,
        -0.24951212296244635,
        -0.20001324636764187,
        -0.31889680804379467,
        -1.0580026924664412,
        -1.076847911966204,
        1.5985711698980467,
        0.06578932682286603,
        -0.23603979626654462,
        -0.23728994612654306,
        -0.18012264563521457,
        -0.19046059825992007,
        -0.4760638439877495,
        0.3631488478687575,
        -0.4243663288196973,
        -0.2319472139472619,
        -0.13761592272427886,
        -0.2533510899332662,
        -0.09686783853557275,
        -0.13761592272427886,
        -0.16931931642552547,
        -0.2925173286775288,
        -0.19642036409863362,
        -0.06834146133001252,
        -0.09686783853557275,
        -0.11890771544384905,
        4.30049570855254,
        3.7416950078181856,
        4.965310138427851,
        -0.3107581053656517,
        0.0,
        -0.06834146133001252,
        -0.06834146133001252,
        0.0,
        -0.06834146133001252,
        -0.06834146133001252,
        -0.06834146133001252,
        0.0,
        0.0,
        0.0,
        0.0,
        -0.32831801309365094,
        -0.3107581053656517,
        -0.3368790935992026,
        -0.4905080124462697,
        -0.13761592272427886,
        -0.3107581053656517,
        1.56524939943034,
        3.9099928728384254,
        0.0,
        -0.09686783853557275,
        0.0,
        0.0,
        0.0,
        0.0,
        0.0,
        0.0,
        0.0,
        0.0,
        0.0,
        0.0,
        0.0,
        0.0,
        0.0,
        0.0
      ]
    },
    "list_item": {
      "bias": -21.300528690663395,
      "values": [
        0.9296560416238074,
        0.9296560416238074,
        1.2094100757496185,
        0.05746799433512706,
        0.812550811950114,
        -0.6019717704388192,
        -0.3339361360686725,
        -0.6247498988746935,
        0.6736283574468547,
        0.9613280305695165,
        0.6951921535163464,
        1.8924701770681924,
        0.3826848467213728,
        0.537331384637925,
        -0.10466755341383238,
        0.17616615455086454,
        0.7774995792742887,
        -0.7846007083884938,
        0.767078741462308,
        0.6588693442951189,
        0.0,
        0.1535883793859186,
        -0.005001400198182495,
        -0.6286492368899251,
        0.0,
        0.0,
        -0.4809154496690411,
        -0.46887636218265566,
        -0.013324877342377207,
        0.0,
        0.0,
        0.0,
        -0.19590593850352528,
        -0.19597880209776836,
        -0.09913110579107678,
        -0.1408312480215751,
        -0.17327537522051437,
        -0.12168593309440627,
        0.0,
        0.0,
        0.0,
        -0.12168593309440627,
        -0.09913110579107678,
        -0.12168593309440627,
        0.0,
        -0.48718683099680904,
        -0.26970063220449586,
        -0.26970063220449586,
        0.0,
        0.0,
        0.0,
        -0.06993822444519973,
        -0.4945922695350425,
        -0.11271605835084808,
        -0.1269095697998982,
        0.03901050902785895,
        0.14766560114586433,
        -0.36367689801102726,
        0.0,
        -0.17327537522051437,
        -0.08332001076697125,
        -0.36325210043756884,
        -0.9339455139946307,
        -0.9322724338322796,
        -0.9710688024548085,
        0.5657832251760055,
        0.3250963048726262,
        1.0808911128198295,
        1.079646819230667,
        0.11207733427847291,
        2.793168641973445,
        -0.48718683099680904,
        -0.40289253783116064,
        -0.4342814299603444,
        -0.23736654137593624,
        -0.1408312480215751,
        -0.2592705079223612,
        -0.09913110579107678,
        -0.1408312480215751,
        -0.17327537522051437,
        2.318509393187614,
        1.6667048068112442,
        -0.06993822444519973,
        -0.09913110579107678,
        -0.12168593309440627,
        -0.12168593309440627,
        -0.06993822444519973,
        0.37463537495955324,
        0.9261600395526235,
        0.0,
        -0.06993822444519973,
        -0.06993822444519973,
        0.0,
        -0.06993822444519973,
        1.6629755590303046,
        1.6629755590303046,
        0.0,
        0.0,
        0.0,
        0.0,
        0.4568739240209157,
        -0.3180188087620454,
        1.20836651373002,
        0.38643605208411613,
        -0.1408312480215751,
        -0.3180188087620454,
        0.6242453753264227,
        0.4215618523090417,
        0.0,
        -0.09913110579107678,
        0.0,
        0.0,
        0.0,
        0.0,
        0.0,
        0.0,
        0.0,
        0.0,
        0.0,
        0.0,
        0.0,
        0.0,
        0.0,
        0.0
      ]
    },
    "paragraph": {
      "bias": -5.3412167735997755,
      "values": [
        0.2247719302089677,
        0.2247719302089677,
        0.3075172947592515,
        -0.6811668379521167,
        -0.36743685957684025,
        -0.5630075833174684,
        1.1602640024151225,
        -0.8380822345005753,
        0.4700688784444498,
        -0.18939808483950513,
        0.49441064178454025,
        0.6698646291164897,
        0.4027679320717905,
        -0.7660995312253851,
        -0.3149969913097261,
        -0.4693451182951107,
        0.5266082705908999,
        -0.5366092122373721,
        0.5143316982030096,
        0.8679244979348215,
        0.0,
        -0.04005640248037079,
        -0.05454842590426161,
        -0.8377798243819155,
        0.0,
        0.0,
        -0.4902042870608468,
        -0.6536408586990903,
        -0.08711025863057124,
        0.0,
        0.0,
        0.0,
        0.19154966772850804,
        0.1945716150411633,
        0.1706608584958884,
        -0.1702705484554637,
        0.4675725264691125,
        -0.14712310554916916,
        0.0,
        0.0,
        0.0,
        -0.14712310554916916,
        -0.11985342734062392,
        -0.14712310554916916,
        0.0,
        -0.44625284535631315,
        -0.3260787304619328,
        -0.3260787304619328,
        0.0,
        0.0,
        0.0,
        -0.08455807927272735,
        -0.3858661846528012,
        0.05247979303783038,
        0.13379281494835854,
        -0.07875127837920542,
        -0.2846941200809398,
        0.16575099522425538,
        0.0,
        0.636839853421405,
        -0.2640322984936346,
        0.2676731669590778,
        -0.9962165809496102,
        -1.0628961121937812,
        -1.0570484334961883,
        0.883018742357175,
        0.2430885904662096,
        -0.2891564338139867,
        -0.28324209750938856,
        -0.21195239049836193,
        -0.23565463852498583,
        0.6245619091034197,
        -0.3242551383169903,
        -0.5250634237938628,
        -0.28698553590084946,
        -0.1702705484554637,
        -0.3134682977140413,
        -0.11985342734062392,
        -0.1702705484554637,
        -0.20949678134005692,
        0.050910619213675415,
        0.34605157366898176,
        0.3253647832885379,
        -0.11985342734062392,
        0.0906193041426042,
        0.0906193041426042,
        -0.08455807927272735,
        -0.11920075079735316,
        0.7927507607421559,
        0.0,
        -0.08455807927272735,
        -0.08455807927272735,
        0.0,
        -0.08455807927272735,
        -0.08455807927272735,
        -0.08455807927272735,
        0.0,
        0.0,
        0.0,
        0.0,
        -0.31244763856171764,
        -0.18828930388326456,
        1.2364458003264365,
        -0.32669551448328593,
        -0.1702705484554637,
        -0.3844973168083487,
        -0.19080438533591856,
        -0.09575854614885947,
        0.0,
        -0.11985342734062392,
        0.0,
        0.0,
        0.0,
        0.0,
        0.0,
        0.0,
        0.0,
        0.0,
        0.0,
        0.0,
        0.0,
        0.0,
        0.0,
        0.0
      ]
    },
    "separator": {
      "bias": -36.35378349839919,
      "values": [
        -0.23922555770206422,
        -0.23922555770206422,
        -0.2782644562834313,
        -0.5549039985454687,
        1.8875438293671918,
        -0.6814309190938748,
        -0.32780886751695376,
        -0.059279902445384135,
        -0.4108845261460578,
        0.032943818661095164,
        -0.41400069353455937,
        0.10593639372513225,
        -0.08685246165021741,
        -0.14042417561167578,
        -2.151133445460895,
        0.2629928547609413,
        -0.09665588330510429,
        0.09665456580024238,
        -0.09624913213784109,
        0.5882465815048296,
        0.0,
        0.227842522384358,
        -0.1462381430677349,
        -0.059108735707155434,
        0.0,
        0.0,
        0.23191807467670514,
        -0.5130176827764188,
        0.6763747746962672,
        0.0,
        0.0,
        0.0,
        -0.1923113341273138,
        -0.19238286077487352,
        -0.09731218641876345,
        -0.13824718842484895,
        -0.17009601053756915,
        -0.11945316367983001,
        0.0,
        0.0,
        0.0,
        -0.11945316367983001,
        -0.09731218641876345,
        -0.11945316367983001,
        0.0,
        -0.4782476230886107,
        -0.2647519967512023,
        -0.2647519967512023,
        0.0,
        0.0,
        0.0,
        -0.06865495427189332,
        -0.48551718202063804,
        -0.11064787379395179,
        0.03874568274458438,
        0.09880454448785475,
        1.0562718359182264,
        0.7185450716977306,
        0.0,
        -0.17009601053756915,
        -1.3941198509178314,
        2.880780183454542,
        -0.634340241912501,
        -0.9151665176151736,
        -0.9140779809222769,
        0.22697993883870887,
        0.8111297319846725,
        1.7260497154604098,
        1.7248458855610027,
        1.8879428761470383,
        -0.19133427072900228,
        -0.4782476230886107,
        -0.3955000142012311,
        -0.4263129633555675,
        -0.23301119199289153,
        -0.13824718842484895,
        -0.25451325089626287,
        -0.09731218641876345,
        6.027577415323415,
        -0.17009601053756915,
        0.4770889750292646,
        0.9027452903647866,
        -0.06865495427189332,
        -0.09731218641876345,
        -0.11945316367983001,
        -0.11945316367983001,
        -0.06865495427189332,
        -0.2097793509997705,
        -0.31218360126182443,
        0.0,
        -0.06865495427189332,
        -0.06865495427189332,
        0.0,
        -0.06865495427189332,
        -0.06865495427189332,
        -0.06865495427189332,
        0.0,
        0.0,
        0.0,
        0.0,
        1.0711428964535061,
        -0.31218360126182443,
        -0.33842441054231825,
        -0.4927580492006103,
        -0.13824718842484895,
        -0.31218360126182443,
        -0.15491915690118158,
        -0.19732137494312274,
        0.0,
        -0.09731218641876345,
        0.0,
        0.0,
        0.0,
        0.0,
        0.0,
        0.0,
        0.0,
        0.0,
        0.0,
        0.0,
        0.0,
        0.0,
        0.0,
        0.0
      ]
    },
    "table_like": {
      "bias": -2.4769874282518356,
      "values": [
        -0.4508185067515307,
        -0.4508185067515307,
        -0.41991604866856935,
        0.5366808920628412,
        -0.3609851361640658,
        0.46123773867314505,
        -0.525458331755117,
        0.6435856093653072,
        -1.0688104909386376,
        -0.10818092297495693,
        -1.0935357124547664,
        -0.8348825177089023,
        -0.46861810824800026,
        0.2775500103496306,
        0.2683030408256254,
        0.21186003202270703,
        -1.152089538719509,
        1.1708127297939614,
        -1.1284043396839398,
        -1.0098470238988606,
        0.0,
        -0.3299201164555766,
        -0.2798526057771077,
        0.6437715531539083,
        0.0,
        0.0,
        0.751275156172768,
        1.0718358638225842,
        -0.446027110826792,
        0.0,
        0.0,
        0.0,
        -0.30826375617466484,
        -0.30837840918325315,
        -0.15598571058301788,
        -0.2216021108574785,
        -0.2726538992440447,
        -0.19147639472208045,
        0.0,
        0.0,
        0.0,
        -0.19147639472208045,
        -0.15598571058301788,
        -0.19147639472208045,
        0.0,
        -0.02973890201888483,
        0.041811022378848234,
        0.041811022378848234,
        0.0,
        0.0,
        0.0,
        -0.1100498531711231,
        -0.09709102604722641,
        -0.17736203299324627,
        -0.2711929918213133,
        -0.29938535524083876,
        -0.22972612807771775,
        -0.21301519427973342,
        0.0,
        -0.2726538992440447,
        0.28135315002593225,
        -0.20237270948752137,
        1.2493351481165558,
        1.1351126607094304,
        1.138628475707406,
        -0.8193326259168261,
        -0.7433199703502489,
        -0.380093495458627,
        -0.38210660442435973,
        -0.29005043672141173,
        -0.3066975810214889,
        -0.619230026482113,
        0.37464891706867337,
        0.05974294857522983,
        0.49683345576491567,
        0.06240519213802555,
        0.07466820720825375,
        -0.15598571058301788,
        -0.2216021108574785,
        0.4262175896228744,
        -0.47103893367925587,
        -0.3162945568941232,
        -0.1100498531711231,
        -0.15598571058301788,
        -0.19147639472208045,
        -0.19147639472208045,
        -0.1100498531711231,
        -0.33626395969080863,
        -0.4329032590359825,
        0.0,
        -0.1100498531711231,
        -0.1100498531711231,
        0.0,
        -0.1100498531711231,
        -0.1100498531711231,
        -0.1100498531711231,
        0.0,
        0.0,
        0.0,
        0.0,
        -0.2705658502814057,
        -0.5004119490814538,
        -0.5424744227810689,
        -0.2596126060996921,
        0.06240519213802555,
        -0.36539456899051104,
        -0.24832629562101163,
        -0.3162945568941232,
        0.0,
        -0.15598571058301788,
        0.0,
        0.0,
        0.0,
        0.0,
        0.0,
        0.0,
        0.0,
        0.0,
        0.0,
        0.0,
        0.0,
        0.0,
        0.0,
        0.0
      ]
    }
  },
  "thresholds": {
    "caption": {
      "min_score": 8.162442945004472,
      "min_confidence": 0.5
    },
    "footer_header_noise": {
      "min_score": 2.137335845563372,
      "min_confidence": 0.5
    },
    "form_row": {
      "min_score": -3.4050732775508465,
      "min_confidence": 0.5
    },
    "heading": {
      "min_score": 6.20503512136759,
      "min_confidence": 0.5
    },
    "keep_as_text": {
      "min_score": -9.167761313602078,
      "min_confidence": 0.5
    },
    "link_text": {
      "min_score": 119.99830016110687,
      "min_confidence": 0.5
    },
    "list_item": {
      "min_score": 16.253524659150735,
      "min_confidence": 0.5
    },
    "paragraph": {
      "min_score": 6.686863472345719,
      "min_confidence": 0.5
    },
    "separator": {
      "min_score": 16.28733966368541,
      "min_confidence": 0.5
    },
    "table_like": {
      "min_score": 0.9654025597034082,
      "min_confidence": 0.5
    }
  },
  "metadata": {
    "trained_from": "samples/pdf_layout_classifier/manifest.tsv,.external/layout_model/pdf_eval_manifest.local.tsv,.external/layout_model/pdf_eval_manifest_round2.local.tsv,.external/layout_model/pdf_eval_manifest_round3.local.tsv,.external/layout_model/pdf_eval_manifest_round4.local.tsv,.external/layout_model/pdf_eval_manifest_round5_candidates.local.tsv,.external/layout_model/pdf_eval_manifest_round6.local.tsv,.external/layout_model/pdf_eval_manifest_round7.local.tsv,.external/layout_model/pdf_eval_manifest_round8.local.tsv",
    "sample_count": "223",
    "label_counts": {
      "caption": "1",
      "footer_header_noise": "21",
      "form_row": "33",
      "heading": "13",
      "keep_as_text": "4",
      "link_text": "4",
      "list_item": "9",
      "paragraph": "46",
      "separator": "5",
      "table_like": "87"
    },
    "notes": "training spike / local corpus only"
  }
}
