{
  "version": 1,
  "task": "pdf_layout_classifier",
  "model_type": "linear_v1",
  "labels": [
    "caption",
    "footer_header_noise",
    "form_row",
    "heading",
    "keep_as_text",
    "link_text",
    "list_item",
    "paragraph",
    "separator",
    "table_like"
  ],
  "features": [
    "text_len",
    "normalized_text_len",
    "word_count",
    "digit_ratio",
    "punctuation_ratio",
    "uppercase_ratio",
    "cjk_ratio",
    "x0",
    "y0",
    "x1",
    "y1",
    "width",
    "height",
    "page_width",
    "page_height",
    "x_center_ratio",
    "y_center_ratio",
    "top_ratio",
    "bottom_ratio",
    "font_size_hint",
    "bold_hint",
    "line_gap_before",
    "line_gap_after",
    "indent_left",
    "alignment_hint",
    "near_image_distance",
    "page_edge_distance",
    "repeated_text_score",
    "source_ref_count",
    "has_rich_inline_payload",
    "has_link_inline",
    "link_inline_count",
    "is_heading_candidate",
    "is_page_number_candidate",
    "is_header_footer_candidate",
    "is_artifact_candidate",
    "is_caption_candidate",
    "is_table_cell_candidate",
    "is_noise_kind",
    "is_heading_kind",
    "line_count",
    "prev_gap_before",
    "next_gap_before",
    "prev_font_size_delta",
    "next_font_size_delta",
    "same_paragraph_candidate",
    "wrapped_candidate",
    "latin_ratio",
    "symbol_ratio",
    "text_density",
    "page_line_count",
    "page_block_count",
    "page_median_font_size",
    "relative_font_size",
    "near_annotation_distance",
    "near_link_annotation_distance",
    "near_uri_annotation_distance",
    "near_dest_annotation_distance",
    "top_zone_candidate",
    "bottom_zone_candidate",
    "repeated_edge_candidate",
    "contains_currency",
    "contains_time",
    "contains_date",
    "looks_like_address",
    "looks_like_separator",
    "looks_like_page_number",
    "looks_like_bullet",
    "looks_like_list_marker_token",
    "contains_url",
    "contains_email",
    "contains_url_or_email",
    "contains_path_like",
    "caption_marker_signal",
    "has_raw_hyphen",
    "ends_with_colon",
    "has_terminal_period",
    "contains_clause_punctuation",
    "has_markdown_escape_chars",
    "form_key_value_signal",
    "option_like_signal",
    "code_like_signal",
    "monospace_hint",
    "boundary_prev_no_sentence_end",
    "boundary_next_starts_lowercase",
    "boundary_next_continues_sentence",
    "boundary_similar_indent",
    "boundary_same_column_band",
    "boundary_table_guard",
    "boundary_caption_guard",
    "boundary_noise_guard",
    "boundary_heading_guard",
    "boundary_list_guard",
    "boundary_layout_compatible"
  ],
  "normalization": {
    "mean": [
      24.977272727272727,
      24.977272727272727,
      4.172727272727273,
      0.1542922385424494,
      0.049038819517826,
      0.13051652046692863,
      0.08294962613144431,
      178.32965872727272,
      387.8359622727273,
      277.8383751818182,
      401.5534154545454,
      99.50871645454545,
      13.717453181818188,
      600.4567272727273,
      781.0746363636364,
      0.38123166246141355,
      0.49899885212674666,
      0.4909604070687736,
      0.4889581113222669,
      9.500290909090909,
      0.0,
      14.244269585884444,
      12.664102468002326,
      178.32965872727272,
      -1.0,
      0.0,
      93.91363695454547,
      1.240909090909091,
      1.0954545454545455,
      0.0,
      0.0,
      0.0,
      0.18181818181818182,
      0.06363636363636363,
      0.06363636363636363,
      0.0,
      0.0,
      0.0,
      0.004545454545454545,
      0.18636363636363637,
      1.0227272727272727,
      13.19873287131529,
      13.113631377195036,
      -0.02837727272727274,
      0.07262727272727272,
      0.0,
      0.031818181818181815,
      0.5840745788513676,
      0.07210518268514261,
      0.019687393514308187,
      109.24545454545455,
      108.83181818181818,
      9.579418181818182,
      0.9899737714626482,
      18.08588727272727,
      18.193623636363636,
      12.18326,
      6.010363636363636,
      0.18181818181818182,
      0.1318181818181818,
      0.15,
      0.05,
      0.01818181818181818,
      0.05909090909090909,
      0.00909090909090909,
      0.022727272727272728,
      0.02727272727272727,
      0.08636363636363636,
      0.031818181818181815,
      0.0,
      0.00909090909090909,
      0.00909090909090909,
      0.013636363636363636,
      0.004545454545454545,
      0.1,
      0.08636363636363636,
      0.10454545454545454,
      0.17727272727272728,
      0.02727272727272727,
      0.08636363636363636,
      0.031818181818181815,
      0.045454545454545456,
      0.0,
      0.0,
      0.0,
      0.0,
      0.0,
      0.0,
      0.0,
      0.0,
      0.0,
      0.0,
      0.0,
      0.0
    ],
    "scale": [
      65.92919364272677,
      65.92919364272677,
      11.67698520471249,
      0.282310358345649,
      0.10783625035115423,
      0.1941053257046811,
      0.2569192904431973,
      143.1176945639577,
      250.23200160661952,
      164.64719294596657,
      251.63993579604835,
      131.9123283532498,
      18.139481748298472,
      55.21290531139998,
      74.53900153827065,
      0.22909659722315015,
      0.29992292597081593,
      0.3010472804341066,
      0.30016723824763064,
      2.640614101597149,
      1.0,
      71.60798463794247,
      63.415237029458716,
      143.1176945639577,
      1.0,
      1.0,
      56.863436915089764,
      2.1645087770461764,
      0.3370692843902257,
      1.0,
      1.0,
      1.0,
      0.385694607919935,
      0.24410402876541004,
      0.24410402876541004,
      1.0,
      1.0,
      1.0,
      0.06726658448613064,
      0.3893998348804974,
      0.14903269373413638,
      77.18795795181806,
      63.58666889995767,
      0.9363994283869842,
      1.2281791722937652,
      1.0,
      0.17551576887552564,
      0.423995795195148,
      0.18888881634040047,
      0.009375565109143731,
      83.33292335987308,
      83.72044328577664,
      2.3579144767504654,
      0.12304311850226585,
      81.22485191150002,
      81.22510955638703,
      76.18247796493291,
      30.662682846129332,
      0.385694607919935,
      0.3382929924789022,
      0.3570714214271425,
      0.21794494717703367,
      0.133608531424537,
      0.2357947699880534,
      0.09491187735373227,
      0.14903269373413638,
      0.162877026065172,
      0.2809002646450977,
      0.17551576887552564,
      1.0,
      0.09491187735373227,
      0.09491187735373227,
      0.11597591656520975,
      0.06726658448613064,
      0.3,
      0.2809002646450977,
      0.3059668323190258,
      0.38189934202354486,
      0.162877026065172,
      0.2809002646450977,
      0.17551576887552564,
      0.20829889522526548,
      1.0,
      1.0,
      1.0,
      1.0,
      1.0,
      1.0,
      1.0,
      1.0,
      1.0,
      1.0,
      1.0,
      1.0
    ]
  },
  "weights": {
    "caption": {
      "bias": -114.63231510030079,
      "values": [
        -0.06060189074366314,
        -0.06060189074366314,
        -0.014859655869490533,
        -0.3795832492557587,
        -0.013226117106638315,
        0.3103132705819421,
        -0.3243368429199085,
        -0.746345045653111,
        -0.06899372132842616,
        -0.4713175250673811,
        -0.07506469805490781,
        0.22146584143589462,
        -0.0895747097591575,
        0.21002303120545193,
        0.14724172466836005,
        -0.6951272323396324,
        -0.07826757494697502,
        0.0859900123506982,
        -0.07016562145075178,
        0.5705328456416047,
        0.0,
        -0.19982844071244318,
        -0.20061313362277916,
        -0.746345045653111,
        0.0,
        0.0,
        -0.3871327590805994,
        -0.5759160487983365,
        -0.28448279151977435,
        0.0,
        0.0,
        0.0,
        -0.4735570528494382,
        -0.2618840047933202,
        -0.2618840047933202,
        0.0,
        0.0,
        0.0,
        -0.06788229372049631,
        -0.4807773273185908,
        -0.15319491083640652,
        -0.17177551278424516,
        -0.20717410111938517,
        0.030443044336511006,
        -0.05940412095845098,
        0.0,
        -0.18211167306740933,
        0.42133010526543735,
        -0.3834765419045679,
        -0.6633187975023562,
        -1.304883131938201,
        -1.2938799254022264,
        0.6052248744481115,
        0.0818575677000062,
        -0.22368118630333103,
        -0.2250129257220784,
        -0.1606523133814907,
        -0.19691063073237433,
        -0.4735570528494382,
        -0.3914361049984189,
        -0.4220022171043317,
        -0.2304632942991945,
        -0.13670414596963448,
        -0.251747443747861,
        -0.09621999212267275,
        -0.15319491083640652,
        -0.16820825463138145,
        -0.3088569210755068,
        -0.18211167306740933,
        0.0,
        -0.09621999212267275,
        -0.09621999212267275,
        -0.11811616189542228,
        14.866222324788692,
        -0.334855403348554,
        -0.3088569210755068,
        -0.3432490713265384,
        -0.46630662110395255,
        -0.16820825463138145,
        -0.3088569210755068,
        -0.18211167306740933,
        -0.21921431895853116,
        0.0,
        0.0,
        0.0,
        0.0,
        0.0,
        0.0,
        0.0,
        0.0,
        0.0,
        0.0,
        0.0,
        0.0
      ]
    },
    "footer_header_noise": {
      "bias": -14.137759778231095,
      "values": [
        -0.22798865100655405,
        -0.22798865100655405,
        -0.15160419750900797,
        0.6221950225214733,
        0.37733780670678363,
        -0.4398657284180973,
        -0.0837261897795219,
        0.5827502693857887,
        1.0460802251333223,
        0.4647280731971843,
        1.0393306118714967,
        -0.052199081100865664,
        -0.012440274597397721,
        -0.023942992756061494,
        0.7258076335023739,
        0.5715719586780611,
        0.9362089692163691,
        -0.9257870625008696,
        0.9423926173936992,
        0.7873635280392546,
        0.0,
        0.8325079802275416,
        0.979973286379501,
        0.5827502693857887,
        0.0,
        0.0,
        -0.9831625343445843,
        -0.14736638396723897,
        -0.3130740268483949,
        0.0,
        0.0,
        0.0,
        0.16130855820320059,
        1.437098883446392,
        1.437098883446392,
        0.0,
        0.0,
        0.0,
        0.7079153487994615,
        0.011675768266259616,
        -0.16859138428730164,
        0.7807253898504717,
        0.9695156653355739,
        0.14594221402533977,
        -0.32255594762260503,
        0.0,
        -0.20041435377770173,
        -0.7674288065809773,
        0.3057310375780968,
        -1.0022725336117173,
        -1.3431623868256493,
        -1.339028885756712,
        0.9813028468066552,
        -0.15514202012778952,
        0.7501899863059638,
        0.748721243316216,
        0.7119747998174956,
        0.21442874225534536,
        1.526227127614898,
        0.19169196883886727,
        2.1893826439432917,
        -0.2536254344297668,
        0.6375928473544259,
        1.0625274102983469,
        -0.10589034308977553,
        -0.16859138428730164,
        -0.18511360685564088,
        0.40975150450463854,
        -0.20041435377770173,
        0.0,
        -0.10589034308977553,
        -0.10589034308977553,
        -0.12998713294018835,
        -0.07470463479793313,
        0.6843742522134483,
        0.034926843419314305,
        -0.37774646542970813,
        0.038221572768161335,
        -0.18511360685564088,
        0.034926843419314305,
        -0.20041435377770173,
        -0.24124590880360966,
        0.0,
        0.0,
        0.0,
        0.0,
        0.0,
        0.0,
        0.0,
        0.0,
        0.0,
        0.0,
        0.0,
        0.0
      ]
    },
    "form_row": {
      "bias": -5.603456471721968,
      "values": [
        -0.18939456599011947,
        -0.18939456599011947,
        -0.23722334381462745,
        -0.16772123014703585,
        0.2028626083848625,
        0.3823864520635851,
        -0.3798383347564704,
        0.06853271822512426,
        0.35650527418346845,
        -0.1741868255298448,
        0.3318321490315415,
        -0.2917666376350539,
        -0.3146069851427516,
        0.24596280125130468,
        0.17243816953139493,
        -0.11117996914179545,
        0.361005199117183,
        -0.34229361477227604,
        0.37812557441400724,
        -0.6414215842996385,
        0.0,
        -0.18224642685499112,
        -0.08652777520284895,
        0.06853271822512426,
        0.0,
        0.0,
        0.41957482034742144,
        -0.4109399210510471,
        0.9360331421510071,
        0.0,
        0.0,
        0.0,
        0.554593553871802,
        -0.3066983799451183,
        -0.3066983799451183,
        0.0,
        0.0,
        0.0,
        -0.07949851510582188,
        0.5355835597532391,
        -0.17941008274424078,
        -0.09494068408818507,
        -0.094611606778966,
        -0.04049150382244627,
        -0.15665118434292663,
        0.0,
        -0.2132751679238644,
        0.4581487680129669,
        -0.32042954613025,
        0.5746184157026077,
        1.0553634808222703,
        1.0562910516174717,
        -0.7880434408265432,
        0.168300504804077,
        -0.2619581807509599,
        -0.2635178114071399,
        -0.18814361834516824,
        -0.2306065675421924,
        -0.554593553871802,
        -0.24765208855791543,
        -0.3943747830239315,
        -0.10632458254250635,
        -0.16009736880935804,
        -0.1436337739523995,
        0.638550856814101,
        -0.17941008274424078,
        -0.19699255488915796,
        -0.36170944232906943,
        -0.2132751679238644,
        0.0,
        0.638550856814101,
        0.638550856814101,
        -0.1383285532358154,
        -0.07949851510582188,
        0.08318478906714201,
        1.5420244646660326,
        -0.40198688032359314,
        1.0408618517689898,
        -0.19699255488915796,
        1.5420244646660326,
        -0.2132751679238644,
        -0.2567269296894028,
        0.0,
        0.0,
        0.0,
        0.0,
        0.0,
        0.0,
        0.0,
        0.0,
        0.0,
        0.0,
        0.0,
        0.0
      ]
    },
    "heading": {
      "bias": -8.28430464494017,
      "values": [
        -0.17199741208616692,
        -0.17199741208616692,
        -0.17675082423980437,
        -0.3681111430597886,
        -0.3370060189491611,
        0.5001018402062998,
        0.39934836374287835,
        -0.4184371915098746,
        0.6847579165442068,
        -0.4231496632113236,
        0.6796872719072821,
        -0.0741753117181181,
        -0.017193578792563988,
        0.41445294566242674,
        0.12251168829575886,
        -0.5145894934983446,
        0.7235695505037085,
        -0.7162792778393882,
        0.7275819510185699,
        0.7918453540449945,
        0.0,
        0.5365672958030331,
        -0.038494666942226245,
        -0.4184371915098746,
        0.0,
        0.0,
        -0.6420816227942553,
        -0.6093024864098343,
        -0.3009745475499062,
        0.0,
        0.0,
        0.0,
        0.7707840548051056,
        -0.2770656862306141,
        -0.2770656862306141,
        0.0,
        0.0,
        0.0,
        -0.07181749915356857,
        1.1709412400482229,
        -0.16207577523271993,
        -0.024487157932063713,
        -0.03362331288205296,
        1.2579946885225484,
        1.372297918787117,
        0.0,
        -0.1926688715060997,
        0.2316870842126661,
        -0.3786561015222793,
        -0.8873656741419671,
        -0.3621957618209075,
        -0.3679629354294557,
        0.06891313013644793,
        1.8325697842181643,
        0.46425993195488985,
        0.4628487669803807,
        0.32938042370585613,
        0.4077244316064985,
        0.5588184397337016,
        -0.17246181522265325,
        -0.4464661137480611,
        -0.24382348527306086,
        -0.14462902399685967,
        -0.26634149845788196,
        -0.10179796268050885,
        -0.16207577523271993,
        -0.1779594577984181,
        -0.3267616701233622,
        -0.1926688715060997,
        0.0,
        -0.10179796268050885,
        -0.10179796268050885,
        -0.12496347562849024,
        -0.07181749915356857,
        -0.35426731078904994,
        -0.3267616701233622,
        -0.3631475682150334,
        -0.4933388889940368,
        -0.1779594577984181,
        -0.3267616701233622,
        0.273124004662493,
        0.1605616583676198,
        0.0,
        0.0,
        0.0,
        0.0,
        0.0,
        0.0,
        0.0,
        0.0,
        0.0,
        0.0,
        0.0,
        0.0
      ]
    },
    "keep_as_text": {
      "bias": -104.44371815668953,
      "values": [
        4.523034236031447,
        4.523034236031447,
        4.541631012612099,
        -0.5352580231002897,
        0.02790025900884302,
        -0.5570117893748903,
        -0.33037101674167424,
        -0.5902666650441162,
        -0.2532604833415606,
        1.6790706942016649,
        0.036070893042426444,
        2.736149724161225,
        3.9940917766582276,
        1.5482999681459098,
        -0.8384198265937218,
        0.448061484074372,
        0.0007591388860137565,
        -0.19134926930526802,
        -0.1903932326499747,
        0.11303924457393208,
        0.0,
        -0.14228567097026276,
        0.8640634476611636,
        -0.5902666650441162,
        0.0,
        0.0,
        -0.7054956043300955,
        -0.5866307659852823,
        1.5316704715513167,
        0.0,
        0.0,
        0.0,
        -0.4823674166233812,
        -0.2667562653476145,
        -0.2667562653476145,
        0.0,
        0.0,
        0.0,
        -0.06914522011529624,
        -0.48972202178033203,
        3.9635442372957903,
        0.020202535779957894,
        0.8544999480557557,
        -0.8606792256078262,
        -0.6603763387401614,
        0.0,
        2.1464976535167932,
        0.40867180497794303,
        -0.2862149774121192,
        -1.0075821942759033,
        -1.0614749895607538,
        -1.0710617851816198,
        0.36304845563443155,
        -0.38666771548245543,
        0.4384649107229473,
        0.43710628123866335,
        0.3918313692146269,
        0.1843713728052399,
        -0.4823674166233812,
        0.20623377785401864,
        -0.4298534211434821,
        -0.2347509834954586,
        -0.13924747891790676,
        -0.25643111711991423,
        -0.09801013151100155,
        -0.1560450487124327,
        -0.17133771053150018,
        2.5996150593241487,
        -0.18549979721750065,
        0.0,
        -0.09801013151100155,
        -0.09801013151100155,
        -0.12031367188417433,
        -0.06914522011529624,
        3.0697674418604652,
        -0.3146030963513301,
        0.3192320483378666,
        0.5967723734128223,
        4.854568465059172,
        -0.3146030963513301,
        5.644493829618234,
        4.68914722274551,
        0.0,
        0.0,
        0.0,
        0.0,
        0.0,
        0.0,
        0.0,
        0.0,
        0.0,
        0.0,
        0.0,
        0.0
      ]
    },
    "link_text": {
      "bias": -75.9459896768937,
      "values": [
        -0.12976111793388231,
        -0.12976111793388231,
        -0.27420047266079894,
        -0.551548177612562,
        0.17914775821709072,
        -0.6785693244587312,
        -0.32582462660302736,
        -0.9723800654769349,
        -0.0884929550332512,
        -0.5042364287136858,
        -0.07467713533560477,
        0.4256135976301921,
        0.18479137228300646,
        -3.706692240738974,
        -4.537075565671087,
        0.2029774011823814,
        0.26043419483857216,
        -0.6065686776190434,
        -0.08790259546673701,
        2.2891116679270413,
        0.0,
        -0.11956916487491831,
        -0.1098701697571578,
        -0.9723800654769349,
        0.0,
        0.0,
        -1.0113075419719928,
        -0.5785578655359436,
        -0.2857877584533513,
        0.0,
        0.0,
        0.0,
        -0.4757293329083806,
        -0.26308530756760146,
        -0.26308530756760146,
        0.0,
        0.0,
        0.0,
        -0.06819368038893896,
        -0.48298272790262103,
        -0.15389763978519735,
        -0.17256347385206278,
        -0.11702577757593723,
        0.030582691328880324,
        -0.0596766169261503,
        0.0,
        -0.18294704771450754,
        0.6653994567835766,
        -0.020961318673014845,
        -1.005943105323477,
        -1.2987586830570774,
        -1.2877610578039171,
        2.529696220225034,
        0.08223306112982275,
        -0.224707246790961,
        -0.22604509510612464,
        -0.161389250598837,
        -0.19781389050637604,
        -0.4757293329083806,
        1.0983367710482368,
        -0.42393800709104884,
        -0.23152046537396143,
        -0.1373312292080273,
        -0.25290224853569526,
        -0.09666136823332722,
        -0.15389763978519735,
        -0.16897985212969055,
        -0.3102736959428256,
        -0.18294704771450754,
        0.0,
        -0.09666136823332722,
        -0.09666136823332722,
        8.582927158648552,
        -0.06819368038893896,
        -0.3363914373088685,
        -0.3102736959428256,
        -0.3448236083509721,
        -0.4684456423016771,
        -0.16897985212969055,
        -0.3102736959428256,
        -0.18294704771450754,
        4.624617673808646,
        0.0,
        0.0,
        0.0,
        0.0,
        0.0,
        0.0,
        0.0,
        0.0,
        0.0,
        0.0,
        0.0,
        0.0
      ]
    },
    "list_item": {
      "bias": -19.59958628945045,
      "values": [
        0.9841175340820482,
        0.9841175340820482,
        0.9066778766381143,
        0.1270080594643015,
        1.3959423536617062,
        -0.5948853823578424,
        -0.33504607829933947,
        -0.6077302840491347,
        0.7201162237429705,
        1.0253088488628272,
        0.7407141919205665,
        1.9390998872580694,
        0.34163862713942955,
        0.21695775393393385,
        0.1521034797281644,
        0.253136388923378,
        0.7694020465345334,
        -0.7747647405943512,
        0.7605154023126593,
        0.7485322843897785,
        0.0,
        0.15592261147875344,
        -0.020731974547247355,
        -0.6077302840491347,
        0.0,
        0.0,
        -0.5114023444670293,
        -0.4579514311491941,
        0.09096164728849929,
        0.0,
        0.0,
        0.0,
        -0.48919337063220264,
        -0.27053111815913733,
        -0.27053111815913733,
        0.0,
        0.0,
        0.0,
        -0.07012369021126742,
        -0.4966520503904311,
        -0.1582532333640237,
        -0.12239549912619056,
        0.034313762633501534,
        0.1810578346061548,
        -0.37821750963011863,
        0.0,
        -0.188124794347937,
        -0.1675820820292118,
        -0.36210155741558797,
        -0.8993933604398937,
        -0.9183441406022097,
        -0.9616460544463217,
        0.6384119396864308,
        0.37103868135997264,
        1.0184920048150714,
        1.0171123292853983,
        -0.16595687089880407,
        3.1066448593476754,
        -0.48919337063220264,
        -0.4043608820502535,
        -0.43593625257475777,
        -0.2380729313751113,
        -0.1412179621101413,
        -0.2600598593433093,
        -0.09939706733427044,
        -0.1582532333640237,
        -0.17376230077487045,
        1.98989582604047,
        2.0290602818956063,
        0.0,
        -0.09939706733427044,
        -0.09939706733427044,
        -0.12201622384479943,
        -0.07012369021126742,
        0.08647798742138364,
        -0.31905502696007537,
        1.3412478580772225,
        0.19762196424144288,
        -0.17376230077487045,
        -0.31905502696007537,
        0.5509368977332441,
        0.39629192330592955,
        0.0,
        0.0,
        0.0,
        0.0,
        0.0,
        0.0,
        0.0,
        0.0,
        0.0,
        0.0,
        0.0,
        0.0
      ]
    },
    "paragraph": {
      "bias": -5.181468930315085,
      "values": [
        0.18348689235754667,
        0.18348689235754667,
        0.14887513068965144,
        -0.6847634155863992,
        -0.37141154102251006,
        -0.5696275922845954,
        1.1797387520990974,
        -0.9208885379043064,
        0.47398797636582746,
        -0.2745425473865386,
        0.4941877874738512,
        0.6564419399218059,
        0.31701142995215104,
        -0.872919451997535,
        -0.288389517206369,
        -0.5327351732080182,
        0.5243344264432585,
        -0.5312875784827465,
        0.5149700913529014,
        0.8790326577223402,
        0.0,
        -0.02984782607017677,
        -0.07797046917980976,
        -0.9208885379043064,
        0.0,
        0.0,
        -0.49571210704472823,
        -0.6580284659165835,
        -0.1073680630851502,
        0.0,
        0.0,
        0.0,
        -0.44775946863706884,
        -0.3277291259984978,
        -0.3277291259984978,
        0.0,
        0.0,
        0.0,
        -0.08494984185593539,
        -0.3864310587660367,
        0.1831919333773257,
        0.08625176316278776,
        -0.0948884194490037,
        -0.2590489976603077,
        0.18362555273094675,
        0.0,
        0.5679406489865519,
        -0.2987296086935899,
        0.26942855631192425,
        -0.9801908556481773,
        -1.0657423859702675,
        -1.0612719575178549,
        0.899642468340675,
        0.22867862773099862,
        -0.2767602151685886,
        -0.27027475248540467,
        -0.1889832288376568,
        -0.24641958931651414,
        0.6387157126146423,
        -0.32469271395895116,
        -0.5281056316905637,
        -0.2884083511515634,
        -0.1710754740991426,
        -0.31504394389018037,
        -0.12041244728494475,
        -0.19171248841813157,
        -0.21050061579584306,
        0.011301531447875686,
        0.4087725690157985,
        0.0,
        -0.12041244728494475,
        -0.12041244728494475,
        0.09306803613474225,
        -0.08494984185593539,
        -0.41904761904761906,
        -0.1876054220347364,
        1.2139504423188259,
        -0.36409494269054404,
        -0.21050061579584306,
        -0.38651237551734846,
        -0.22789975086721512,
        -0.14021365391671384,
        0.0,
        0.0,
        0.0,
        0.0,
        0.0,
        0.0,
        0.0,
        0.0,
        0.0,
        0.0,
        0.0,
        0.0
      ]
    },
    "separator": {
      "bias": -40.23953154611584,
      "values": [
        -0.22314284604631612,
        -0.22314284604631612,
        -0.2429744709431135,
        -0.559244198695528,
        2.065065867443237,
        -0.6880377336372251,
        -0.33037101674167424,
        0.14431443485887252,
        -0.41872747216837314,
        0.22847217019191543,
        -0.4227802034651633,
        0.12859565509027582,
        -0.0887219265563005,
        -0.11410207344121456,
        -2.2065314502280433,
        0.43069993296251885,
        -0.10240383620101505,
        0.10291633700916908,
        -0.1014229040349948,
        0.5968801846528172,
        0.0,
        0.01819893092564983,
        -0.15836811203499385,
        0.14431443485887252,
        0.0,
        0.0,
        0.7254424538372498,
        -0.5055891531019152,
        0.9245218161616056,
        0.0,
        0.0,
        0.0,
        -0.4823674166233812,
        -0.2667562653476145,
        -0.2667562653476145,
        0.0,
        0.0,
        0.0,
        -0.06914522011529624,
        -0.48972202178033203,
        -0.15604504871243266,
        -0.14649144929463934,
        0.08454265801228307,
        1.0531731094424128,
        0.7188179291898636,
        0.0,
        -0.18549979721750065,
        -1.4095840462687128,
        2.8597322564607963,
        -0.41135219499316306,
        -0.9239487315800146,
        -0.9243942654513703,
        0.2281716778239699,
        0.8226894416387909,
        1.5085648009755372,
        1.5072027771496908,
        1.687695828058267,
        -0.20057408432739524,
        -0.4823674166233812,
        -0.398718637184436,
        -0.4298534211434821,
        -0.2347509834954586,
        -0.13924747891790676,
        -0.25643111711991423,
        -0.09801013151100155,
        6.709937094634605,
        -0.17133771053150018,
        1.1425059814864094,
        -0.18549979721750065,
        0.0,
        -0.09801013151100155,
        -0.09801013151100155,
        -0.12031367188417433,
        -0.06914522011529624,
        1.0232558139534884,
        -0.3146030963513301,
        -0.34963510056052055,
        -0.47498209312449124,
        -0.17133771053150018,
        -0.3146030963513301,
        -0.18549979721750065,
        -0.22329272489264335,
        0.0,
        0.0,
        0.0,
        0.0,
        0.0,
        0.0,
        0.0,
        0.0,
        0.0,
        0.0,
        0.0,
        0.0
      ]
    },
    "table_like": {
      "bias": -2.279660872590921,
      "values": [
        -0.4392182804127147,
        -0.4392182804127147,
        -0.40059387956428616,
        0.5274169607157586,
        -0.31887300049336387,
        0.4488623961234437,
        -0.5340584105222553,
        0.6583095169960658,
        -1.088249907963803,
        -0.08926974152287859,
        -1.1151505016555348,
        -0.8256525686293841,
        -0.4576452644412871,
        0.345827397248075,
        0.2424506594163222,
        0.2218727048927271,
        -1.1674432776854768,
        1.1880782802844783,
        -1.141424608076821,
        -0.9974151875738488,
        0.0,
        -0.3109857428978121,
        -0.30035107217691753,
        0.6583095169960658,
        0.0,
        0.0,
        0.7365501840906568,
        1.06322361211091,
        -0.46843407024684647,
        0.0,
        0.0,
        0.0,
        -0.040332769473953964,
        0.036112231928794813,
        0.036112231928794813,
        0.0,
        0.0,
        0.0,
        -0.11177610770517814,
        -0.10808422294278519,
        -0.25225327423438365,
        -0.2449148971690563,
        -0.31123530184592185,
        -0.19352505274445952,
        -0.19069989365208856,
        0.0,
        -0.2998680932463357,
        0.266760787696653,
        -0.21280372695626995,
        1.243109006166482,
        1.1245085138156687,
        1.127476021638292,
        -0.8177148291022929,
        -0.7150910705149165,
        -0.36831714135661275,
        -0.3705100055122945,
        -0.2645327566206501,
        -0.3242363017322555,
        -0.6318800550919456,
        0.367107175046169,
        0.05058483062170151,
        0.4928938850593869,
        0.05950901246642891,
        0.06927184303043893,
        -0.1584374306380852,
        -0.25225327423438365,
        0.4234207788996843,
        -0.5085689151544058,
        -0.2998680932463357,
        0.0,
        -0.1584374306380852,
        -0.1584374306380852,
        -0.19449202597817655,
        -0.11177610770517814,
        -0.2978711145680293,
        -0.5085689151544058,
        -0.5651995986504655,
        -0.2201876906483227,
        -0.04350940334558159,
        -0.3731966691362942,
        -0.2998680932463357,
        -0.360961923698634,
        0.0,
        0.0,
        0.0,
        0.0,
        0.0,
        0.0,
        0.0,
        0.0,
        0.0,
        0.0,
        0.0,
        0.0
      ]
    }
  },
  "thresholds": {
    "caption": {
      "min_score": 8.584971294678695,
      "min_confidence": 0.5
    },
    "footer_header_noise": {
      "min_score": 2.6113446519239876,
      "min_confidence": 0.5
    },
    "form_row": {
      "min_score": -3.0705273673879354,
      "min_confidence": 0.5
    },
    "heading": {
      "min_score": 6.019036560066404,
      "min_confidence": 0.5
    },
    "keep_as_text": {
      "min_score": 17.726685248669007,
      "min_confidence": 0.5
    },
    "link_text": {
      "min_score": 27.382796542269006,
      "min_confidence": 0.5
    },
    "list_item": {
      "min_score": 14.682447191127954,
      "min_confidence": 0.5
    },
    "paragraph": {
      "min_score": 4.571897421035871,
      "min_confidence": 0.5
    },
    "separator": {
      "min_score": 16.3336492248973,
      "min_confidence": 0.5
    },
    "table_like": {
      "min_score": 0.7080559703013947,
      "min_confidence": 0.5
    }
  },
  "metadata": {
    "trained_from": "samples/pdf_layout_classifier/manifest.tsv,.external/layout_model/pdf_eval_manifest.local.tsv,.external/layout_model/pdf_eval_manifest_round2.local.tsv,.external/layout_model/pdf_eval_manifest_round3_baseline.local.tsv,.external/layout_model/pdf_eval_manifest_round4.local.tsv,.external/layout_model/pdf_eval_manifest_round5_candidates.local.tsv,.external/layout_model/pdf_eval_manifest_round6.local.tsv,.external/layout_model/pdf_eval_manifest_round7.local.tsv",
    "sample_count": "220",
    "label_counts": {
      "caption": "1",
      "footer_header_noise": "21",
      "form_row": "33",
      "heading": "13",
      "keep_as_text": "5",
      "link_text": "2",
      "list_item": "8",
      "paragraph": "45",
      "separator": "5",
      "table_like": "87"
    },
    "notes": "training spike / local corpus only"
  }
}
